[{"bias":[0.09959091991186142,0.09993402659893036,0.061492908746004105,0.09999483078718185,0.10051953792572021,0.12010643631219864,0.06874068826436996,0.10342586785554886,0.10418281704187393,0.09166140854358673,0.10011590272188187,0.09894163906574249,0.13306240737438202,0.09999935328960419,0.10927457362413406,0.08640507608652115,0.07970679551362991,0.05984224006533623,0.09999687224626541,0.10219039767980576,-0.04926511272788048,0.11516547203063965,0.08952279388904572,0.09885615855455399,0.09317854046821594,0.07030583173036575,0.07605107128620148,0.0906672403216362,0.21336744725704193,0.09992244839668274,0.09035924077033997,-0.01422544103115797,0.07215584814548492,0.08366034179925919,0.0978197529911995,0.10000000149011612,0.09346313774585724,0.08264031261205673,0.10061103850603104,0.08639991283416748,0.09167969226837158,0.10000000149011612,0.10481755435466766,0.24879705905914307,0.14486663043498993,0.1191319152712822,0.09948823601007462,0.10000000149011612,0.05452622473239899,0.07250839471817017,0.2337387353181839,0.15540087223052979,0.0903494581580162,0.1584167629480362,0.07375308871269226,0.104249507188797,0.09330720454454422,0.10073719173669815,0.10280416160821915,0.09946635365486145,0.1706247180700302,0.09975870698690414,0.09940572828054428,0.16905757784843445,0.020917262881994247,0.048994820564985275,0.09817036986351013,0.1035083681344986,0.10558512061834335,0.10322099924087524,0.10011816024780273,0.09448692202568054,0.11258576810359955,0.11321278661489487,0.09975046664476395,-0.1538834124803543,0.10185342282056808,0.1055816262960434,0.0992327630519867,0.07375264167785645,0.09992697089910507,0.11551756411790848,0.25579991936683655,0.0790671706199646,0.1197686418890953,0.10093535482883453,0.11581718921661377,0.09942001849412918,0.10281442105770111,0.09477247297763824,0.10032859444618225,-0.029814140871167183,0.09218863397836685,0.22635717689990997,0.10008908063173294,0.09971295297145844,0.18498361110687256,0.1018923670053482,0.05242077633738518,0.09136680513620377],"weights":[[0.12812034785747528,0.06104548142996517,0.40188051986754847,-0.13201117415353908,0.17720136742561984,-1.0619039979175828,0.34581756210407616,0.057921163184669944,-0.0346010892159766,-0.12927235041041668,0.06987651889545744,0.0917289449433597,-0.10929560142763939,-0.0062975344458678015,-0.08231074557583948,0.10348661132178934,-0.1996752768754959,0.6027990579605103,0.1041145920753479,-0.07176803797483444,0.7991071939468384,-0.47865521907806396,0.027615884318947792,0.1810569316148758,-0.21471615135669708,-0.6016620993614197,0.4282827079296112,0.19566278159618378,-0.18974056839942932,0.1110040619969368,0.014584715478122234,1.1108989715576172,0.3080763518810272,0.08270160853862762,0.12488538026809692,0.19870388507843018,0.09128984063863754,-0.22482186555862427,0.15044888854026794,-0.06337696313858032,0.06394864618778229,-0.12758108973503113,0.054589174687862396,-1.0893412828445435,-0.039424750953912735,-0.6794001460075378,-0.037783633917570114,-0.18537025153636932,0.29783642292022705,-0.009809445589780807,-1.1446313858032227,-0.6386786103248596,0.01604864001274109,-1.4291982650756836,0.45746156573295593,-0.052778612822294235,-0.20201849937438965,-0.09725019335746765,-0.09876702725887299,-0.07767868041992188,-0.49551546573638916,0.024076035246253014,0.1650630533695221,0.3712097108364105,0.5658916234970093,1.50289785861969,-0.08566711097955704,-0.10803549736738205,-0.0025276043452322483,-0.10044591873884201,-0.1343139261007309,0.23116137087345123,0.0836699977517128,-0.8473562598228455,0.20317766070365906,1.4176983833312988,-0.032449815422296524,-0.005169234704226255,0.12054315954446793,0.44784119725227356,0.18609017133712769,-0.5605632066726685,-1.1321780681610107,-0.039061132818460464,-0.21875517070293427,0.19401004910469055,-0.02494305744767189,-0.03279394283890724,0.08980359137058258,0.12386349588632584,0.02614367939531803,0.18830347061157227,0.23666955530643463,-1.0067155361175537,0.05094614252448082,-0.12874862551689148,-0.7578027844429016,-0.0353616364300251,-0.1149270310997963,-0.10427570343017578],[-0.1312523006322994,-0.012224402949120153,-0.09841102805362235,-0.10527915725587245,-0.21561208005646404,0.007102099232329441,-0.045323143319844966,0.21532284240495275,0.08971826625075006,0.08414891370791691,0.22341088660567332,-0.15468724560267996,-0.1205836150320003,-0.1144786772048374,-0.25704902943983426,0.007953910367086162,0.07412164658308029,0.143181711435318,0.041786085814237595,-0.08775302767753601,0.2765697240829468,-0.16386419534683228,-0.0206430833786726,-0.10902366042137146,0.00602372782304883,0.06862664967775345,0.04393454268574715,-0.010944359935820103,0.02095705457031727,-0.03185515105724335,-0.027162525802850723,-0.0414857417345047,0.013307597488164902,0.002853721147403121,-0.0346250906586647,-0.16183580458164215,0.04606936126947403,0.03529941290616989,0.12359663099050522,0.00976762268692255,-0.028593644499778748,0.08997312933206558,0.018454108387231827,0.17976535856723785,-0.21020330488681793,0.012330618686974049,-0.19105206429958344,0.02970028482377529,0.0475279837846756,-0.00308078620582819,-0.008603262715041637,-0.03933758661150932,-0.10742200911045074,-0.04055185243487358,0.05326925963163376,-0.029303323477506638,5.615503323497251E-5,-0.08464578539133072,-0.020607100799679756,0.013646185398101807,-0.07281089574098587,-0.10146347433328629,0.05325672775506973,0.08314941078424454,0.16013698279857635,0.11743254214525223,-0.06410116702318192,0.01965930126607418,0.04800684005022049,-0.029880113899707794,0.018970441073179245,0.021754156798124313,-0.03514495864510536,0.060145895928144455,0.08322018384933472,-0.020702535286545753,-0.08412483334541321,-0.23134556412696838,-0.07601334154605865,-0.07687465101480484,0.06225978955626488,0.042179446667432785,0.20021601021289825,-0.06322693824768066,0.016102882102131844,-0.009919559583067894,-0.08969832956790924,-0.12115179747343063,0.053909171372652054,0.043997541069984436,-0.09477345645427704,-0.11799733340740204,-0.02320709452033043,0.08281544595956802,-0.06420309841632843,-0.054716650396585464,0.04603925347328186,0.016395343467593193,0.06619761139154434,0.12066923826932907],[0.047923027841274196,0.02150792653481702,0.26298621024752783,-0.055283157913484635,0.17607795250243247,-0.019092888308367223,0.11351306348149015,-0.0155892798976838,0.11852668569415283,-0.20226536706134218,0.03203087828551272,0.005254301306303985,0.046658526215170915,-0.0011391741947357585,-0.058250474341452516,-0.025389424244164273,0.1953703761100769,-0.07169501483440399,0.07471319288015366,0.12245126068592072,0.05164303630590439,0.016636846587061882,0.17445345222949982,-0.06663548946380615,-0.01175457052886486,-0.08634311705827713,-0.02927408739924431,0.017519153654575348,0.12552779912948608,0.013288723304867744,0.056586313992738724,-0.12171857059001923,-0.04450925439596176,0.05823792517185211,-0.1261349469423294,-0.007356756366789341,0.05194544792175293,-0.007595808710902929,0.0046773264184594154,0.1241544857621193,0.03021285869181156,0.0990966185927391,-0.06211895868182182,0.05229150503873825,0.07082585245370865,0.057676393538713455,0.055731311440467834,-0.16812920570373535,-0.17479580640792847,0.15154626965522766,-0.13843488693237305,-0.04071236774325371,-0.04436732083559036,0.10555364936590195,0.08740928769111633,0.020889833569526672,-0.03996558114886284,0.03710246831178665,-0.036306899040937424,-0.014045331627130508,-0.022665897384285927,0.0844065248966217,0.03208138421177864,-0.14100532233715057,-0.03106599859893322,-0.11082635074853897,-0.011710136197507381,0.0014050774043425918,-0.024709677323698997,-0.05757523700594902,-0.04975568875670433,0.05162680894136429,-0.0061885882169008255,-0.11239582300186157,-0.08749263733625412,-0.1634615808725357,-8.844439435051754E-5,-0.07117097079753876,-0.053772810846567154,0.10981273651123047,0.03313132002949715,0.03570295870304108,-0.02212907001376152,0.09041298180818558,0.0460013672709465,-0.1154308095574379,0.025154411792755127,-0.11875663697719574,-0.05882587283849716,-0.11689036339521408,-0.021004922688007355,0.08776320517063141,-0.0938064232468605,0.14968734979629517,0.02479272149503231,0.0608539879322052,0.16514350473880768,-6.232312298379838E-4,-0.14956380426883698,0.059161920100450516],[0.0627027663924341,0.013072354750703168,-0.1923564419232471,-0.18564116262603486,0.029184469929656016,0.19467313367450675,-0.026573330438245363,-0.05807139393536486,0.07459634275063252,-0.1918405110761175,0.12468471220462284,0.10620966601502171,-0.15440028019389768,-0.09379027569462609,0.7569039226650789,0.05186421654205085,-0.04940790683031082,-0.008101765997707844,-0.02971421740949154,0.13124458491802216,-0.31028878688812256,0.1645084172487259,-6.27406348939985E-4,0.24093851447105408,-0.28306683897972107,-0.1926717460155487,-0.2096937596797943,-0.21233084797859192,-0.041279662400484085,-0.1471424102783203,-0.12432465702295303,0.1253814697265625,-0.13172508776187897,0.22405032813549042,0.01132409367710352,0.0359383150935173,0.03097701072692871,-0.14115740358829498,0.03955750912427902,-0.13385336101055145,-0.006471800152212381,-0.1157936230301857,0.09847046434879303,-0.17539510130882263,0.21482953429222107,0.2840805649757385,0.09916508197784424,-0.05671817064285278,-0.09005231410264969,-0.12103821337223053,-0.20976273715496063,-0.12679889798164368,-0.17949047684669495,0.3318902254104614,-0.25654271245002747,0.0058820112608373165,-0.06167558580636978,0.07998347282409668,0.012745441868901253,-0.10677861422300339,0.4122718572616577,-0.06409985572099686,-0.011890576221048832,-0.07328718900680542,-0.12744908034801483,-0.106044240295887,0.038412466645240784,0.09122343361377716,-0.09844446182250977,0.18527421355247498,0.10640078783035278,-0.035573288798332214,-0.031557559967041016,-0.06499367207288742,0.007651508320122957,-0.005170232616364956,0.05317767709493637,0.575107216835022,0.04368218779563904,-0.006202193908393383,-0.07170534133911133,0.36670446395874023,0.008217963390052319,0.15809372067451477,0.34480080008506775,0.1477484405040741,0.19774968922138214,0.01611875183880329,0.059450410306453705,-0.1362297087907791,-0.04369163513183594,-0.252201110124588,0.027881287038326263,0.05164491757750511,-0.1485389918088913,-0.10775002092123032,-0.023220496252179146,-0.050995923578739166,-0.17050597071647644,-0.06487981975078583],[-0.1327397408979163,-0.26717265252205613,-0.21258243046710493,-0.2697258974405258,-0.04730669217801978,0.2086089219222889,-0.0833804973732566,-0.1551545907207281,0.12310166791957489,-0.12065296948780793,0.012004327074523327,0.08065753086418564,-0.09868242733659863,-0.11831185756645499,0.5088354540158172,0.056839756377471906,-0.09034628421068192,-0.1018010750412941,-0.03492824733257294,-0.05798051878809929,-0.5415371656417847,-0.03837357461452484,0.14724647998809814,0.3029715120792389,-0.2674816846847534,-0.22509558498859406,0.01737952046096325,-0.09027653932571411,-0.03742363303899765,0.08533144742250443,0.03139718621969223,0.08129432797431946,-0.1938699334859848,0.008555128239095211,0.04601999372243881,0.03629280999302864,0.013377527706325054,-0.16909776628017426,0.1759498566389084,-0.23844636976718903,-0.11537591367959976,0.10744673013687134,0.09435228258371353,-0.15097346901893616,0.04190313443541527,0.30853626132011414,-0.12914462387561798,-0.1814732551574707,-0.21205168962478638,-0.03703021630644798,0.024478621780872345,-0.0018931640079244971,0.0501558743417263,0.3605448007583618,-0.24390771985054016,-0.03599734976887703,-0.09618078917264938,0.04634485021233559,0.08529918640851974,-0.1599780172109604,0.19108280539512634,-0.03133005648851395,-0.10719399899244308,0.1727743297815323,-0.24350804090499878,-0.32581648230552673,-0.009833965450525284,-0.03720375522971153,-0.1626816987991333,0.24000108242034912,-0.05733237788081169,-0.12971000373363495,-0.02497774176299572,-0.008287469856441021,0.003153617260977626,0.1993754357099533,-0.09162183105945587,0.5239866375923157,-0.1307411789894104,-0.20440176129341125,-0.1477503776550293,0.409574419260025,-0.02311554178595543,0.1406654566526413,0.2301817536354065,0.07496728003025055,0.09182474762201309,-0.14117513597011566,0.08183275908231735,-0.027956252917647362,0.09533464908599854,-0.28038716316223145,0.036629825830459595,-0.04983070120215416,-0.018749380484223366,0.16187065839767456,-0.010782027617096901,-0.22027908265590668,-0.051156025379896164,-0.024462493136525154],[0.14005125442306587,-0.08581259180324041,-0.4002771761666045,-0.08810627658014837,0.061080379039460786,0.2093250897367018,-0.027795561377566766,-0.06769889917411742,-0.07090062041778768,-0.22493644505249877,-0.003881756553042702,-0.03453257219734639,-0.07288054564251883,-0.02730460282468032,0.5108514524187338,-0.14180342209865365,-0.169420063495636,-0.1504061073064804,-0.016123732551932335,-0.11523454636335373,-0.5167254209518433,0.09468767046928406,0.04291188716888428,0.1382712870836258,-0.13098099827766418,-0.15937316417694092,-0.24325066804885864,-0.2842722237110138,-0.1132485643029213,-0.22002167999744415,-0.019045162945985794,0.07926353067159653,-0.12706582248210907,0.12835367023944855,0.003955650608986616,0.14785915613174438,0.07978347688913345,-0.019629614427685738,0.04938744381070137,-0.28812775015830994,-0.051977962255477905,-0.014499557204544544,0.11256355047225952,-0.05509806424379349,0.02386712096631527,0.42879602313041687,0.05510430783033371,-0.00951582845300436,-0.2270592302083969,-0.1867666393518448,-0.08221941441297531,0.002232226310297847,-0.27250489592552185,0.6149495244026184,-0.20807527005672455,0.04792925715446472,0.04158109426498413,-0.11042144894599915,-0.09883728623390198,0.03530990704894066,0.2227119505405426,-0.05432678386569023,0.034984663128852844,0.12286902219057083,-0.23967188596725464,-0.5442301034927368,0.0724577009677887,0.004170645959675312,0.05222414806485176,0.1750963181257248,0.054123297333717346,0.009666293859481812,-0.12256165593862534,-0.08636865764856339,0.0353509820997715,0.2031097412109375,0.008054427802562714,0.5511767864227295,0.13534793257713318,-0.2833278775215149,0.010272142477333546,0.18875020742416382,-0.223255455493927,-0.012602296657860279,0.2952211797237396,0.009191809222102165,0.2467789202928543,0.06781268119812012,0.09118997305631638,-0.08718761056661606,0.1889825314283371,-0.3154084086418152,0.06603817641735077,0.008536376059055328,-0.062226299196481705,-0.04342186450958252,0.03518937900662422,-0.12835966050624847,-0.13666434586048126,-0.1048252284526825],[-0.047283401638617356,0.10085091999740957,-0.37210322815892494,0.1134228745761517,-0.16837704217361021,0.12335715726306075,0.04096973258454637,0.012812652658282603,0.10118035838221207,-0.35132709918153776,-0.12587560344286852,-0.019203061825375588,-0.23413920040303104,0.06889968977479578,0.4567688421316804,0.17806201553105155,-0.17592841386795044,-0.08966368436813354,0.16596168279647827,-0.0784987285733223,-0.4082324802875519,0.0623125396668911,0.09592238813638687,0.1287548989057541,-0.09715025871992111,-0.33306291699409485,-0.28730493783950806,-0.20519758760929108,0.07224347442388535,-0.023993805050849915,-0.028778323903679848,0.40107277035713196,-0.3225609362125397,0.18802353739738464,0.13427570462226868,-0.04401029646396637,0.15737363696098328,-0.1793181300163269,0.07095883786678314,0.042605455964803696,-0.13743355870246887,0.09868989139795303,0.22866973280906677,-0.23836487531661987,0.12396528571844101,0.4318639039993286,0.03095267154276371,0.07249652594327927,-0.26444104313850403,-0.2970227003097534,-0.2606811821460724,-0.16652502119541168,0.023030728101730347,0.7897080779075623,-0.14290602505207062,-0.1183924600481987,-0.1187032088637352,-0.0989140048623085,-0.021762026473879814,-0.03855996951460838,0.15332593023777008,-0.010583416558802128,-0.10723685473203659,0.1564285308122635,-0.2572766840457916,-0.6729673743247986,-0.026222987100481987,-0.07515594363212585,-0.12568919360637665,0.21450693905353546,0.11100661009550095,-0.11835619062185287,-0.12604917585849762,-0.18764393031597137,4.7166121657937765E-4,0.3543798625469208,-0.09407433867454529,0.4404298961162567,-0.15290865302085876,-0.2634776532649994,-0.004284867085516453,0.30930477380752563,-0.17924731969833374,-0.02182818576693535,0.2478146255016327,-0.14144791662693024,0.02905365824699402,-0.1276102364063263,0.012077566236257553,-0.11676805466413498,-0.08743966370820999,-0.13413003087043762,-0.05817040801048279,-0.04053908586502075,0.029922548681497574,-0.03321163356304169,0.21629640460014343,0.06902089715003967,-0.19284608960151672,-0.14116671681404114],[0.2518912248632825,0.28577538023437243,-0.5129622923426781,-0.06461826032235958,0.132226743773403,0.3070583301434073,-0.24597247102537262,0.029137293138374383,-0.04552445732016547,-0.2474200905204202,0.03320006730006286,-0.14925372266631853,-0.033963687981908346,0.006404148316020153,0.15242918296712063,-0.018483569228862635,0.014678914099931717,-0.15792840719223022,0.13241347670555115,0.03867628425359726,-0.06782577186822891,0.019587498158216476,-0.031247861683368683,0.09496031701564789,0.049108076840639114,-0.2955661714076996,-0.034806981682777405,-0.10838674008846283,-0.02530503273010254,-0.011055036447942257,-2.7852822677232325E-4,0.06002388149499893,-0.2547720670700073,0.1797061562538147,-0.16321595013141632,0.14102484285831451,0.08710043132305145,-0.26739105582237244,-0.0200809296220541,-0.14082588255405426,-0.06186940148472786,-0.12786468863487244,-0.12026837468147278,-0.23857837915420532,0.08703441917896271,0.07840071618556976,-0.011943766847252846,-0.019132155925035477,0.25675737857818604,-0.3058580756187439,-0.2536470293998718,0.019391262903809547,-0.013460705988109112,0.2113392949104309,-0.2520099878311157,-0.17639827728271484,-0.17110095918178558,0.08749379217624664,0.25938680768013,0.029314570128917694,0.24651214480400085,0.04757987707853317,-0.004926822613924742,0.260732501745224,0.040656086057424545,-0.6349585056304932,-0.03526023030281067,0.07133608311414719,0.05332360789179802,0.004972224123775959,0.0347348116338253,-0.017298143357038498,0.03082330897450447,-0.16328065097332,-0.21370212733745575,0.39842790365219116,0.022397445514798164,0.5249683260917664,0.014989635907113552,-0.3397204577922821,-0.09671330451965332,0.10281269997358322,-0.3401511609554291,-0.01148287858814001,0.34972554445266724,-0.12916703522205353,0.21517015993595123,-0.07855561375617981,0.03567156940698624,0.022074474021792412,-0.052892204374074936,-0.4455978274345398,-0.09266586601734161,-0.09371481835842133,9.251024457626045E-4,-0.019725166261196136,-0.27669164538383484,0.028568236157298088,-0.04194600135087967,-0.0011752895079553127],[-0.046125741998574186,0.0068436095265306945,0.18275780748082998,0.14780643920827508,0.0324842177517581,0.7950675053300629,-0.15117229411296484,0.01380895719175014,0.07297759056943019,-0.06814545498372829,-0.004116059659469311,0.06940916107323039,0.0673702246833926,0.14431278329080358,0.3067789600309327,0.2674778791079335,-0.05727117881178856,-0.14738328754901886,-0.05304214358329773,0.05384927615523338,-0.0411410927772522,0.026887794956564903,-0.050782959908246994,0.20265363156795502,0.011142940260469913,-0.49518707394599915,0.08596634864807129,-0.2184857726097107,0.3537963926792145,-0.05948507785797119,0.13372983038425446,0.4799242913722992,-0.534894585609436,0.2636842727661133,-0.2256149798631668,0.025469662621617317,-0.06837878376245499,0.07490304857492447,0.09034755080938339,0.09820540249347687,0.12022996693849564,-0.08867554366588593,-0.0143173448741436,-0.4649165868759155,-0.15220899879932404,0.29895439743995667,-0.06786105036735535,0.08419353514909744,0.057342324405908585,-0.3072996735572815,-0.5190680027008057,-0.2242816686630249,0.09353505074977875,0.4855709373950958,-0.24662722647190094,-0.2695368528366089,-0.21637459099292755,-0.09900026768445969,-0.0996573343873024,-0.14095354080200195,0.09943893551826477,-0.03587948903441429,-0.15103894472122192,0.15474171936511993,-0.12331613153219223,-0.5973078608512878,0.004413362592458725,0.04124797508120537,0.2686392068862915,-0.03508580103516579,-0.040292106568813324,-0.0241687148809433,0.038039449602365494,-0.2987303137779236,-0.1107029840350151,0.4351096451282501,0.01148214004933834,0.1805189698934555,-0.2146744430065155,-0.30762338638305664,0.13810822367668152,0.20118866860866547,-0.30122503638267517,0.2588736116886139,0.2323959767818451,0.03137589246034622,0.02784760110080242,-0.061587847769260406,-0.053635433316230774,-0.06953688710927963,0.031667839735746384,-0.5485129356384277,0.029584437608718872,-0.2897942364215851,0.1377831995487213,0.0184856578707695,0.05357710272073746,0.18800939619541168,-0.16674791276454926,0.05463634058833122],[0.11679855807756742,-0.16907776637257382,-0.09786271421590995,6.244750731590684E-4,0.1626990951003955,0.5639274750987316,0.06206157429388922,-0.20060113629182375,0.13197039567261593,-0.06533687002199452,0.011487174875570064,0.00787395392769535,0.24176677480169428,-0.21532622612559815,-0.013857049209096632,-0.008050229194840896,0.01074208039790392,0.03743317350745201,-0.01818099431693554,0.007966595701873302,0.2551109194755554,0.08821342885494232,0.037742745131254196,0.42497697472572327,-0.12776945531368256,-0.3731094002723694,0.026873713359236717,-0.16068565845489502,0.16069386899471283,0.0423223078250885,-0.17178788781166077,0.16558758914470673,-0.3276456594467163,0.11290128529071808,0.005542904604226351,0.015625622123479843,0.009031906723976135,0.08940932899713516,0.01103826705366373,0.02857486717402935,-0.004249378107488155,-0.09430241584777832,-0.004335645120590925,-0.1251850426197052,-0.04645836353302002,0.37889325618743896,-0.06631974875926971,-0.017896907404065132,-0.09065152704715729,-0.26734018325805664,-0.13319388031959534,-0.11428098380565643,0.13864342868328094,0.5521514415740967,-0.24562864005565643,0.026940643787384033,-0.06221082806587219,0.00440257741138339,0.08545354753732681,6.858798442408442E-4,-0.00596840912476182,0.027074463665485382,0.06983496248722076,0.14115308225154877,0.2711256444454193,-0.7251134514808655,0.012833777815103531,0.008782214485108852,0.28434956073760986,-0.11607212573289871,-0.030816394835710526,-0.005599682684987783,-4.00277494918555E-5,-0.3032699525356293,-0.1501414179801941,0.20389999449253082,-0.12215246260166168,-0.0654078796505928,-0.16556787490844727,-0.3812601566314697,0.039367057383060455,0.15302561223506927,-0.2159554809331894,0.19619868695735931,0.285462886095047,0.043500933796167374,-0.043041154742240906,-0.08877810090780258,0.09554485231637955,-0.13368184864521027,-0.07531697303056717,-0.5858519077301025,-0.13057762384414673,-0.22156324982643127,-0.029244670644402504,0.010574819520115852,0.10396235436201096,0.18067456781864166,-0.2530869245529175,-0.009763160720467567],[-0.07681147965295435,-0.0673443124849061,-0.04149151407936601,0.04024014221719077,0.007672642604055549,0.737927724180883,-0.20126073521999918,0.15511909749085612,0.13301704007154275,-0.08526439092042276,-0.15689909735692004,0.031460790336530285,0.09140335853471328,-0.11030760946969376,-0.07350206344135693,0.21878557385895092,0.1502573937177658,-0.07047505676746368,-0.03997507318854332,0.4448913335800171,0.15210554003715515,0.0035308555234223604,-0.051880087703466415,0.28894200921058655,-0.287616491317749,0.21257677674293518,0.09255855530500412,-0.1260385364294052,0.6561090350151062,-0.11715943366289139,0.16548152267932892,-0.5122421979904175,-0.17718175053596497,-0.06846708059310913,0.10298500210046768,0.1951306313276291,-0.0321098156273365,0.3029761016368866,-0.09170372784137726,0.05613655224442482,0.15705949068069458,0.05085603892803192,0.033297691494226456,0.6807987689971924,-0.04525835067033768,0.48607131838798523,-0.15039068460464478,-0.02763509564101696,-0.21434848010540009,-0.30059295892715454,0.6852529644966125,0.2751402258872986,0.06371913105249405,1.024685263633728,-0.2517574727535248,0.062374718487262726,-0.20802223682403564,0.005578920710831881,0.014374586753547192,0.025820693001151085,-0.19840949773788452,0.10218039900064468,-0.13747219741344452,0.4616326689720154,-0.14867794513702393,-0.9569333791732788,-0.050078436732292175,0.41586169600486755,-0.017064537853002548,-0.030079932883381844,0.026676606386899948,-0.04348151013255119,-0.11881006509065628,0.3616834282875061,-0.1066431775689125,-0.7948945164680481,0.11899357289075851,-0.19474101066589355,-0.07164506614208221,-0.3470187187194824,-0.21967582404613495,0.30240389704704285,0.7993324398994446,-0.17789538204669952,-0.03809500113129616,-0.058763593435287476,-0.06041659414768219,-7.863044738769531E-4,-0.11415279656648636,-0.10105939209461212,0.16105243563652039,-0.7109287977218628,0.24041728675365448,0.23662115633487701,0.019620832055807114,-0.034795794636011124,0.3178488612174988,0.037086371332407,-0.18186499178409576,0.029802311211824417],[0.020561702927636226,-0.05155500518829846,-0.27614998972126403,0.1416485406529665,0.14618173464687204,0.5727749828338882,-0.22573948615306794,-0.24182020987662228,-0.18454028434489922,-0.3735059388347715,-0.40214589631404196,0.11367062577951764,0.33738901617499817,0.15009251999200912,-0.12576455447538654,0.3138039979398277,0.01102000754326582,-0.5196582078933716,-0.0675806775689125,-0.005239273887127638,-0.3846765160560608,0.2479807287454605,-0.6904788017272949,1.2496389150619507,0.18010303378105164,0.7641444206237793,-0.7387177348136902,-0.07409112900495529,1.41044282913208,0.12006725370883942,-0.33566150069236755,-0.9422866702079773,-0.08264096826314926,0.4075930118560791,0.07642678916454315,0.10070069134235382,-0.4722614586353302,0.4301396906375885,0.07034846395254135,-0.2805347740650177,0.3887505531311035,0.06727030128240585,-0.1058603897690773,0.848747193813324,-0.07437974959611893,0.4469696879386902,0.15536418557167053,-0.18900422751903534,-0.20233820378780365,0.19013534486293793,0.8649726510047913,0.49108007550239563,-0.2365327775478363,0.9516182541847229,-0.12252198904752731,0.09278548508882523,0.1627204567193985,-0.12070408463478088,-0.1689254194498062,-0.08733578771352768,0.10124734044075012,-0.00702039897441864,0.04978381469845772,0.25849172472953796,-0.4737367331981659,-0.9876540303230286,-0.08385907858610153,-0.07802950590848923,0.02742803283035755,-0.0923554077744484,-0.13042469322681427,0.11430328339338303,-0.1711554080247879,0.7442532181739807,-0.015538143925368786,-1.1388297080993652,0.2187311351299286,-0.19091376662254333,0.0819287970662117,-0.19407878816127777,-0.030527427792549133,0.8680099844932556,0.7816839814186096,-0.13144567608833313,-0.33872655034065247,0.03805625066161156,-0.5670204758644104,-0.058391671627759933,-0.13672801852226257,-0.17102950811386108,0.013924446888267994,-1.3032991886138916,-0.4965866804122925,0.8455356955528259,-0.0038396641612052917,-0.0126830218359828,0.7081456184387207,-0.12655915319919586,-1.4659056663513184,0.34819555282592773],[-0.04567402399797117,-0.09285966982638263,-0.3126122026548195,-0.10377870904214853,-0.03898651483161632,0.09026692885467485,-0.5061441187812157,-0.11896157148252737,0.016643198378347282,0.33775098312782864,-0.5684386046710403,0.04305951351755239,-0.07228172074639339,0.05757284327935239,-0.6237673023198858,-0.8052438923438844,-0.2675510048866272,-0.8660913705825806,0.11346900463104248,-0.2585199177265167,-1.4784444570541382,0.9796446561813354,0.6594442129135132,-0.010898173786699772,0.2822522521018982,1.3584022521972656,-0.7871052622795105,0.04520481452345848,0.6252875328063965,-0.05067378655076027,0.24527324736118317,-2.1561005115509033,0.19175806641578674,-0.4718592166900635,0.05465768650174141,-0.029742954298853874,0.40702810883522034,0.8239507079124451,0.04663105681538582,0.2454824000597,0.4203631579875946,-0.1979067027568817,-0.7086305022239685,2.0282742977142334,0.36878588795661926,0.3089015483856201,0.1554775834083557,-0.07941461354494095,-0.29025816917419434,0.35889551043510437,2.1603496074676514,1.1923518180847168,0.20984382927417755,1.0535343885421753,0.1388973742723465,0.5597828030586243,0.24409222602844238,0.03812720999121666,-0.08807944506406784,-0.07881882786750793,0.8971250057220459,0.036721695214509964,-0.09410635381937027,-0.5468690395355225,-0.8186290264129639,-1.1102215051651,-0.010692808777093887,-0.12809737026691437,-0.34051772952079773,-0.3362233638763428,0.07941675931215286,0.04485802724957466,0.01841815561056137,1.6076282262802124,0.14548636972904205,-2.6649506092071533,-0.27734649181365967,-0.5696333646774292,-0.004853394813835621,-0.0349198542535305,-0.09833279252052307,-0.10585863888263702,2.0728213787078857,-0.09929004311561584,0.3199229836463928,0.16252471506595612,0.32201460003852844,-0.10692388564348221,-0.17789845168590546,-0.21146927773952484,-0.4255700409412384,-0.6419918537139893,-0.45095592737197876,1.8867173194885254,0.10296348482370377,-0.09112921357154846,1.1627311706542969,-0.03611689433455467,-0.41254881024360657,0.09290017187595367],[-0.1465753396109007,-0.2042797142931331,-0.07150594894352816,-0.06963061809217036,0.08405406439739371,0.3288033800926281,-0.44375396487754926,0.009219946117693757,0.11341763867142134,0.09485218347257568,0.4163502912285475,-0.039225392361773026,0.1056926780348299,0.05330999364350993,0.005806136359072567,-0.2665587527196814,0.5304386615753174,-0.015412582084536552,0.09342297166585922,-0.13027824461460114,0.09888952225446701,0.06820140033960342,-0.014848423190414906,0.00617777556180954,0.4062314033508301,0.08116672188043594,-0.44583916664123535,-0.07682152092456818,-0.7995759844779968,0.12541407346725464,0.2299601435661316,0.03566107898950577,0.058569055050611496,0.07722291350364685,-0.16860534250736237,-0.027089735493063927,-0.1566569209098816,-0.4023051857948303,0.06797387450933456,0.23865832388401031,-0.35893768072128296,-0.05195588991045952,0.6140387654304504,-0.0071445247158408165,-0.22303442656993866,-0.029593102633953094,0.18398387730121613,0.012082756496965885,-0.30830860137939453,-0.2920353412628174,-0.007991922087967396,-0.01858365535736084,0.3955382704734802,-0.019093751907348633,-0.2972526252269745,-0.45321792364120483,0.35246899724006653,-0.04307207465171814,0.14418941736221313,-0.0038751245010644197,-0.14257223904132843,-0.022691668942570686,0.13503608107566833,-0.6656467318534851,-0.013016525655984879,0.01502460427582264,0.12810949981212616,-0.13209380209445953,0.10614670068025589,0.19479697942733765,-0.027373891323804855,-0.3502819836139679,0.20004315674304962,0.1377408802509308,0.09338642656803131,0.00790395773947239,-0.1389298141002655,-0.06153833121061325,0.08239062130451202,-0.027319028973579407,0.017414644360542297,0.031506121158599854,-0.01694519631564617,0.21252751350402832,-0.011816279031336308,-0.02857590839266777,0.02982235699892044,-0.03758389502763748,-0.022985711693763733,-0.11917223781347275,0.40712153911590576,1.0793282985687256,-0.3625541925430298,-0.016369633376598358,0.10355547815561295,-0.11352122575044632,-0.03287734091281891,-0.025664016604423523,0.9488176703453064,-0.20620745420455933],[-0.16759387925951547,0.24533125560031774,-0.14457162539641055,-0.12253592782091599,-0.15089552096636943,-0.036375901078926534,-0.09059925402771844,0.10739997279307616,-0.025298811314529688,-0.05453584837141014,-0.054383040576695414,-0.08164392510131818,-0.22898100764875004,-0.06521289436748523,-0.12073702807527657,0.2078243637917449,0.08143797516822815,-0.03534796088933945,0.03957000747323036,-0.027525577694177628,0.15601299703121185,-0.471854031085968,0.019236449152231216,2.3662712192162871E-4,0.09876668453216553,-0.1045386791229248,-0.11451973021030426,-0.02763909101486206,0.15657298266887665,-0.002332309726625681,-0.27275121212005615,-0.07737093418836594,0.09970343858003616,0.05361964553594589,-0.08087029308080673,-0.02473076432943344,-0.13898876309394836,-0.09578364342451096,-0.17845582962036133,0.11652778834104538,-0.21424733102321625,-0.0736350417137146,-0.04332265630364418,0.1441110074520111,0.3718351125717163,-0.05677589401602745,0.09042612463235855,0.025056300684809685,-0.08581008017063141,-0.17222951352596283,0.16048887372016907,0.08010037243366241,-0.3969385325908661,0.004647386260330677,0.05603807047009468,0.030077146366238594,0.2175559252500534,0.02062692493200302,0.04237869754433632,-9.957955917343497E-4,-0.29273948073387146,0.04993858560919762,0.008755949325859547,0.48510804772377014,0.17953403294086456,-0.014006607234477997,-0.08341655135154724,-0.020042844116687775,0.04893811047077179,0.2238207757472992,-0.05708219110965729,0.04718264564871788,-0.09112294018268585,-0.03414620831608772,-0.023452766239643097,-0.1457817107439041,0.06881824880838394,0.08917117118835449,0.03031260147690773,0.05309575796127319,0.13012190163135529,-0.03245914354920387,1.0425918102264404,-0.27828601002693176,0.1321604996919632,0.09972862154245377,-0.04480103403329849,0.014238443225622177,0.2891484498977661,0.013058770447969437,-0.07240055501461029,-0.28319594264030457,-0.019360773265361786,0.2973474860191345,0.11357324570417404,-0.1084415391087532,0.23186884820461273,-0.06231016665697098,-0.053515251725912094,0.024014953523874283],[-0.08474442095874204,-0.058896082241229296,0.39882498810279,0.11349568290582368,0.11720534430176693,-0.46498503662656476,-0.04267519580606804,0.11775375297278323,-0.0866909042489373,0.017669209670418982,-0.14141574601491974,-0.007309665187964068,0.1293088683426953,-0.03785714888504548,0.24881626304809806,0.2621756618900303,-0.009932570159435272,0.08029638975858688,0.03450290486216545,-0.08569687604904175,-0.7208148241043091,0.13336549699306488,0.03298850730061531,-0.17515134811401367,-0.0011312492424622178,0.11185642331838608,0.06024143099784851,0.2935362160205841,-0.022888390347361565,-0.2517302334308624,-0.022139383479952812,-0.9412010908126831,-0.06916682422161102,-0.09083519876003265,0.047467902302742004,-0.0030149107333272696,0.04343350976705551,0.03753848373889923,0.005789012648165226,0.11806851625442505,-0.2950000762939453,-0.17215269804000854,0.011401851661503315,1.2518227100372314,0.16274043917655945,-0.5274763703346252,0.14013755321502686,-0.04466678574681282,-0.08574294298887253,-0.09461534023284912,0.9748162627220154,0.6643919944763184,-0.030874498188495636,-0.7295159101486206,-0.08630453795194626,0.02120935544371605,0.1927613466978073,0.16598773002624512,0.09136920422315598,0.031276676803827286,0.8345057964324951,0.09611882269382477,-0.019059723243117332,0.27685409784317017,-0.2554188072681427,0.7563991546630859,-0.023699671030044556,-0.02414010465145111,0.05362265184521675,0.060710351914167404,-0.13521884381771088,0.10319746285676956,-0.16555622220039368,0.16197937726974487,-0.03232482448220253,-1.505045771598816,-0.006634277757257223,0.11344802379608154,0.1260809749364853,0.3459743559360504,-0.013348529115319252,-0.422809898853302,0.599701464176178,-0.32464277744293213,-0.22777308523654938,0.07626432925462723,0.15491299331188202,0.040786776691675186,-0.2887285351753235,-0.0582396574318409,0.0673292875289917,-0.08646157383918762,0.3162931501865387,0.7942146062850952,-0.007385001052170992,0.08970887213945389,0.6484959721565247,-0.11506018787622452,-0.0981157198548317,-0.08960776031017303],[0.15843860643425894,0.02057407543137081,-0.06666749210967701,0.1131723076678971,0.05376105621949508,-0.4748194840460435,-0.43434584961269374,0.07023309060373542,0.05889096521505263,-0.09778453443460297,-0.04910631836356256,0.10933905753067685,0.259485781696075,-0.046289501657483266,0.16728722884462383,0.09390752017498016,-0.05449853464961052,-0.07068651169538498,0.058584053069353104,0.033391065895557404,-0.4357824921607971,-0.03291679546236992,0.023879677057266235,-0.22302432358264923,0.17196223139762878,0.017972124740481377,0.2645091712474823,0.0769299790263176,-0.020640797913074493,-0.04747912287712097,-0.02983379177749157,-0.36210617423057556,0.20589414238929749,-0.08380681276321411,-0.14207062125205994,0.08619508892297745,0.0019798174034804106,0.004333027638494968,-0.26217368245124817,0.03718334808945656,-0.042226094752550125,0.07453424483537674,0.027217086404561996,0.32673442363739014,0.004316895268857479,-0.21364670991897583,-0.005603739060461521,-0.06550239026546478,-0.13153499364852905,0.0514102466404438,0.31884652376174927,0.21015161275863647,-0.023998092859983444,-0.36333417892456055,-0.0020979323890060186,-0.024999000132083893,0.04385542869567871,0.15074464678764343,-0.025911720469594002,0.03464614972472191,0.2953204810619354,0.07776892185211182,0.011003215797245502,0.35574275255203247,-0.03884945437312126,0.43668943643569946,-0.11359033733606339,-0.05574038624763489,0.05631198734045029,0.044035084545612335,0.11335144191980362,0.011461853049695492,-0.02583657205104828,0.0451786145567894,-0.009724289178848267,-0.4569118022918701,-0.018622444942593575,-9.88840707577765E-4,-0.0019323783926665783,0.237695574760437,0.12657326459884644,-0.06206400319933891,0.06786710023880005,-0.17708797752857208,-0.21481916308403015,0.12501060962677002,0.1495557427406311,-0.08152579516172409,-0.18313567340373993,0.019160108640789986,-0.020721690729260445,-0.012178648263216019,0.1039152592420578,0.14622260630130768,0.022965654730796814,0.07372797280550003,0.1575077623128891,0.06845386326313019,0.230010524392128,0.061546359211206436],[0.042953056198864886,-0.11369857920411948,0.10725219367944255,0.0480716601223725,0.026382408029731387,-0.09567728775015577,-0.18734296306688214,0.1767990382959273,-0.14617813502275695,-0.13331250393734717,0.09051002551490414,0.005576074772700716,0.10886088885356754,-0.058203443994562454,-0.035822119435815196,0.06065571680665016,0.0045896610245108604,-0.18048390746116638,-0.10024423897266388,0.15111848711967468,-0.04392204061150551,-0.16138091683387756,0.05207493156194687,-0.4555509388446808,0.1232946366071701,0.0066254157572984695,0.09723475575447083,0.13087153434753418,0.035459037870168686,0.05963899567723274,0.14155451953411102,0.1631724238395691,0.1363384872674942,-0.1800302267074585,0.1645248830318451,0.0855778306722641,-0.06357035040855408,-0.025532089173793793,-0.13875995576381683,0.07163624465465546,0.04086209088563919,-0.03518186882138252,-0.004009804222732782,-0.28408876061439514,0.11478292942047119,-0.1298896074295044,-0.18002796173095703,-0.10869256407022476,-0.10000669211149216,-0.08937475085258484,-0.14599503576755524,-0.22177231311798096,0.02763909287750721,-0.2936548888683319,-0.04364679008722305,0.14290347695350647,-0.033745668828487396,-0.10647423565387726,-0.08417769521474838,0.16109599173069,0.06883750110864639,0.11100409924983978,-0.11509944498538971,0.27937689423561096,-0.2736671566963196,0.30005425214767456,0.10380618274211884,0.20498663187026978,-0.05709836632013321,-0.0525720939040184,0.023493438959121704,0.12726595997810364,0.27892744541168213,0.015930399298667908,0.11442448943853378,0.18980742990970612,0.13132672011852264,-0.07452342659235,-0.04381290823221207,-0.04175400733947754,-0.12521156668663025,-0.09168414026498795,-0.44216427206993103,-0.14495673775672913,-0.23324169218540192,-0.15561287105083466,-0.11562525480985641,-0.1099366620182991,-0.19358372688293457,0.10369160771369934,0.02687639370560646,0.0214111115783453,-0.008379674516618252,-0.2483232170343399,0.06613384187221527,0.15709513425827026,-0.19459021091461182,0.09029193222522736,0.19504989683628082,0.20774781703948975],[0.010018494273296819,0.35494295161594813,0.13985278453524203,0.1462889939772073,-0.20147721203019436,-0.10434449272218992,-0.1900457647538467,-0.06561385475583471,0.16830409706035754,0.015840241837399762,0.2119270172858407,-0.03702432882905053,-0.017615738049233394,0.18876379485730496,-0.16068977040697213,-0.06892423331737518,-0.2129821628332138,-0.09551860392093658,-0.14111174643039703,0.11493664979934692,-0.029335709288716316,-0.012285958975553513,-0.14482338726520538,-0.4212745428085327,0.174222931265831,-0.18124321103096008,0.10248211771249771,0.07533006370067596,-0.11703084409236908,-0.07184164971113205,0.0947948768734932,0.30614861845970154,0.12066852301359177,-0.08198389410972595,-0.09421383589506149,0.036414846777915955,-0.14355292916297913,-0.048754166811704636,-0.127798929810524,0.0037023527547717094,0.03821790590882301,-0.11933597177267075,-0.07387154549360275,-0.31043869256973267,0.005583692342042923,-0.12987658381462097,-0.0058822063729166985,0.06035004183650017,0.023490378633141518,-0.04930280148983002,-0.17970585823059082,-0.19419170916080475,0.017454739660024643,-0.1251506805419922,-0.043723661452531815,0.04509473592042923,0.08024455606937408,0.042620111256837845,-0.07157747447490692,-0.1147204264998436,0.13557225465774536,0.1302465796470642,-0.13519476354122162,0.20809844136238098,0.04380039498209953,0.08693459630012512,-0.04898101091384888,0.10188184678554535,-0.11684612929821014,-0.05428950861096382,0.021850600838661194,0.1856675148010254,-0.03858347609639168,0.05984632298350334,0.005703822243958712,0.4874931871891022,0.2623579204082489,-0.1121927946805954,-0.006686709355562925,0.002022017491981387,-0.1922006607055664,0.008148327469825745,-0.45671772956848145,-0.12124115228652954,-0.12036456912755966,0.029129693284630775,-0.2122017741203308,0.07422725111246109,-0.13159705698490143,-0.10486467182636261,-0.0831746831536293,0.0793280377984047,0.08637441694736481,-0.28989729285240173,-0.05563898757100105,-8.985688909888268E-4,-0.2676171362400055,-0.11379183083772659,0.27395984530448914,0.02196214534342289],[-0.07224009025406106,-0.005185101663948061,-0.2520484860426931,-0.08315940554566073,-0.01722641295223152,-0.13618055233157428,-0.10364986401808296,0.16073022435466616,-0.08259084135214631,0.08695562601306604,0.14285857467344099,-0.04227309626564652,0.03526317243584172,0.22093753981280734,-0.22327257090010225,9.276774944737554E-4,0.008272011764347553,-0.03930447995662689,0.08543099462985992,0.11971888691186905,-0.06387161463499069,-0.19058553874492645,-0.06660182029008865,-0.45561906695365906,0.0787072479724884,-0.158938467502594,0.04333256185054779,0.08681851625442505,-0.12141400575637817,0.11063724756240845,-0.05584273114800453,0.1942465901374817,0.10242318361997604,-0.08118981122970581,0.0734407976269722,-0.05116472393274307,-0.00865682028234005,-0.09992983937263489,0.07105964422225952,-0.12535707652568817,-0.09397149085998535,-0.07282961905002594,-0.12709277868270874,-0.29302358627319336,-0.07793477177619934,0.01851104572415352,-0.11864835768938065,-0.12360526621341705,-0.15979959070682526,-0.19160372018814087,-0.2842218577861786,-0.18690849840641022,-0.14632433652877808,0.06349889934062958,-0.07462798058986664,-0.05432819575071335,0.14297229051589966,0.057599496096372604,-0.006625651381909847,0.03874849155545235,0.04964938387274742,0.08640023320913315,0.00876159593462944,0.1785513311624527,-0.23218080401420593,0.08147446811199188,0.10312280803918839,0.10367799550294876,-0.03990073502063751,-0.004792851395905018,0.1292157769203186,0.10386363416910172,0.18644316494464874,0.040072619915008545,0.073256716132164,0.4233414828777313,0.1422603875398636,-0.0614594966173172,0.07694472372531891,0.2088029980659485,0.04790462926030159,0.08075472712516785,-0.35709142684936523,-0.14922358095645905,0.05179975554347038,-0.08695223927497864,0.02887980453670025,0.12905608117580414,-0.10358121246099472,0.07603942602872849,-0.13597600162029266,0.06602708250284195,-0.003421887755393982,-0.20430323481559753,0.04191304370760918,0.04210353270173073,-0.15429414808750153,0.08981407433748245,0.21245431900024414,-0.0521731823682785],[-0.13013489696184083,-0.048182741978770864,-0.07936640678269094,-0.03920928092168313,0.06532940878260915,-0.11680691849978339,-0.15497578767781003,-0.05352491024079843,0.03236576871487399,-0.02725613227509921,0.03046962640960245,0.028045129443858424,0.3285058213387789,0.023018786628489413,-0.03567515620251776,-0.2133743315935135,-0.10389487445354462,-0.29907166957855225,0.04688559100031853,0.08953727036714554,-0.009693114086985588,-0.1089370995759964,-0.19009006023406982,-0.2813228964805603,0.12160159647464752,-0.01618085615336895,0.21053215861320496,0.0239642895758152,-0.005994237493723631,0.05280626565217972,0.04377451166510582,0.0848894715309143,-0.0019644934218376875,-0.04389220103621483,0.10808136314153671,-7.048338011372834E-5,0.10639014840126038,-0.10253535211086273,-0.013298475183546543,-0.2185204029083252,-0.14949548244476318,0.09521015733480453,-0.12200614809989929,-0.2857189178466797,-0.12532828748226166,-0.06085123494267464,-0.14863862097263336,-0.10314780473709106,-0.19650305807590485,-0.13525693118572235,-0.08581679314374924,-0.06481102854013443,-0.060159582644701004,0.008661838248372078,-0.06034088134765625,-0.010659685358405113,0.08115487545728683,0.0083241555839777,0.08891277015209198,-0.010278101079165936,0.1611407846212387,-0.04263065755367279,0.14281383156776428,0.24312475323677063,-0.04348314180970192,0.21073512732982635,0.07772715389728546,0.2372257113456726,0.04931508004665375,0.08176425099372864,-0.006156829185783863,-0.06774113327264786,-0.05901089310646057,-0.003396744839847088,-0.1287495642900467,0.37307319045066833,0.18678997457027435,-0.10625946521759033,0.06559944152832031,0.07345025986433029,0.10125605016946793,-0.012853160500526428,-0.011944425292313099,0.023197179660201073,-0.11495018005371094,-0.022669587284326553,-0.026114510372281075,-0.0920722559094429,0.03382328152656555,0.21580688655376434,-0.06818701326847076,0.02060575969517231,0.0891181007027626,-0.04022568091750145,-0.11878093332052231,0.018094003200531006,0.0748036578297615,-0.09080439060926437,0.09722989797592163,0.04498681053519249],[0.15626546044553577,-0.16078110619914757,-0.05748712342527209,-0.13059468536827834,0.08760110531949292,-0.014636822797042866,-0.1991848263321402,0.3058658162295394,0.13330592902894806,0.051411486714501804,0.08529871027673673,-0.06202892658606868,0.15904595533062854,1.5734047043990118E-5,-0.180584304782398,-0.23512795567512512,-0.11887471377849579,-0.13084346055984497,-0.013728542253375053,0.001241743448190391,-0.14959217607975006,-0.02769259363412857,-0.01769624836742878,-0.393261194229126,-0.028936276212334633,-0.21047550439834595,0.09676847606897354,0.007188776973634958,0.2195114940404892,0.10894884169101715,-0.14267320930957794,0.22688385844230652,0.02634335495531559,-0.0029593156650662422,0.0025025911163538694,0.18215510249137878,-0.0011584263993427157,-0.10826288908720016,-0.0752810388803482,-0.08319246768951416,-0.05589888244867325,-0.11604209244251251,-0.013119788840413094,-0.13427790999412537,0.01896306686103344,-0.13391102850437164,-0.06494035571813583,0.007061082404106855,-0.04075320065021515,0.02520429901778698,-0.17653320729732513,0.05102194473147392,-0.19776521623134613,-0.05696261301636696,-0.045626431703567505,0.043615393340587616,0.003896503010764718,0.04303717985749245,-0.02929001674056053,-0.09480943530797958,0.11857232451438904,0.1805480569601059,-0.13577775657176971,0.14639444649219513,-0.12498705834150314,-0.08298725634813309,-0.04752137139439583,-0.05280175805091858,0.044016771018505096,0.06926552206277847,0.08768296241760254,0.16302792727947235,-0.032316651195287704,0.03497069329023361,0.07886545360088348,0.06266703456640244,0.1929420828819275,-0.09684811532497406,0.17297452688217163,0.2158849835395813,0.12007974833250046,-0.31518444418907166,-0.20570270717144012,-0.1671331524848938,0.022745100781321526,-0.008406668901443481,0.08326675742864609,-0.04458078742027283,-0.11569195240736008,0.017275607213377953,-0.023996010422706604,0.026551373302936554,0.04232741892337799,-0.011803206987679005,0.009089133702218533,-0.02574562467634678,0.4249423146247864,0.08400652557611465,0.26486292481422424,0.12408068776130676]]},{"bias":[0.14225369691848755,0.050216544419527054,0.04293374717235565,0.06326320767402649,0.11894646286964417,0.15802039206027985,0.12023820728063583,0.10726606845855713,0.09234399348497391,0.11921266466379166,0.09132862836122513,0.12260130792856216,0.12386070191860199,0.10042578727006912,0.18851731717586517,0.10199900716543198,0.048867471516132355,0.09406266361474991,0.10796608775854111,0.06057796627283096,0.1157323494553566,0.12077557295560837,0.10473726689815521,0.0540737621486187,0.07575918734073639,0.1641971617937088,0.04247929900884628,0.0966106429696083,0.15258729457855225,0.10346829891204834,0.14262977242469788,0.14008353650569916,0.08400457352399826,0.04823391139507294,0.1947382092475891,0.11776124686002731,0.06937359273433685,0.06595588475465775,0.061132464557886124,0.08739162236452103,0.107232466340065,0.12013909965753555,0.08001109212636948,0.1356436312198639,0.12275150418281555,0.14160983264446259,0.08775888383388519,0.02096456289291382,0.09875856339931488,0.09691426157951355],"weights":[[0.07071336358785629,-0.13316532969474792,-0.08801805973052979,-0.04066596180200577,-0.16882295906543732,0.171840101480484,0.08295686542987823,0.1620090752840042,-0.047846294939517975,-0.03673531115055084,-0.03216046094894409,0.19944258034229279,-0.11573554575443268,0.045353107154369354,0.07063987106084824,0.13937406241893768,-0.04289962723851204,0.13671356439590454,-0.11326327919960022,-0.01829620636999607,0.024760132655501366,0.10610733181238174,0.12811309099197388,-0.10553319752216339,-0.024180984124541283,0.0368090495467186,-0.016153674572706223,-0.1391959935426712,0.27808305621147156,-0.09629885107278824,0.02878028340637684,-0.0065994574688375,-0.15616632997989655,-0.2214571237564087,0.20353619754314423,-0.05933025851845741,0.07410822063684464,-0.09938614815473557,0.025477876886725426,-0.07214491069316864,-0.10076691955327988,-0.11675968766212463,0.011945892125368118,0.13418585062026978,0.09625159949064255,0.031945496797561646,-0.11179233342409134,-0.12573131918907166,0.11782985180616379,0.058528706431388855],[0.0033685562666505575,0.05280262604355812,-0.0633944422006607,-0.059113409370183945,0.03312402591109276,0.056324552744627,-0.025112612172961235,-0.137545645236969,0.10717915743589401,0.0543908067047596,-0.1512761414051056,-0.08252932131290436,-0.1046208068728447,-0.14590851962566376,0.1379423439502716,3.8219476118683815E-4,-0.010969815775752068,-0.10553937405347824,0.003871507942676544,0.003062295727431774,-0.06629655510187149,0.08736906945705414,0.19520917534828186,-0.037830814719200134,0.019663462415337563,-0.07362411171197891,0.03720250725746155,0.03920051082968712,0.05274192616343498,-0.026793107390403748,0.03681044280529022,0.16387538611888885,-0.09770787507295609,9.965969948098063E-4,0.1430673599243164,-0.030922750011086464,-0.106437087059021,-0.15013602375984192,-0.04194141924381256,-0.13256067037582397,0.06955915689468384,-0.026672692969441414,-0.002236204221844673,-0.038814447820186615,-0.10864686220884323,0.0402047224342823,0.020514000207185745,-0.07492531090974808,0.12079150229692459,0.018702128902077675],[0.261118084192276,-0.16870000958442688,-0.16822658479213715,-0.17487572133541107,-0.030786830931901932,0.056234680116176605,0.0031387407798320055,0.03509484604001045,-0.13095925748348236,-0.1325608342885971,0.08463990688323975,0.2801049053668976,0.10138717293739319,0.2398862987756729,0.28415727615356445,-0.018341880291700363,-0.30476462841033936,0.07458551228046417,-0.09762033075094223,0.036821525543928146,-0.10946840792894363,0.1253805160522461,-0.09198819845914841,0.04248790442943573,0.07451707124710083,0.1925390660762787,-0.14799125492572784,-0.15946713089942932,0.04435310512781143,-0.1131596490740776,0.214773029088974,0.1729460507631302,0.04811882600188255,-0.13454091548919678,0.34222590923309326,0.2778159976005554,-0.027597371488809586,-0.13485825061798096,-0.2262822985649109,-0.11558215320110321,0.1477694809436798,0.022923294454813004,-0.03318069502711296,0.09398367255926132,0.07562267780303955,0.0918550118803978,0.009823694825172424,-0.26808181405067444,-0.15595702826976776,-0.16479091346263885],[-0.11540170013904572,0.1332605928182602,0.18696139752864838,-0.0016672660131007433,0.03890160098671913,-0.15012726187705994,0.02423206716775894,0.09935182332992554,-0.023958494886755943,-0.0912623181939125,-0.1194882020354271,-0.041996631771326065,0.08212678134441376,0.11503713577985764,-0.09626712650060654,0.03588362783193588,-0.06908219307661057,0.1886013001203537,0.04914698377251625,-0.037299055606126785,-0.008127277716994286,-0.08380714058876038,0.0725424513220787,0.031100966036319733,0.05507568642497063,-0.05295861139893532,-0.17194409668445587,-0.025428393855690956,-0.1254519671201706,-0.012961309403181076,0.14038018882274628,-0.04149167612195015,-0.025471795350313187,0.07843189686536789,-0.057637881487607956,0.15107658505439758,0.09525911509990692,0.04957290366292,0.16287396848201752,0.08415866643190384,-0.011594049632549286,-0.17639508843421936,-0.025774378329515457,0.08155594766139984,-0.06696444004774094,-0.032129012048244476,-0.13699834048748016,-0.17920216917991638,-0.022915557026863098,-0.026218218728899956],[0.21098168194293976,-0.06983069330453873,-0.15954706072807312,-0.18529090285301208,-0.08620814979076385,-0.0012712065363302827,0.09502459317445755,-0.024870919063687325,0.0763360783457756,0.09064926207065582,0.048345208168029785,0.13852235674858093,0.041360143572092056,0.09374872595071793,0.06144440174102783,0.09059792757034302,-0.0759759247303009,0.019438082352280617,-0.026893096044659615,0.13658659160137177,0.049607228487730026,0.02172686532139778,0.04347788542509079,0.10046777129173279,0.052565522491931915,-0.07638857513666153,-0.00761623727157712,-0.13097648322582245,-0.021427402272820473,-0.11637511849403381,0.0035324012860655785,0.006688873283565044,-0.1270374357700348,-0.06417158246040344,-3.126066440017894E-5,-0.09813442081212997,-0.03209282085299492,0.12083792686462402,0.031168581917881966,0.10007511079311371,-0.03191586956381798,0.02741660736501217,-0.032684653997421265,0.0752258151769638,0.08799789100885391,0.19286999106407166,-0.007095161825418472,-0.18675176799297333,0.10593841224908829,-0.14181232452392578],[0.22129462659358978,-0.28889256715774536,-0.4760517477989197,-0.2946780025959015,-0.12704533338546753,0.23137791454792023,0.1555478274822235,-0.08529812842607498,-0.08264565467834473,0.04415354132652283,-0.059631381183862686,0.23298567533493042,0.21867191791534424,-0.06046108901500702,0.43784284591674805,-0.016673659905791283,-0.024916529655456543,-0.03561528027057648,-0.05129818245768547,-0.10846903920173645,-0.04244091734290123,0.07709188014268875,0.011715387925505638,-0.1997939497232437,-0.12405440956354141,0.3498488664627075,-0.2887130677700043,-0.12359991669654846,0.37467119097709656,-0.11567807197570801,0.2942084074020386,0.22913481295108795,0.1318771094083786,-0.3535706698894501,0.7292680144309998,0.11811012029647827,-0.12112469226121902,-0.2072022557258606,-0.36005228757858276,0.10525114834308624,0.06262274831533432,-0.13283902406692505,-0.18486513197422028,0.1950528770685196,0.17056192457675934,0.21623940765857697,0.05067378655076027,-0.2993326783180237,-0.05622601881623268,-0.048009198158979416],[-0.11828190833330154,-0.048775896430015564,0.10154176503419876,0.06458568572998047,-0.027577117085456848,-0.24713844060897827,-0.22776278853416443,-0.1931765377521515,-0.08105393499135971,0.029554476961493492,-0.1692592203617096,-0.0701676681637764,0.18964757025241852,-0.18997764587402344,-0.06311354041099548,-0.15235045552253723,0.1563652902841568,0.07131387293338776,0.088652603328228,-0.23500129580497742,-0.39980238676071167,-0.10499195009469986,0.14739660918712616,0.4296160340309143,0.2518619894981384,-0.08328699320554733,0.3156786561012268,-0.1880660057067871,-0.4245004653930664,0.289090096950531,-0.16142283380031586,-0.04037776589393616,0.29378360509872437,0.2927951216697693,-0.19427217543125153,-0.05783814936876297,-0.08168564736843109,-0.05532420054078102,0.19490401446819305,-0.008772367611527443,0.11483237892389297,-0.2771778702735901,0.05662261322140694,0.0644603967666626,0.02423786371946335,0.025790225714445114,-0.10894458740949631,0.09911039471626282,0.03264065086841583,-0.1319332867860794],[-0.12131095677614212,0.03508500009775162,-0.0942506268620491,0.04999343678355217,0.08364718407392502,-0.013606651686131954,0.07609790563583374,0.0920034870505333,0.03475261852145195,0.13286982476711273,-0.14433614909648895,-0.14970950782299042,0.12596222758293152,-0.008999766781926155,5.126125179231167E-4,-0.1005391851067543,-0.15659525990486145,0.1710640788078308,0.012384003959596157,0.0065137045457959175,0.19921760261058807,-0.11904732882976532,-0.06117480993270874,-0.12424800544977188,-0.12438405305147171,-0.06978940218687057,-0.08058644831180573,-0.1742803156375885,0.04831568896770477,0.06765624135732651,-0.04104413464665413,0.021939553320407867,0.046924300491809845,-0.06808195263147354,-0.025340408086776733,0.19818449020385742,0.11526812613010406,-0.0898113027215004,-0.0535493902862072,-0.18661388754844666,0.002705831080675125,0.08891679346561432,-0.236335888504982,0.10674329102039337,0.18083305656909943,-0.034893423318862915,-0.012460321187973022,-0.1430126577615738,-0.17197191715240479,0.03422921895980835],[0.07867070287466049,0.0413978211581707,-0.09625766426324844,0.008060155436396599,-0.029633071273565292,-0.01910848170518875,0.19754953682422638,0.08040578663349152,-0.058332640677690506,0.1497769057750702,-0.11991552263498306,0.05742359161376953,0.10398006439208984,0.01221468299627304,0.029841212555766106,0.006601413246244192,-0.0974971204996109,-0.0497099868953228,0.024280736222863197,-0.13799233734607697,-0.08454373478889465,0.05404140055179596,0.11027278006076813,0.009379448369145393,0.040989261120557785,0.144170343875885,-0.2102997750043869,-0.15411454439163208,0.08591554313898087,-0.015090891160070896,0.11446665972471237,-0.10985873639583588,-0.07228903472423553,-0.032331325113773346,-0.06273955851793289,0.13940533995628357,0.17997591197490692,-0.14182008802890778,-0.0287152286618948,-0.07651427388191223,0.11777229607105255,0.1911630928516388,-0.14756594598293304,-0.034826330840587616,0.20435170829296112,-0.04507241025567055,0.10546364635229111,-0.0949663370847702,0.0568060539662838,-0.11958614736795425],[0.22946596145629883,-0.18482467532157898,-0.09427334368228912,-0.030495189130306244,-0.0777849406003952,0.26294073462486267,0.04417339712381363,0.08351775258779526,0.024044960737228394,0.03304676711559296,0.07149946689605713,0.2619914710521698,0.09294683486223221,-0.13945023715496063,-0.08721399307250977,-0.020595189183950424,0.02935744635760784,-0.20167213678359985,-0.07670635730028152,-0.21513795852661133,0.024760182946920395,0.17201577126979828,0.07132450491189957,-0.11382227391004562,-0.13649402558803558,0.05886003002524376,-0.21994344890117645,0.039920028299093246,0.28430381417274475,0.07803064584732056,0.004675776697695255,-4.056908073835075E-5,-0.11066598445177078,-0.1018960103392601,0.11522389948368073,0.18499308824539185,0.08802586048841476,-0.18826891481876373,0.120011106133461,0.07995620369911194,0.0433097705245018,-0.04771837964653969,0.03535967320203781,-0.10489009320735931,0.128493070602417,0.03004525415599346,-0.03599352389574051,-0.040189292281866074,-0.1395566463470459,-0.07178851217031479],[-0.07250358164310455,0.01349219772964716,-0.014052066020667553,0.11085545271635056,0.02094382606446743,-0.05828036740422249,0.14648762345314026,0.24090559780597687,0.053788892924785614,-0.03063998930156231,-0.1629355102777481,-0.22089724242687225,0.14431752264499664,-0.02975418232381344,-0.14676854014396667,-0.015139710158109665,-0.16149039566516876,0.14796562492847443,0.015974780544638634,-0.03948699310421944,0.1021936759352684,0.10024280101060867,0.08659640699625015,-0.1727847158908844,-0.1770445853471756,0.1548311412334442,0.03714895248413086,0.04233071580529213,0.08247166126966476,-0.050526879727840424,-0.2672235667705536,-0.23214884102344513,-0.025345096364617348,0.13863319158554077,-0.302592396736145,-0.13809947669506073,0.22277209162712097,-0.04133099690079689,-0.06564994156360626,-0.007605289574712515,-0.14695234596729279,0.19365237653255463,-0.3350376486778259,-0.07623909413814545,-0.0442962609231472,-0.15952374041080475,-0.10293615609407425,0.1210813894867897,0.19271253049373627,0.09738359600305557],[0.12315960973501205,-0.19346340000629425,-0.07195330411195755,-0.01561668049544096,-0.18224148452281952,0.0826207771897316,-0.02791520766913891,-0.015881480649113655,0.08216392248868942,0.012796415016055107,0.02101193368434906,0.12928389012813568,0.15700456500053406,-0.05214253440499306,-0.003571048378944397,0.19942665100097656,0.04823572188615799,-0.13024257123470306,0.06432225555181503,-0.2012476921081543,-0.1371012032032013,0.004919270984828472,0.06461919099092484,0.04773274436593056,-0.016774028539657593,-0.09459389746189117,-0.03023388423025608,0.09089451283216476,0.06809921562671661,0.09478555619716644,0.13394203782081604,0.07499748468399048,-0.08701829612255096,0.010092849843204021,0.009785055182874203,0.09637223929166794,0.04555578529834747,-0.05431123077869415,-0.2175486981868744,-0.05821909382939339,-0.08949852734804153,0.0629730150103569,-0.0758826732635498,0.09720423817634583,0.11478149145841599,-0.0017224241746589541,0.06460913270711899,-0.06461434066295624,-0.14917193353176117,-0.07799283415079117],[-0.16361652314662933,0.11708604544401169,0.21506376564502716,0.19555041193962097,0.15817350149154663,-0.2303706258535385,-0.07729677110910416,0.16560737788677216,0.008941995911300182,-0.09299201518297195,0.010754796676337719,-0.26250144839286804,0.016954882070422173,0.06099488213658333,-0.11798291653394699,-0.07796429842710495,0.0942956879734993,-0.09209103137254715,-0.022876067087054253,0.12327952682971954,0.04258675128221512,-0.09427529573440552,-0.14815746247768402,0.0657147541642189,0.10563209652900696,-0.022974666208028793,0.08506501466035843,-0.07176732271909714,-0.06383900344371796,0.08056578040122986,-0.15510745346546173,-0.12563930451869965,-0.15192550420761108,0.08158174157142639,-0.22488394379615784,0.0010336372070014477,0.06419415771961212,0.1576671004295349,0.16559503972530365,-0.08824869990348816,-0.09862715005874634,0.018164440989494324,0.15501956641674042,-0.007386104203760624,-0.12156857550144196,-0.13653337955474854,-0.02876853570342064,-0.056146036833524704,-0.08097689598798752,-0.007142278831452131],[0.09777535498142242,0.0533691942691803,0.052378226071596146,0.04327141121029854,-0.13655968010425568,0.09497788548469543,0.10442323982715607,0.0016197478398680687,-0.00496852770447731,0.1281585842370987,0.042199671268463135,0.14420676231384277,-0.008907356299459934,0.08589658886194229,0.1631760150194168,0.10688121616840363,0.07724201679229736,-0.014434187673032284,-0.054012179374694824,0.03309543803334236,-0.04485881328582764,-0.03666285052895546,0.05303679779171944,-0.03399699553847313,-0.09509573131799698,0.01702587492763996,-0.04412124305963516,0.0926220566034317,-0.07637526094913483,-0.03557668998837471,0.08834829926490784,0.05772955343127251,0.08757472783327103,-0.030082831159234047,0.05240796506404877,0.09654907882213593,0.04397578537464142,-0.17917627096176147,0.03036494366824627,-0.02441849745810032,0.04163505136966705,0.05615248903632164,-0.17887255549430847,0.17277446389198303,0.01585637778043747,-0.1471295803785324,0.09352754801511765,-0.16660118103027344,-0.16528621315956116,-0.15086671710014343],[0.009422478266060352,-0.2413518875837326,-0.3262093663215637,-0.01870635151863098,0.028332192450761795,0.04954276978969574,-0.04800577834248543,-0.12065912038087845,-0.07377700507640839,0.17576062679290771,-0.04821457341313362,0.06748570501804352,0.2908499538898468,0.1432226002216339,0.19074313342571259,0.06012104079127312,-0.09842724353075027,-0.21689312160015106,-0.1916656643152237,-0.10729850828647614,-0.0751260370016098,0.23166655004024506,-0.09280718863010406,-0.11367324739694595,-0.1287195384502411,0.23275570571422577,-0.3237582743167877,-0.08663913607597351,0.15718041360378265,-0.13169485330581665,0.3211171627044678,0.1909022182226181,-0.08357015997171402,-0.22016075253486633,0.5646932721138,0.15028497576713562,-0.15933124721050262,-0.09744696319103241,-0.061666734516620636,-0.23301994800567627,0.014566882513463497,0.05570512264966965,-0.001500384067185223,0.2377820611000061,-0.04460940510034561,0.012912658043205738,0.08365361392498016,-0.31627851724624634,-0.07195759564638138,-0.10127077996730804],[0.09163237363100052,0.02266833744943142,0.08932249248027802,0.14702624082565308,0.15684771537780762,-0.1684635877609253,-0.03763134032487869,-0.14269571006298065,-0.18017460405826569,0.06269801408052444,-0.21178525686264038,-0.1923009306192398,-0.08922377973794937,-0.11102383583784103,-0.2503902316093445,1.6609611338935792E-4,0.14031463861465454,0.15397267043590546,0.1363079994916916,-0.11300686746835709,6.444365717470646E-4,0.08399912714958191,-0.1191844642162323,0.03498201072216034,-0.0040494720451533794,-0.1827881783246994,-0.04157504811882973,-0.05686546489596367,-0.29149508476257324,-0.14136508107185364,-0.004064769484102726,-0.003102621529251337,-0.01101779006421566,0.16225531697273254,-0.3445010185241699,-0.06784697622060776,0.04699959605932236,-0.03159061446785927,-0.03818880766630173,0.05618274584412575,-0.11912743002176285,-0.0849657878279686,0.11803797632455826,-0.09458601474761963,-0.03642958030104637,-0.2611849904060364,-0.03248557448387146,0.10856606066226959,-0.05222542583942413,-0.007284403778612614],[0.0856800451874733,-0.14911384880542755,-0.1442583054304123,-0.0575002059340477,-0.2026429921388626,0.17703300714492798,-0.10406172275543213,-0.047964055091142654,-0.052731361240148544,-0.01242786180227995,0.1553734540939331,0.12440785020589828,0.13446666300296783,0.0052118077874183655,0.15294960141181946,0.20040038228034973,-0.26508191227912903,-0.15989001095294952,-0.005975944921374321,0.12366935610771179,-0.006587154697626829,0.14472290873527527,-0.040327269583940506,-0.16921338438987732,-0.02534455433487892,0.25227513909339905,-0.04346294328570366,0.07914107292890549,0.2094423621892929,0.040709249675273895,0.06628473848104477,-0.0023525049909949303,-0.04277156665921211,-0.19402195513248444,0.3131101131439209,0.20613260567188263,-0.006156012881547213,-0.11952409148216248,-0.1360844522714615,0.09720753133296967,0.2266424298286438,7.592011243104935E-4,-0.21405084431171417,0.20424024760723114,0.09437964111566544,0.17032654583454132,0.06959238648414612,-0.2731059193611145,-0.1440330296754837,-0.11896964907646179],[-0.09698119759559631,0.1431141495704651,0.20775562524795532,0.14079947769641876,-0.014229530468583107,-0.2127603441476822,-0.007976388558745384,-0.19769258797168732,-0.011878167279064655,-0.01646670699119568,-0.019078118726611137,0.04100705310702324,-0.20168493688106537,0.02132352627813816,-0.19591931998729706,-0.12284320592880249,0.017734333872795105,0.11695235967636108,-0.10616053640842438,-0.029207343235611916,-0.16850169003009796,-0.07594795525074005,-0.04047288000583649,0.22195598483085632,0.05233492702245712,-0.0762219950556755,0.1878434419631958,-0.004861689172685146,-0.23367618024349213,0.1321108639240265,-0.14163821935653687,-0.017154518514871597,-0.13231492042541504,0.22976469993591309,-0.33961957693099976,-0.2527768313884735,0.05738236755132675,0.22042937576770782,-9.573230636306107E-4,0.0450860969722271,-0.07433599978685379,0.029719563201069832,0.2042698711156845,-0.06999862194061279,-0.09047259390354156,-0.1701194941997528,0.02734302170574665,0.23183117806911469,-0.07763788849115372,0.021277673542499542],[0.1723005771636963,-0.24245870113372803,-0.08839637786149979,-0.14763934910297394,0.1300412267446518,0.04777572676539421,-0.006369378417730331,-0.00496817147359252,0.017553692683577538,0.01400796789675951,-0.1338224560022354,-0.09674128144979477,-0.01142385695129633,-0.15864525735378265,0.22446176409721375,0.1967887431383133,0.11037079244852066,0.06297027319669724,0.04422884061932564,-0.11384925991296768,-0.027468424290418625,0.12465374171733856,-0.09457742422819138,-0.17817732691764832,0.049829624593257904,-0.0073341852985322475,-0.0019242658745497465,0.04408429190516472,0.10371291637420654,0.018081046640872955,0.01656114123761654,0.12155795097351074,-0.007298625539988279,-0.22649505734443665,0.018238414078950882,-0.0725620836019516,0.0637323334813118,-0.18847054243087769,-0.07586243003606796,0.020268328487873077,-0.06325943768024445,0.06196159869432449,0.03740251064300537,0.14737583696842194,0.06986386328935623,0.1337362825870514,0.10599395632743835,-0.10049232095479965,0.17548604309558868,0.03534959629178047],[-0.03182508423924446,-0.08547847718000412,-0.1522120088338852,-0.14411908388137817,-0.025966256856918335,0.07057477533817291,0.05786053091287613,0.2358902543783188,0.04402841627597809,-0.01820237748324871,-0.21038053929805756,-0.013209308497607708,0.28725045919418335,0.2080770879983902,0.013031689450144768,0.05580984055995941,-0.2522866725921631,0.12693706154823303,-0.024796664714813232,-0.11577922105789185,-0.010022432543337345,-0.025940999388694763,-0.0784401148557663,-0.14672712981700897,-0.2147396057844162,0.11160766333341599,-0.18004919588565826,-0.027740860357880592,-0.07365874201059341,-0.05474480986595154,0.17842498421669006,0.006403481587767601,0.2962246835231781,0.14544975757598877,-0.0702357217669487,-0.07231409847736359,0.09911978989839554,-0.09830763936042786,0.003526037558913231,-0.21782903373241425,0.05028775706887245,0.12392492592334747,-0.18506693840026855,0.0719941183924675,0.08383036404848099,-0.030171861872076988,-0.05441028252243996,-0.13225992023944855,-0.004577065352350473,-0.05308603495359421],[-0.12401498109102249,0.25214043259620667,0.2256675511598587,0.2540777623653412,0.07055432349443436,-0.4970807731151581,0.06748119741678238,-0.06879759579896927,0.1421012580394745,-0.10512380301952362,-0.10997813940048218,-0.2966437041759491,-0.0745762437582016,-0.12268112599849701,-0.40792906284332275,0.017127536237239838,0.05671918764710426,0.05054260045289993,0.010578682646155357,0.04304252564907074,0.04870888218283653,-0.26614388823509216,0.02460833638906479,0.2379402220249176,0.12457475066184998,-0.44394850730895996,0.07367910444736481,-0.04660683870315552,-0.3616887032985687,-0.017839349806308746,-0.3773866593837738,-0.23066677153110504,-0.13859166204929352,0.35814544558525085,-0.793451726436615,-0.11462404578924179,0.07440874725580215,0.27492663264274597,0.0901985764503479,-0.03656637296080589,-0.05100652948021889,0.1187472715973854,0.3570695221424103,-0.14131376147270203,-0.1793384552001953,-0.3109118342399597,-0.09032291918992996,0.45604145526885986,-0.14073899388313293,0.08620243519544601],[0.05437462404370308,-0.005084008909761906,-0.22414030134677887,-0.26744499802589417,-0.027006525546312332,0.26455456018447876,0.011737417429685593,0.02320129983127117,0.11131240427494049,-0.06137745827436447,0.12186700105667114,0.13997822999954224,0.008283897303044796,-0.05817139893770218,0.3939850330352783,0.07122232764959335,-0.1701921969652176,-0.04836060851812363,-0.022498030215501785,0.04869874566793442,-0.029692279174923897,0.05047574266791344,0.007203979417681694,-0.10517239570617676,-0.16867299377918243,0.2615272104740143,-0.11370693892240524,0.13675060868263245,0.1733667105436325,0.11058836430311203,0.14970308542251587,0.10195840150117874,-0.04807956516742706,-0.2835770547389984,0.7115850448608398,0.16242405772209167,-0.013848556205630302,-0.2201935350894928,-0.08137238025665283,0.05462060496211052,0.2812424898147583,0.1518770307302475,-0.13628129661083221,0.3519802689552307,0.07103660702705383,0.10952527821063995,-0.05535377934575081,-0.3048552870750427,-0.08525778353214264,-0.012047363445162773],[0.06134958937764168,0.021257635205984116,0.028825826942920685,0.08538563549518585,0.05570254102349281,0.18157662451267242,-0.2063266932964325,-0.15634171664714813,0.06053589656949043,-0.16969871520996094,0.09505802392959595,0.4219864308834076,-0.26377400755882263,-0.03937109187245369,0.19959811866283417,0.014778407290577888,0.2134375423192978,-0.057724226266145706,-0.1209612637758255,0.15781420469284058,-0.29175814986228943,0.09381211549043655,-0.1331424117088318,0.08507153391838074,0.20832820236682892,-0.06397789716720581,0.03754892200231552,0.07079587876796722,-0.03166888281702995,0.12085779011249542,0.08987176418304443,0.16739514470100403,-0.2761147618293762,-0.32158780097961426,0.24776561558246613,-0.04051830247044563,-0.2882363200187683,0.03193509578704834,-0.14635781943798065,0.11195346713066101,0.016594767570495605,-0.46351221203804016,0.32609879970550537,0.09846214205026627,0.09239181876182556,-0.02163679711520672,-0.197633758187294,-0.05538332462310791,-0.05226752161979675,0.16679860651493073],[-0.4037546217441559,0.25925201177597046,0.28112339973449707,0.32005244493484497,0.13495005667209625,-0.3978380560874939,-0.14256909489631653,-0.11954660713672638,0.10767804086208344,-0.12926340103149414,0.024677922949194908,-0.5000340342521667,-0.2351084053516388,-0.2530658543109894,-0.2935989499092102,0.10146176815032959,0.26761186122894287,0.008207546547055244,0.08587191998958588,0.10316777974367142,0.08325783908367157,-0.1883542835712433,-0.044793497771024704,0.2392423450946808,-0.055567268282175064,-0.19903875887393951,0.34109100699424744,0.079684317111969,-0.30073922872543335,0.150832399725914,-0.4107331931591034,-0.34475550055503845,-0.09360040724277496,0.51096510887146,-0.3633524775505066,-0.2931782901287079,0.18219934403896332,0.38976308703422546,0.0602668821811676,-0.1566586047410965,-0.11205464601516724,0.32588350772857666,0.06409589946269989,-0.32713621854782104,-0.2643664479255676,-0.4509388506412506,-0.2391684651374817,0.42874467372894287,0.12668855488300323,0.10855578631162643],[-0.13752628862857819,0.12847782671451569,0.09922203421592712,0.2767045199871063,-0.17169049382209778,-0.05743132531642914,-0.011090455576777458,-0.11041728407144547,0.08847781270742416,0.04245249927043915,0.01639462076127529,-0.11844982951879501,0.008675407618284225,-0.07049909979104996,0.03220421075820923,-0.10864477604627609,0.11745657026767731,-0.021683121100068092,-0.03920111432671547,0.013496138155460358,0.04000598192214966,-0.16517478227615356,0.00583047978579998,-0.19134032726287842,-0.03909337520599365,-0.04108515381813049,0.01809711940586567,0.13446784019470215,-0.03482003137469292,-0.02809825912117958,0.12129802256822586,-0.18415555357933044,-0.20525479316711426,0.2130681574344635,-0.11548297107219696,0.10002493858337402,0.1718750149011612,0.05315903574228287,0.16348332166671753,-0.10970880091190338,-0.039453208446502686,0.11398240923881531,-0.050489820539951324,-0.1544102132320404,-0.10255226492881775,-0.055188994854688644,-0.02007993496954441,0.06868745386600494,0.009775801561772823,0.1909196674823761],[0.14822359383106232,-0.16281940042972565,-0.34015437960624695,-0.13156719505786896,-0.14214922487735748,0.29587522149086,0.1452074646949768,-0.01998211443424225,-0.04569317400455475,-0.05134207010269165,-0.09497347474098206,0.10380417853593826,0.0413258820772171,-0.05966303125023842,0.3504224419593811,-0.026008320972323418,0.019189378246665,-0.10716773569583893,-0.0983939915895462,-0.011203127913177013,0.0019953656010329723,-0.07807699590921402,0.06365610659122467,-0.2736012637615204,-0.043643731623888016,0.19994603097438812,-0.03638244420289993,0.014385877177119255,0.22016622126102448,0.10090593248605728,0.16105283796787262,0.2971698045730591,-0.2347365915775299,-0.22550715506076813,0.8656371831893921,0.10050135105848312,-0.09346162527799606,-0.1572677493095398,0.05566737800836563,-0.0668005421757698,0.12239045649766922,0.05670536682009697,-0.05860000103712082,0.058589909225702286,0.234409898519516,0.019505709409713745,0.16839317977428436,-0.5599215030670166,0.0495670884847641,-0.1433023065328598],[0.22467082738876343,-0.43809542059898376,-0.11506935209035873,-0.045343101024627686,-0.07298512011766434,0.1558082401752472,0.2541884481906891,-0.018871616572141647,-0.04099858179688454,0.026803702116012573,-0.08931969851255417,0.14513801038265228,0.12963470816612244,0.052643660455942154,0.31864798069000244,-0.054767265915870667,-0.11768222600221634,-0.2343343049287796,0.017197467386722565,-0.2667340338230133,-0.13287000358104706,0.2245393842458725,0.12251158058643341,-0.11511874943971634,-0.23296135663986206,0.23173972964286804,-0.4137592315673828,-0.19329893589019775,0.13011565804481506,-0.1204233169555664,0.1859559565782547,0.15095466375350952,0.11819393932819366,-0.2821232080459595,0.1803291290998459,0.12830381095409393,-0.16295720636844635,-0.39404696226119995,-0.14606213569641113,-0.09218671917915344,0.3015326261520386,-0.1200815960764885,-0.3041961193084717,0.14802499115467072,0.2630964517593384,0.1576259285211563,-0.0628662258386612,-0.24906237423419952,0.033240221440792084,-0.019367514178156853],[0.13307946920394897,-0.2197292447090149,-0.19384510815143585,-0.07715579867362976,-0.1695007085800171,0.20386074483394623,-0.09410139918327332,0.16287945210933685,-0.041911717504262924,-0.028758417814970016,0.1890372484922409,0.11573747545480728,0.018328305333852768,0.017423076555132866,0.1822434812784195,-0.11206869035959244,-0.2845759391784668,0.09390541166067123,-0.1277870535850525,0.008345036767423153,0.1625506430864334,0.058465857058763504,0.08427327126264572,0.03595641255378723,-0.11647958308458328,0.14083462953567505,-0.05301836505532265,0.036644332110881805,0.09888409823179245,-0.20698072016239166,0.07154932618141174,0.04802059382200241,0.13156093657016754,-0.3772181570529938,0.14224949479103088,-0.038307830691337585,-0.1162281185388565,-0.08383960276842117,-0.07227475941181183,0.12212581187486649,0.044133786112070084,-0.1044064313173294,-0.09281349182128906,0.11526083201169968,0.11790318042039871,0.0848068967461586,0.060879118740558624,-0.10522875189781189,0.052725955843925476,-0.19253993034362793],[-0.22818371653556824,0.030026771128177643,0.28949931263923645,0.24915030598640442,0.05088911950588226,-0.34018397331237793,-0.11052141338586807,-0.0022871731780469418,-0.05710155889391899,-0.1054035946726799,-0.04759784787893295,-0.2935401499271393,-0.19257596135139465,-0.19782045483589172,-0.4781441390514374,0.17025157809257507,0.14950372278690338,0.23289215564727783,0.07754061371088028,0.18606127798557281,0.2402695268392563,-0.3841260075569153,-0.13103418052196503,-0.05043785274028778,0.059130068868398666,-0.18921035528182983,0.0010456376476213336,0.21353015303611755,-0.3418102562427521,-0.013940336182713509,-0.0767403170466423,-0.3234652280807495,-0.1734527349472046,0.43400758504867554,-0.5319045782089233,-0.1846436858177185,-0.10790874809026718,0.3161807358264923,0.2604612410068512,-0.002418756717815995,-0.06083928048610687,0.13855619728565216,0.26698005199432373,-0.10658595710992813,-0.2795352041721344,-0.37879735231399536,0.0706663429737091,0.26141467690467834,-0.03823985531926155,0.05796109884977341],[0.0665033757686615,-0.2003280073404312,-0.09603597223758698,0.05691106617450714,0.07018209248781204,0.21111440658569336,-0.04880809783935547,0.0851888582110405,-0.064799003303051,0.04123668000102043,-0.053386665880680084,0.10072404891252518,0.13929453492164612,0.03728799894452095,-0.05258434638381004,-0.03608177229762077,-0.07252411544322968,0.09975553303956985,0.05830860510468483,0.034618277102708817,-0.051234833896160126,-0.13450384140014648,-0.07553620636463165,-0.1286192387342453,-0.07443991303443909,0.2371719628572464,-0.11968536674976349,-0.05829162523150444,0.23763766884803772,-0.07092544436454773,-0.022947074845433235,0.07176323235034943,0.06027929484844208,0.011230675503611565,0.22160308063030243,-0.02325994148850441,0.1762494444847107,-0.20810499787330627,-0.06371455639600754,-0.16706490516662598,-0.029832979664206505,0.041344672441482544,-0.07839040458202362,0.18490605056285858,0.13026535511016846,-0.0637013241648674,0.02782202512025833,-0.09482009708881378,0.22019635140895844,-0.054399315267801285],[-0.09129004180431366,-0.03111233189702034,-0.0011476632207632065,-0.046230729669332504,-0.025084028020501137,-0.013122990727424622,0.05323335528373718,0.06513877213001251,0.09876791387796402,0.153773233294487,-0.10741687566041946,-0.0896381139755249,0.03853904455900192,0.011051799170672894,-0.050448447465896606,-0.00780113460496068,-0.11384733766317368,0.0036449707113206387,-0.0317375548183918,0.021192600950598717,0.2069631665945053,0.0460241325199604,0.039759401232004166,0.04081667959690094,-0.14930257201194763,0.17580841481685638,-2.4892360670492053E-4,-0.06367021054029465,0.08553323894739151,-0.06442521512508392,0.056044138967990875,-0.06357035785913467,0.12951064109802246,0.09954002499580383,0.020256245508790016,0.09345974773168564,0.23357386887073517,-0.03936336189508438,-0.21778088808059692,-0.16155439615249634,0.011694539338350296,0.10398304462432861,-0.22900809347629547,0.0287015363574028,0.18510910868644714,0.1674267202615738,0.05235351622104645,-0.03835418447852135,0.009160565212368965,0.08734779059886932],[-0.26493921875953674,0.0850030705332756,0.37983638048171997,0.27751049399375916,0.06432624161243439,-0.3034701347351074,0.09875524789094925,0.19910085201263428,0.10516618192195892,-0.097499318420887,-0.048462510108947754,-0.252140611410141,-0.1630806177854538,-0.07023214548826218,-0.6115992665290833,0.12716834247112274,0.02647692710161209,0.1882372796535492,0.053126003593206406,0.06555172055959702,0.03416154161095619,-0.2604212760925293,0.058525409549474716,0.3444332480430603,-0.017070181667804718,-0.35930001735687256,0.2689025402069092,0.06760910898447037,-0.580660343170166,-0.008194800466299057,-0.5471017360687256,-0.24261043965816498,0.07766249030828476,0.43765920400619507,-1.1136112213134766,-0.1690617948770523,0.17543841898441315,0.5081430077552795,0.15591531991958618,-0.12335102260112762,-0.2960124909877777,0.024630634114146233,0.06308086216449738,-0.3065362274646759,-0.3532543182373047,-0.18393471837043762,0.0548984669148922,0.5378909111022949,-0.14611586928367615,0.12027783691883087],[-0.14532943069934845,0.18827714025974274,0.10101117938756943,0.010897118598222733,0.18777933716773987,-0.19265258312225342,-0.07370945066213608,0.0028435320127755404,0.10932545363903046,0.07182019203901291,-0.11096630990505219,-0.1988622546195984,-0.04654707759618759,-0.04568834602832794,-0.19832423329353333,0.1569632589817047,0.11890529096126556,0.13150011003017426,0.15102162957191467,0.0819469690322876,0.05439493805170059,-0.11897928267717361,0.05750753730535507,0.056869301944971085,-0.10430148988962173,0.0239182747900486,0.04148099571466446,0.05538175255060196,-0.22109857201576233,-0.13635066151618958,-0.06066369265317917,-0.23531858623027802,-0.10850857198238373,0.04599512368440628,-0.46270328760147095,-0.14998866617679596,0.04702799394726753,0.09840308129787445,0.06262007355690002,-0.021952757611870766,0.018513895571231842,0.1778976023197174,-0.11947900056838989,-0.07040565460920334,-0.0743919163942337,-0.11447260528802872,0.03225983306765556,0.1419532150030136,0.07306892424821854,0.055019840598106384],[-0.20022465288639069,0.19349361956119537,-0.03797232359647751,0.04055730625987053,0.024923529475927353,0.047508906573057175,0.092890664935112,-0.05893987789750099,-0.058951254934072495,0.033947572112083435,-0.07432609051465988,-0.007122475188225508,0.09480052441358566,0.09516894817352295,-0.1797235608100891,0.11331570148468018,-0.002514020074158907,0.05369818955659866,-0.018646614626049995,0.22908329963684082,0.01711812987923622,0.05437195301055908,0.17772544920444489,0.12034778296947479,0.0721496194601059,-0.1688620001077652,0.10787215828895569,-0.004936950281262398,-0.04361293837428093,0.104856938123703,-0.066016785800457,-0.26795390248298645,-0.2227916270494461,0.0031959584448486567,-0.4516351819038391,-0.028876537457108498,0.1593637466430664,0.19336582720279694,0.1496933400630951,0.025787940248847008,-0.13100726902484894,-0.10222917795181274,-0.04720083251595497,-0.20744720101356506,-0.06825954467058182,-0.03126094117760658,-0.0490645170211792,0.08380167186260223,0.17026202380657196,0.1572539061307907],[0.291744202375412,0.06712819635868073,-0.10824405401945114,-0.17929896712303162,0.03489742800593376,0.14247241616249084,0.08310195803642273,0.007856875658035278,-0.09545278549194336,-0.08598918467760086,0.12124383449554443,0.14167696237564087,0.20220161974430084,-0.09630126506090164,0.23948727548122406,-0.05835077539086342,-0.11022674292325974,-0.02964438498020172,-0.1813066154718399,0.020394476130604744,0.03060915693640709,0.23511625826358795,-0.03528629243373871,0.05894149839878082,-0.02019202522933483,0.1965113878250122,-0.012530632317066193,0.003164369612932205,0.15535099804401398,-0.050542451441287994,0.047543592751026154,0.0527305081486702,-0.07260523736476898,-0.07199519872665405,0.30093634128570557,0.1314995139837265,-0.008369922637939453,-0.06141405925154686,-0.1107751652598381,-0.020824534818530083,0.11060551553964615,-0.12823152542114258,0.016477955505251884,0.019774749875068665,0.03852009400725365,0.18853773176670074,-0.04172926023602486,-0.05020846799015999,0.02583727240562439,-0.08144330978393555],[0.11321622878313065,-0.05644839629530907,-0.054422616958618164,-0.03220154345035553,0.1288689523935318,0.06633166968822479,0.02587985247373581,-0.05804798752069473,-0.15774674713611603,-0.029298244044184685,-0.0313994400203228,-0.08536278456449509,0.05928565561771393,0.09020047634840012,0.2130018174648285,-0.1948712021112442,0.002809354569762945,0.029013628140091896,-0.09645120054483414,-0.064686119556427,0.07839447259902954,-0.13890209794044495,-0.002213145373389125,0.018731405958533287,-0.016100075095891953,-7.787980139255524E-4,-0.0665559321641922,-0.054712459444999695,0.0794726014137268,0.07153099775314331,-0.15066391229629517,0.07196453958749771,0.16579195857048035,-0.12111615389585495,-0.007528835441917181,0.05802927166223526,0.08905260264873505,-0.1121252104640007,0.08053524792194366,-0.002804020419716835,0.010635856539011002,-0.10874753445386887,-0.05138973891735077,0.05718570202589035,0.012487229891121387,0.08052561432123184,-0.029782619327306747,-0.03016781434416771,0.07576310634613037,0.1665457934141159],[0.10948141664266586,-0.07514186948537827,0.06102500855922699,0.08556797355413437,0.15372245013713837,-0.04751626029610634,-0.048882223665714264,-0.042619042098522186,0.03823937103152275,0.05941705405712128,0.31964921951293945,0.3578259348869324,0.009891299530863762,0.06764779984951019,-0.046579085290431976,0.07731258869171143,0.14725545048713684,0.0842868834733963,0.005463950335979462,0.1506802886724472,-0.19660422205924988,-0.09264260530471802,0.06459073722362518,0.08938900381326675,0.1646290123462677,0.08230830729007721,0.013356072828173637,0.034354228526353836,-0.10081396996974945,0.10776906460523605,0.016603803262114525,0.2974454164505005,-0.180831179022789,-0.0801849439740181,0.08153005689382553,0.029451027512550354,-0.15021410584449768,0.15284444391727448,0.06466443836688995,0.028451090678572655,0.14873485267162323,-0.23994874954223633,0.06305696815252304,-0.04282732680439949,0.043392594903707504,0.12207624316215515,-0.01788763515651226,-0.022131334990262985,0.0530361570417881,0.10273890942335129],[-0.01659158617258072,0.015887759625911713,-0.11957670003175735,-0.08627504855394363,-0.13486535847187042,0.17677709460258484,0.06524628400802612,-0.024714257568120956,0.03669251501560211,0.1433071345090866,-0.013939335942268372,0.052063874900341034,0.132156640291214,0.03465249389410019,0.06628275662660599,-0.11838594079017639,-0.03424347564578056,-0.15272852778434753,0.11117381602525711,-0.16299451887607574,0.19535477459430695,-0.021957088261842728,0.024908913299441338,-0.15063506364822388,-0.05786705017089844,0.1695862114429474,-0.2177606225013733,-0.12305934727191925,0.25675565004348755,-0.2596677839756012,0.2490534782409668,0.05796855315566063,0.09517358988523483,-0.17752330005168915,0.39384210109710693,0.05264287814497948,-0.060525551438331604,-0.2672478258609772,-0.04228714480996132,-0.18690313398838043,-0.02231334149837494,0.21937529742717743,-0.0853276252746582,0.03208785131573677,0.2350071370601654,0.12391334027051926,-0.014324172399938107,-0.11378797888755798,-0.04241926968097687,-0.0414402037858963],[0.004984769970178604,0.09179066121578217,-0.014365478418767452,0.09585704654455185,-0.18227796256542206,-0.037545159459114075,0.06725918501615524,0.09537933021783829,0.18522657454013824,0.07731817662715912,0.018762316554784775,-0.09323662519454956,-0.11237747222185135,-0.15685495734214783,-0.024644125252962112,-0.03176607936620712,-0.14613133668899536,-0.0991654321551323,-0.04528530314564705,-0.06574306637048721,0.2097501903772354,-0.07133127003908157,-0.08468374609947205,0.014855658635497093,0.11753042787313461,-0.005678046960383654,-0.028805483132600784,-0.13842885196208954,0.12793220579624176,-0.22646978497505188,0.07983436435461044,0.014239826239645481,0.19612754881381989,-0.12084133923053741,-0.04706992581486702,0.16373388469219208,-0.08542986214160919,0.007596888579428196,0.040661394596099854,-0.21568048000335693,0.11298077553510666,0.23607996106147766,-0.22383129596710205,-0.021965112537145615,-0.02816275879740715,0.027293451130390167,0.1287156045436859,-0.1517198532819748,-0.1116582602262497,0.006623055320233107],[0.08763233572244644,-0.23616810142993927,-0.10286439955234528,-0.18697701394557953,-0.11225715279579163,0.16265378892421722,0.18651868402957916,-0.06409902125597,-0.018802335485816002,-0.023133348673582077,0.03044089674949646,0.019521312788128853,0.15624596178531647,-0.04790555313229561,0.06138712540268898,0.023767393082380295,-0.008254786022007465,0.0467558391392231,0.0629778578877449,-0.09983145445585251,-0.34368187189102173,0.13244345784187317,0.058331865817308426,0.021680394187569618,0.05156652256846428,0.22781428694725037,-0.10914604365825653,-0.06496398150920868,0.10710836201906204,0.027335604652762413,0.14693765342235565,0.0852104127407074,0.238022118806839,-0.07986274361610413,0.3030012249946594,5.828137509524822E-4,-0.010789383202791214,-0.15825890004634857,-0.07042726874351501,0.06410164386034012,-0.03096846118569374,-0.2232690453529358,-0.15432721376419067,0.17757731676101685,0.020698323845863342,0.042951248586177826,-0.03409500792622566,-0.2809796929359436,0.12164556980133057,-0.10734177380800247],[0.039547014981508255,0.16399572789669037,-0.11166684329509735,-0.05248448997735977,0.021835215389728546,-0.12997113168239594,0.0187880527228117,-0.06924335658550262,0.10388262569904327,0.1328398436307907,-0.03447026386857033,-0.30938392877578735,-0.024829817935824394,0.08021225035190582,-0.06834778189659119,-0.039068058133125305,0.01549764908850193,0.1406579315662384,0.11748265475034714,-0.09609715640544891,-0.059179339557886124,-0.10330884158611298,0.1555037647485733,0.09960703551769257,-0.046342819929122925,-0.032172344624996185,-0.12186392396688461,-0.051357269287109375,-0.1883796602487564,0.021906670182943344,-0.12995396554470062,-0.18651315569877625,0.17599086463451385,0.12460537999868393,-0.21033017337322235,-0.045916344970464706,0.10027962923049927,0.06186402589082718,0.039550259709358215,-0.018098147585988045,-0.009042015299201012,0.018105758354067802,-0.1847030222415924,0.138785257935524,-0.12031616270542145,-0.11942119896411896,-0.04301661625504494,0.13431933522224426,0.014673898927867413,-0.043204255402088165],[-0.01780398003757,-0.1715407818555832,-0.01770663820207119,0.13160964846611023,0.055899444967508316,-0.051864318549633026,-0.053964514285326004,-0.017758067697286606,-0.09495871514081955,0.10120722651481628,0.05860564857721329,-0.05614509433507919,-0.012239614501595497,0.03463032841682434,0.12272976338863373,0.12041347473859787,0.15165166556835175,0.06081792712211609,-0.04922190681099892,-0.039972007274627686,-0.03744783252477646,0.04887004941701889,0.11583732813596725,-0.102773018181324,0.08544730395078659,-0.04078344255685806,-0.13628853857517242,0.12155071645975113,0.03980528563261032,0.10062398761510849,0.04691169410943985,0.03540445491671562,-0.09917987883090973,-0.027283063158392906,0.007910710759460926,-0.028905896469950676,-0.0557701475918293,0.021684523671865463,-0.028181765228509903,0.09167409688234329,0.16039487719535828,0.07459612935781479,-0.07668337970972061,0.12751442193984985,0.17419719696044922,-0.0028855479322373867,-0.036921340972185135,-0.06837103515863419,-0.10533151775598526,0.04314379021525383],[0.2632966935634613,-0.04667650908231735,-0.02394583821296692,0.017325492575764656,0.10154575109481812,0.2860235869884491,-0.2176390141248703,-0.021290866658091545,-0.06229980289936066,-0.13561731576919556,0.22251346707344055,0.292959064245224,-0.03942997753620148,-0.036610864102840424,-0.0512823611497879,-0.009988014586269855,0.13717500865459442,-0.0996616780757904,-0.07399875670671463,-0.060662996023893356,-0.10826180130243301,-0.027147201821208,-0.09001526981592178,0.2877269983291626,0.1767507940530777,0.041308414191007614,0.08708658814430237,0.1888333559036255,-0.12327456474304199,0.2421504557132721,0.07849834859371185,0.07316528260707855,-0.18625794351100922,-0.17567987740039825,0.21493437886238098,-0.057640161365270615,-0.22411930561065674,-0.026171483099460602,-0.028295593336224556,0.19963118433952332,0.11143385618925095,-0.0821475014090538,0.27909860014915466,0.05327591300010681,-0.0742000862956047,0.07190131396055222,-0.22142428159713745,0.07559265941381454,-0.1055193766951561,-0.035444099456071854],[0.2494930773973465,-0.3049373924732208,-0.570683479309082,-0.2761193811893463,0.05249479040503502,0.5587928295135498,0.02062941901385784,-0.08945043385028839,0.049339912831783295,0.031859975308179855,0.11636672168970108,0.1638628989458084,0.012653559446334839,-0.07294479757547379,0.5716007351875305,0.028560850769281387,-0.32275378704071045,-0.14209261536598206,-0.24848443269729614,-0.17806974053382874,-0.06032639369368553,0.23214492201805115,-0.043643705546855927,-0.15367911756038666,0.016959097236394882,0.3875494599342346,-0.2100972831249237,0.09664736688137054,0.5147963762283325,-0.1859249770641327,0.45294082164764404,0.36403220891952515,-0.006170087493956089,-0.6089900732040405,1.2781156301498413,0.07010520994663239,-0.14234715700149536,-0.3073354959487915,-0.3048349618911743,0.09139081090688705,0.1621619313955307,0.04148872569203377,-0.018953926861286163,0.40204694867134094,0.3812272250652313,0.3541775941848755,0.04055335372686386,-0.466852068901062,-0.07960399240255356,0.017627615481615067],[-0.12469938397407532,0.21867132186889648,-0.05276159569621086,0.10162899643182755,-0.0658302828669548,-0.10497426986694336,0.09433095157146454,0.1043480932712555,0.18597592413425446,0.0558667853474617,-0.17757683992385864,-0.2220970243215561,-0.12428151816129684,-0.07790610194206238,-0.04653980955481529,-0.18060019612312317,0.09202679246664047,-0.04537950083613396,0.056564509868621826,-0.028956254944205284,0.03374854847788811,-0.23197919130325317,0.08936028927564621,-7.264583255164325E-4,0.08951248973608017,-0.14465215802192688,0.17058762907981873,0.057329874485731125,-0.18546564877033234,0.05573118478059769,0.07355200499296188,-0.020942745730280876,-0.161495640873909,0.11210519820451736,-0.06541792303323746,-0.03356916457414627,-0.16469621658325195,0.14368245005607605,0.12621602416038513,0.06186363473534584,-0.14383815228939056,0.12259860336780548,0.021451149135828018,-0.0027617609594017267,-0.09377460926771164,0.01054213847965002,0.13128313422203064,0.013905094936490059,0.044264260679483414,-0.0324944444000721],[0.05702473223209381,-0.08432190865278244,-0.21143187582492828,-0.23959001898765564,-0.13941320776939392,0.2609110176563263,0.015975525602698326,-0.09953491389751434,0.024497391656041145,0.17641176283359528,-0.04133058339357376,0.25441810488700867,0.04763800650835037,0.21228866279125214,0.36569756269454956,0.02998221479356289,-0.1580151915550232,-0.16136395931243896,-0.07855182886123657,-0.09443695098161697,-0.10161757469177246,0.18918490409851074,-0.06576533615589142,-0.1546584516763687,-0.043154265731573105,0.4074901044368744,-0.25014111399650574,-0.0976075828075409,0.3971831798553467,-0.18922315537929535,0.4960508644580841,0.3286973536014557,-0.05182705074548721,-0.3094366192817688,0.6400997638702393,0.08830615133047104,-0.15545742213726044,-0.33868393301963806,-0.09033586084842682,-0.07971447706222534,0.06915032118558884,-0.10926990211009979,-0.19283443689346313,0.15645180642604828,0.23370744287967682,0.1205054521560669,-0.018327806144952774,-0.44496583938598633,0.07255484908819199,-0.1056598424911499],[-0.005591114517301321,-0.03373217582702637,-0.008922995068132877,-0.06847727298736572,0.02552543208003044,0.18552574515342712,-0.14594942331314087,-0.08138479292392731,0.011452510952949524,-0.24989208579063416,0.1316228061914444,0.01784440502524376,-0.016788240522146225,-0.16292507946491241,0.1414962261915207,0.18604476749897003,0.1152278259396553,-0.010736200027167797,-0.06390119343996048,0.15720239281654358,-0.05944708362221718,0.06484165787696838,0.1374640315771103,0.1038178876042366,0.02575410157442093,-0.011827558279037476,0.182938352227211,0.21378538012504578,-0.0409235954284668,0.1771349459886551,-0.014106454327702522,0.06304935365915298,-0.04121578857302666,-0.0514877550303936,0.18550416827201843,-0.06090296059846878,-0.10060660541057587,0.24696022272109985,-0.09974771738052368,-0.021959228441119194,-0.18787436187267303,-0.09727522730827332,-0.08145943284034729,-0.11510306596755981,0.14379271864891052,0.040235485881567,0.01883438602089882,0.07990657538175583,0.024729160591959953,0.11309986561536789],[0.03498249128460884,-0.017501315101981163,0.07916217297315598,-0.055638641119003296,-0.0658775120973587,0.0048750340938568115,-0.09516873210668564,-0.014934659004211426,0.10277049988508224,0.018962861970067024,-0.059860892593860626,-0.1423068642616272,0.1684848517179489,-0.012749125249683857,-0.09448135644197464,-0.046043697744607925,-0.01629411242902279,-0.07144791632890701,-0.053080834448337555,-0.003765880363062024,-0.0912027582526207,-0.11073460429906845,-0.0980805903673172,-0.013826601207256317,-0.10295360535383224,0.04166315123438835,0.07077556103467941,0.07014593482017517,-0.10079895704984665,-0.08070908486843109,-0.1404285877943039,-0.08970502018928528,-0.10564160346984863,0.08015132695436478,-0.09104221314191818,-0.07740973681211472,-0.015347450971603394,-0.1514524221420288,-0.07200058549642563,-0.05509096384048462,-0.009037028066813946,0.04501621797680855,-0.014900452457368374,-0.011333390139043331,-0.18754000961780548,-0.02114228345453739,-0.12936411798000336,-0.08531960099935532,-0.02718411758542061,-0.0037294363137334585],[-0.15300728380680084,0.09710188955068588,0.09078126400709152,0.1973404884338379,0.12232628464698792,-0.3220099210739136,-0.09417448937892914,-0.015884198248386383,-0.035866860300302505,0.06613022834062576,-0.2874351739883423,-0.385235995054245,0.23039434850215912,-0.17943577468395233,-0.1134798526763916,-0.0386844128370285,-0.1303558051586151,0.051164425909519196,-0.022728564217686653,-0.1709252893924713,-0.27588245272636414,-0.029851792380213737,0.03872671350836754,0.2656543254852295,0.20245270431041718,0.0024588718079030514,-0.013097281567752361,-0.23646004498004913,-0.25877881050109863,0.061285603791475296,-0.028320234268903732,-0.14097590744495392,0.27691182494163513,0.30266818404197693,-0.32241958379745483,-0.004640062805265188,-0.08823180943727493,0.08903197199106216,0.12413720786571503,-0.22191466391086578,0.06418150663375854,-0.0546581968665123,-0.14340698719024658,-0.02219516597688198,0.017404841259121895,0.06204519420862198,0.04189818352460861,0.138283833861351,0.059261757880449295,-0.037110891193151474],[-0.16345468163490295,0.15368513762950897,0.22836609184741974,0.10827848315238953,0.02316110208630562,-0.20178167521953583,-0.010732684284448624,0.03036615252494812,0.1022687703371048,-0.029088106006383896,-0.13341639935970306,-0.3168949484825134,-0.19221842288970947,0.051125332713127136,-0.1434018313884735,-0.04348522424697876,0.2511410117149353,-0.05136284977197647,0.0022724783048033714,-0.07707836478948593,-0.11822883784770966,-0.22298167645931244,0.014046186581254005,0.2574567198753357,-0.09267286211252213,-0.06780348718166351,0.1571103036403656,-0.1802421361207962,-0.38576313853263855,0.060030777007341385,-0.04860643297433853,-0.05597558990120888,0.02800096943974495,0.33050259947776794,-0.13104882836341858,-0.16024838387966156,0.07254298031330109,-0.04243451729416847,0.08243010193109512,0.016580181196331978,0.06890291720628738,0.06052554026246071,0.08360786736011505,-0.013826195150613785,-0.2719709873199463,-0.10923439264297485,-0.1851341277360916,0.15014545619487762,0.028465790674090385,0.016036026179790497],[0.34803202748298645,-0.39559248089790344,-0.5167367458343506,-0.4056565463542938,-0.039468374103307724,0.47154560685157776,0.20104539394378662,-0.13271556794643402,0.10959041863679886,-0.12142812460660934,0.10267163068056107,0.20134076476097107,0.19327537715435028,0.28655657172203064,0.6220692992210388,0.04236157238483429,-0.2913958430290222,-0.014403686858713627,-0.17930573225021362,-0.0248557161539793,0.0616411492228508,0.24558930099010468,-0.11179196089506149,-0.34004631638526917,-0.005028758198022842,0.4160008728504181,