[
    {
        "bias": [
            0.10000000149011612, 
            0.10000000149011612, 
            0.10000000149011612, 
            0.10000000149011612, 
            0.10000000149011612, 
            0.10000000149011612, 
            0.10000000149011612, 
            0.10000000149011612, 
            0.10000000149011612, 
            0.10000000149011612, 
            0.10000000149011612, 
            0.10000000149011612, 
            0.10000000149011612, 
            0.10000000149011612, 
            0.10000000149011612, 
            0.10000000149011612, 
            0.10000000149011612, 
            0.10000000149011612, 
            0.10000000149011612, 
            0.10000000149011612, 
            0.10000000149011612, 
            0.10000000149011612, 
            0.10000000149011612, 
            0.10000000149011612, 
            0.10000000149011612, 
            0.10000000149011612, 
            0.10000000149011612, 
            0.10000000149011612, 
            0.10000000149011612, 
            0.10000000149011612, 
            0.10000000149011612, 
            0.10000000149011612, 
            0.10000000149011612, 
            0.10000000149011612, 
            0.10000000149011612, 
            0.10000000149011612, 
            0.10000000149011612, 
            0.10000000149011612, 
            0.10000000149011612, 
            0.10000000149011612, 
            0.10000000149011612, 
            0.10000000149011612, 
            0.10000000149011612, 
            0.10000000149011612, 
            0.10000000149011612, 
            0.10000000149011612, 
            0.10000000149011612, 
            0.10000000149011612, 
            0.10000000149011612, 
            0.10000000149011612, 
            0.10000000149011612, 
            0.10000000149011612, 
            0.10000000149011612, 
            0.10000000149011612, 
            0.10000000149011612, 
            0.10000000149011612, 
            0.10000000149011612, 
            0.10000000149011612, 
            0.10000000149011612, 
            0.10000000149011612, 
            0.10000000149011612, 
            0.10000000149011612, 
            0.10000000149011612, 
            0.10000000149011612, 
            0.10000000149011612, 
            0.10000000149011612, 
            0.10000000149011612, 
            0.10000000149011612, 
            0.10000000149011612, 
            0.10000000149011612, 
            0.10000000149011612, 
            0.10000000149011612, 
            0.10000000149011612, 
            0.10000000149011612, 
            0.10000000149011612, 
            0.10000000149011612, 
            0.10000000149011612, 
            0.10000000149011612, 
            0.10000000149011612, 
            0.10000000149011612, 
            0.10000000149011612, 
            0.10000000149011612, 
            0.10000000149011612, 
            0.10000000149011612, 
            0.10000000149011612, 
            0.10000000149011612, 
            0.10000000149011612, 
            0.10000000149011612, 
            0.10000000149011612, 
            0.10000000149011612, 
            0.10000000149011612, 
            0.10000000149011612, 
            0.10000000149011612, 
            0.10000000149011612, 
            0.10000000149011612, 
            0.10000000149011612, 
            0.10000000149011612, 
            0.10000000149011612, 
            0.10000000149011612, 
            0.10000000149011612
        ], 
        "weights": [
            [
                0.1334434598684311, 
                -0.15387028455734253, 
                0.13092252612113953, 
                0.1501007378101349, 
                0.001980832312256098, 
                -0.027907434850931168, 
                0.10694754123687744, 
                0.037073176354169846, 
                -0.08463423699140549, 
                0.11950450390577316, 
                -0.01917894184589386, 
                0.060187648981809616, 
                0.05172155424952507, 
                0.06400694698095322, 
                -0.06910720467567444, 
                -0.009320338256657124, 
                -0.08324916660785675, 
                0.06781309098005295, 
                0.06704696267843246, 
                -0.03592740744352341, 
                -0.0007882673526182771, 
                0.15648993849754333, 
                -0.02815185859799385, 
                0.043112318962812424, 
                -0.12546400725841522, 
                -0.10557235777378082, 
                0.04432966187596321, 
                -0.039585214108228683, 
                0.12282818555831909, 
                0.012350338511168957, 
                0.007988686673343182, 
                0.14640666544437408, 
                0.01293976791203022, 
                0.010298026725649834, 
                -0.002395221032202244, 
                0.14258161187171936, 
                0.13479168713092804, 
                0.06371330469846725, 
                0.06623321771621704, 
                -0.06107838824391365, 
                -0.02064642868936062, 
                -0.024431632831692696, 
                -0.0921333059668541, 
                -0.055395133793354034, 
                0.15393798053264618, 
                0.09086346626281738, 
                -0.051343079656362534, 
                0.06473764032125473, 
                -0.06971605122089386, 
                -0.012029933743178844, 
                0.05537700653076172, 
                -0.00891759805381298, 
                0.010000116191804409, 
                -0.05149627476930618, 
                0.049648262560367584, 
                0.09654439985752106, 
                0.055682022124528885, 
                0.05303515866398811, 
                -0.09661475569009781, 
                0.1049957275390625, 
                0.00624671159312129, 
                -0.1210242286324501, 
                0.037745531648397446, 
                0.0996808186173439, 
                0.11522071808576584, 
                0.0033542977180331945, 
                0.05034545809030533, 
                -0.03258950635790825, 
                0.006568923592567444, 
                0.18869034945964813, 
                -0.04742550104856491, 
                0.04505586251616478, 
                -0.011800105683505535, 
                0.1602022498846054, 
                0.0568409226834774, 
                0.060632821172475815, 
                0.0101105822250247, 
                0.010369968600571156, 
                0.10996885597705841, 
                -0.14116522669792175, 
                0.038953494280576706, 
                -0.01027113851159811, 
                -0.056287892162799835, 
                -0.17140206694602966, 
                0.14832726120948792, 
                -0.0892404317855835, 
                -0.07083816826343536, 
                -0.0839611366391182, 
                -0.0643937811255455, 
                0.07702562212944031, 
                0.11873775720596313, 
                -0.1624205857515335, 
                -0.09400536864995956, 
                -0.09116346389055252, 
                -0.10282697528600693, 
                -0.024250980466604233, 
                0.10083796083927155, 
                0.0003877652052324265, 
                0.07101347297430038, 
                0.03863426297903061
            ], 
            [
                -0.04701178893446922, 
                0.05345769599080086, 
                -0.07749708741903305, 
                0.05517932400107384, 
                0.10130312293767929, 
                -0.08202650398015976, 
                -0.020623333752155304, 
                -0.1286732405424118, 
                -0.02923179604113102, 
                0.05065731331706047, 
                0.10394705832004547, 
                -0.10712293535470963, 
                -0.07693230360746384, 
                -0.000640886602923274, 
                -0.1278020143508911, 
                -0.07824556529521942, 
                -0.10277547687292099, 
                -0.14127326011657715, 
                0.1603439599275589, 
                -0.0023634936660528183, 
                -0.12837634980678558, 
                0.014044642448425293, 
                -0.11032997816801071, 
                -0.1419333666563034, 
                0.014255932532250881, 
                -0.12210964411497116, 
                -0.106160007417202, 
                0.0544118657708168, 
                -0.11057037115097046, 
                -0.03839413449168205, 
                -0.06560283154249191, 
                -0.017582278698682785, 
                0.038540150970220566, 
                -0.17715810239315033, 
                -0.008703379891812801, 
                -0.00811670906841755, 
                0.17064268887043, 
                -0.04623926430940628, 
                -0.07978853583335876, 
                -0.15065516531467438, 
                -0.03838730975985527, 
                0.13534995913505554, 
                -0.017197301611304283, 
                -0.010828846134245396, 
                0.10624553263187408, 
                -0.13455501198768616, 
                0.05916547775268555, 
                -0.008373084478080273, 
                0.0020349908154457808, 
                0.1236807107925415, 
                0.1760551929473877, 
                0.13001181185245514, 
                -0.010604414157569408, 
                0.0010704508749768138, 
                -0.039404820650815964, 
                0.12237530946731567, 
                -0.08858708292245865, 
                -0.03192400932312012, 
                -0.049344755709171295, 
                0.07885269075632095, 
                0.1643308848142624, 
                0.04153429716825485, 
                -0.04563569650053978, 
                -0.12231224030256271, 
                -0.024607913568615913, 
                0.08481179922819138, 
                0.00014385672693606466, 
                0.14649991691112518, 
                0.0005031090113334358, 
                -0.1556340456008911, 
                0.19968704879283905, 
                0.0006219110218808055, 
                0.09704910218715668, 
                0.06543977558612823, 
                -0.03948867693543434, 
                -0.07458413392305374, 
                0.054942477494478226, 
                -0.11259373277425766, 
                -0.10065441578626633, 
                0.10310959815979004, 
                0.0719858929514885, 
                0.15595825016498566, 
                -0.0024929612409323454, 
                0.03530556708574295, 
                0.1413791924715042, 
                -0.014987709932029247, 
                -0.09220834076404572, 
                -0.04569150507450104, 
                0.04229277744889259, 
                0.04493656009435654, 
                -0.0796666070818901, 
                -0.0012203070800751448, 
                0.055984895676374435, 
                -0.15463507175445557, 
                0.11078901588916779, 
                -0.08970308303833008, 
                0.15602873265743256, 
                0.01762642338871956, 
                0.1869782656431198, 
                0.09742134064435959
            ], 
            [
                -0.047499898821115494, 
                -0.09588577598333359, 
                -0.018958773463964462, 
                -0.015383580699563026, 
                -0.08375290036201477, 
                0.10551144182682037, 
                -0.05055161938071251, 
                0.05930567532777786, 
                -0.051574982702732086, 
                0.02681543305516243, 
                0.10175031423568726, 
                -0.006934677716344595, 
                0.1509876847267151, 
                0.07480683922767639, 
                -0.037174683064222336, 
                0.029636645689606667, 
                -0.15571843087673187, 
                -0.10635455697774887, 
                -0.08176254481077194, 
                0.08063255250453949, 
                -0.06605517119169235, 
                -0.15346644818782806, 
                0.048739414662122726, 
                -0.12873338162899017, 
                0.05850040912628174, 
                -0.12504306435585022, 
                -0.09412094205617905, 
                0.10828312486410141, 
                0.03577125817537308, 
                -0.02165074273943901, 
                0.025947708636522293, 
                -0.03769705072045326, 
                0.16456632316112518, 
                0.0895952507853508, 
                -0.1524001657962799, 
                -0.010033478029072285, 
                0.10628678649663925, 
                0.009155599400401115, 
                -0.014118707738816738, 
                0.030359286814928055, 
                -0.14512890577316284, 
                0.11357784271240234, 
                0.03943228721618652, 
                -0.002871403470635414, 
                0.09095574915409088, 
                0.036783844232559204, 
                -0.021285442635416985, 
                -0.05093048885464668, 
                0.09479156136512756, 
                -0.14803989231586456, 
                -0.15708477795124054, 
                0.022220779210329056, 
                -0.037180766463279724, 
                -0.0049107312224805355, 
                -0.08777067810297012, 
                -0.08805540949106216, 
                -0.07060014456510544, 
                -0.10954158753156662, 
                0.016323531046509743, 
                -0.11825094372034073, 
                0.19359534978866577, 
                -0.11838376522064209, 
                0.13090018928050995, 
                0.0015499854926019907, 
                0.04653891921043396, 
                -0.009095942601561546, 
                -0.1672234982252121, 
                -0.07288547605276108, 
                0.15088099241256714, 
                0.011519122868776321, 
                0.17100298404693604, 
                0.00546129560098052, 
                -0.13461169600486755, 
                0.10777967423200607, 
                0.0009406829485669732, 
                0.1661878377199173, 
                0.09887682646512985, 
                -0.12761110067367554, 
                0.1521841585636139, 
                -0.020582834258675575, 
                -0.005522980820387602, 
                0.07500285655260086, 
                -0.02887600101530552, 
                0.009001181460916996, 
                0.005929028615355492, 
                0.1237092837691307, 
                0.18463945388793945, 
                -0.07301124185323715, 
                -0.0425533689558506, 
                -0.02996222674846649, 
                0.10981016606092453, 
                -0.09504886716604233, 
                0.030347833409905434, 
                -0.021704360842704773, 
                -0.027159830555319786, 
                -0.026421478018164635, 
                -0.018453938886523247, 
                0.022593578323721886, 
                0.08893758803606033, 
                0.03834976255893707
            ], 
            [
                -0.020025525242090225, 
                0.048993125557899475, 
                0.11802784353494644, 
                0.13353556394577026, 
                -0.07317634671926498, 
                -0.1490819752216339, 
                -0.17650046944618225, 
                -0.06913402676582336, 
                0.00019963181694038212, 
                0.028900662437081337, 
                -0.13477736711502075, 
                -0.01860467717051506, 
                -0.020391039550304413, 
                -0.0037921888288110495, 
                0.0876988023519516, 
                -0.0988972932100296, 
                -0.11620443314313889, 
                -0.10045492649078369, 
                0.054851412773132324, 
                -0.05042601376771927, 
                0.14083485305309296, 
                0.06010669469833374, 
                0.04976312071084976, 
                0.03028838150203228, 
                0.07659577578306198, 
                -0.1596660614013672, 
                -0.0028297470416873693, 
                -0.0441344790160656, 
                0.05782623216509819, 
                -0.01951361447572708, 
                0.07267121970653534, 
                0.04151933640241623, 
                -0.014154474250972271, 
                -0.09110008925199509, 
                0.04495730996131897, 
                -0.16765901446342468, 
                0.08530225604772568, 
                -0.19947512447834015, 
                -0.006360554601997137, 
                -0.028727972880005836, 
                -0.07342027127742767, 
                0.037355247884988785, 
                -0.06444146484136581, 
                0.04831847921013832, 
                -0.09138888120651245, 
                -0.09009340405464172, 
                -0.14840973913669586, 
                -0.05200519785284996, 
                -0.00231115217320621, 
                0.02062431536614895, 
                -0.11845063418149948, 
                0.04995335265994072, 
                -0.1614045351743698, 
                -0.010457179509103298, 
                0.05160508677363396, 
                -0.03586355224251747, 
                -0.05498030409216881, 
                0.008379521779716015, 
                -0.06597428768873215, 
                -0.1523456573486328, 
                0.027741137892007828, 
                -0.17264163494110107, 
                -0.18023698031902313, 
                0.06411557644605637, 
                -0.14276736974716187, 
                -0.16964402794837952, 
                0.0743752047419548, 
                0.1675902158021927, 
                0.019633019343018532, 
                -0.0008925390429794788, 
                0.018156757578253746, 
                -0.014134086668491364, 
                -0.16627837717533112, 
                -0.15022939443588257, 
                0.027983447536826134, 
                0.011262449435889721, 
                0.03519102931022644, 
                -0.11711782217025757, 
                0.014222562313079834, 
                0.10431132465600967, 
                -0.027420563623309135, 
                -0.044672925025224686, 
                0.11563121527433395, 
                0.09535094350576401, 
                0.15015284717082977, 
                -0.08810288459062576, 
                -0.1510869711637497, 
                0.0018092542886734009, 
                -0.009273207746446133, 
                -0.010238759219646454, 
                0.0061175404116511345, 
                -0.02157110534608364, 
                -0.055721309036016464, 
                -0.15532590448856354, 
                -0.07490115612745285, 
                -0.047694068402051926, 
                0.09616989642381668, 
                -0.07049132138490677, 
                -0.12034305185079575, 
                0.036227598786354065
            ], 
            [
                -0.039172932505607605, 
                0.011016483418643475, 
                -0.08251244574785233, 
                -0.09164322167634964, 
                -0.10922565311193466, 
                0.11084242165088654, 
                -0.07275927066802979, 
                -0.02119053527712822, 
                0.05664915591478348, 
                0.07343194633722305, 
                0.06385134160518646, 
                -0.06284888088703156, 
                -0.05308392271399498, 
                0.06974010914564133, 
                0.15123888850212097, 
                0.12930908799171448, 
                -0.09021314233541489, 
                -0.10655579715967178, 
                -0.13606539368629456, 
                -0.027022743597626686, 
                -0.05442796275019646, 
                0.01265366654843092, 
                -0.17109660804271698, 
                0.010518134571611881, 
                0.08524031192064285, 
                -0.03195932134985924, 
                -0.0036998919676989317, 
                0.07433592528104782, 
                0.03652752563357353, 
                -0.006036160513758659, 
                -0.04641566425561905, 
                -0.08460043370723724, 
                0.07097344100475311, 
                0.1777016818523407, 
                -0.12940657138824463, 
                0.021364035084843636, 
                -0.0339927077293396, 
                -0.05464404448866844, 
                -0.1907741129398346, 
                0.1018935814499855, 
                -0.10401896387338638, 
                0.032234352082014084, 
                -0.08428331464529037, 
                0.04964243620634079, 
                -0.17477299273014069, 
                -0.05183526501059532, 
                0.008380994200706482, 
                -0.11885040998458862, 
                0.04115526005625725, 
                -0.03390229120850563, 
                -0.0012596076121553779, 
                -0.10847622156143188, 
                -0.134971022605896, 
                0.04304347559809685, 
                0.0700085386633873, 
                0.02348867431282997, 
                0.17484381794929504, 
                -0.17427897453308105, 
                -0.12449008226394653, 
                -0.10575941950082779, 
                0.001876085065305233, 
                0.03612819314002991, 
                0.00987941399216652, 
                0.11991041898727417, 
                0.020212633535265923, 
                -0.012888816185295582, 
                0.14301757514476776, 
                0.03624122962355614, 
                -0.07663065940141678, 
                -0.019530590623617172, 
                0.06842480599880219, 
                0.10317876189947128, 
                0.17203566431999207, 
                0.025319332256913185, 
                0.0857188031077385, 
                -0.07656390219926834, 
                0.015378037467598915, 
                0.021657126024365425, 
                0.04557618126273155, 
                0.07413419336080551, 
                0.06616541743278503, 
                0.03944706916809082, 
                -0.03656353801488876, 
                -0.14805182814598083, 
                -0.13063949346542358, 
                0.02083139680325985, 
                0.01779080182313919, 
                -0.021960115060210228, 
                -0.03259054571390152, 
                0.02000546269118786, 
                -0.0997525006532669, 
                0.12140188366174698, 
                -0.05172787979245186, 
                -0.0790446326136589, 
                0.09387698769569397, 
                0.0325806550681591, 
                -0.06658956408500671, 
                -0.036081667989492416, 
                0.07294003665447235, 
                -0.034985754638910294
            ], 
            [
                -0.16598165035247803, 
                0.013770617544651031, 
                -0.10780950635671616, 
                -0.19380006194114685, 
                0.031985070556402206, 
                -0.043864887207746506, 
                0.12278737127780914, 
                -0.07883947342634201, 
                -0.005046308971941471, 
                0.0822785496711731, 
                0.04256846010684967, 
                -0.05915827304124832, 
                0.15276092290878296, 
                0.12252639979124069, 
                -0.09384460002183914, 
                0.07178791612386703, 
                0.09804513305425644, 
                -0.050814587622880936, 
                0.02264396660029888, 
                -0.027754997834563255, 
                0.05319380760192871, 
                0.13506506383419037, 
                0.020488673821091652, 
                -0.10737353563308716, 
                0.062709741294384, 
                0.034809526056051254, 
                -0.08393009752035141, 
                0.08855867385864258, 
                -0.13282907009124756, 
                -0.15317000448703766, 
                0.1339547336101532, 
                0.009141232818365097, 
                0.08956780284643173, 
                -0.04683646932244301, 
                0.06784650683403015, 
                0.012624924071133137, 
                -0.03898218274116516, 
                0.07884495705366135, 
                0.006059880834072828, 
                -0.05989217758178711, 
                0.06102179363369942, 
                -0.07886902242898941, 
                -0.07741539925336838, 
                -0.005159707274287939, 
                -0.13311539590358734, 
                0.06288664788007736, 
                0.012821746058762074, 
                0.016314128413796425, 
                0.11488618701696396, 
                0.04478323832154274, 
                -0.08761568367481232, 
                -0.08320537209510803, 
                0.0285185519605875, 
                0.032078180462121964, 
                -0.0853051245212555, 
                -0.08288606256246567, 
                0.09713632613420486, 
                0.08711502701044083, 
                0.07234136760234833, 
                -0.0022037194576114416, 
                0.008058558218181133, 
                -0.010639919899404049, 
                0.11293299496173859, 
                -0.08741597086191177, 
                0.15889589488506317, 
                -0.034605417400598526, 
                0.051576536148786545, 
                -0.009373429231345654, 
                0.011977359652519226, 
                0.12026347219944, 
                0.025170549750328064, 
                -0.14074799418449402, 
                0.15574593842029572, 
                0.016296779736876488, 
                -0.08373237401247025, 
                -0.03477238491177559, 
                0.08370325714349747, 
                -0.11027920246124268, 
                -0.039944346994161606, 
                0.1491999477148056, 
                0.053640980273485184, 
                -0.12957431375980377, 
                -0.1097913533449173, 
                -0.03032979741692543, 
                0.12070142477750778, 
                -0.0635915994644165, 
                0.1119772344827652, 
                -0.05198226124048233, 
                0.013470063917338848, 
                -0.04079384729266167, 
                -0.016820354387164116, 
                0.023729268461465836, 
                -0.02300022728741169, 
                0.0276239812374115, 
                -0.15514956414699554, 
                0.027254391461610794, 
                0.01839214749634266, 
                0.028006598353385925, 
                0.016005640849471092, 
                0.04535197839140892
            ], 
            [
                -0.1115669533610344, 
                -0.05599513277411461, 
                -0.07019093632698059, 
                0.0788736641407013, 
                -0.15302979946136475, 
                -0.0013728251215070486, 
                -0.009720242582261562, 
                0.06127611920237541, 
                0.07183079421520233, 
                -0.010531456209719181, 
                -0.015968527644872665, 
                -0.003067109500989318, 
                -0.10493167489767075, 
                0.003033587010577321, 
                -0.06892513483762741, 
                0.05773838981986046, 
                -0.004983164370059967, 
                0.10606038570404053, 
                -0.07491640746593475, 
                -0.18219448626041412, 
                -0.05225173383951187, 
                -0.03909716755151749, 
                -0.06713716685771942, 
                -0.02073763497173786, 
                0.003191417781636119, 
                0.08187387138605118, 
                0.08905705064535141, 
                -0.05546025559306145, 
                -0.02501281537115574, 
                0.0042138672433793545, 
                0.11141234636306763, 
                0.06189112737774849, 
                0.1009366512298584, 
                -0.058003999292850494, 
                -0.016168635338544846, 
                -0.01325322687625885, 
                0.033341240137815475, 
                -0.0684877261519432, 
                0.06180073693394661, 
                0.009675790555775166, 
                0.14376863837242126, 
                -0.09549146145582199, 
                -0.15131328999996185, 
                0.014793467707931995, 
                -0.07734929770231247, 
                0.09049113094806671, 
                -0.02925834059715271, 
                0.014168662019073963, 
                0.056683626025915146, 
                -0.05829373747110367, 
                0.04230080172419548, 
                -0.05556711554527283, 
                -0.16837643086910248, 
                0.04163677617907524, 
                -0.18014374375343323, 
                0.09709899127483368, 
                0.0071831257082521915, 
                -0.09702019393444061, 
                -0.036742545664310455, 
                0.15908080339431763, 
                0.00866047665476799, 
                -0.16289134323596954, 
                0.003743582172319293, 
                0.03457663580775261, 
                -0.06209985539317131, 
                -0.01903899572789669, 
                0.0686088278889656, 
                0.06078391894698143, 
                0.11201649159193039, 
                0.10948611795902252, 
                -0.06651400774717331, 
                -0.12591055035591125, 
                0.10748860985040665, 
                0.049222301691770554, 
                -0.13770417869091034, 
                -0.07477416843175888, 
                0.12915299832820892, 
                0.07291453331708908, 
                0.07671885937452316, 
                0.16160042583942413, 
                -0.08136385679244995, 
                -0.006599404849112034, 
                -0.09849392622709274, 
                -0.13100498914718628, 
                -0.18319271504878998, 
                -0.04570542275905609, 
                0.10936754196882248, 
                -0.013976143673062325, 
                -0.14778034389019012, 
                0.12112840265035629, 
                0.1424650400876999, 
                -0.0145223094150424, 
                0.08756765723228455, 
                -0.054219018667936325, 
                -0.07125061750411987, 
                0.05275573208928108, 
                0.06913489103317261, 
                0.026247123256325722, 
                0.1523842066526413, 
                0.08029217272996902
            ], 
            [
                -0.023368215188384056, 
                -0.004920308943837881, 
                0.12073087692260742, 
                -0.056992050260305405, 
                0.12857972085475922, 
                -0.10010290145874023, 
                -0.007230685092508793, 
                -0.023356767371296883, 
                -0.05552936717867851, 
                0.1732078343629837, 
                0.06717657297849655, 
                -0.0032811046112328768, 
                -0.14357885718345642, 
                -0.17290695011615753, 
                0.006087541114538908, 
                0.10778794437646866, 
                -0.08311618119478226, 
                0.137554332613945, 
                0.0007630232139490545, 
                0.024202441796660423, 
                0.061075009405612946, 
                -0.011081802658736706, 
                0.023728497326374054, 
                -0.027414171025156975, 
                0.08225324004888535, 
                -0.1462939828634262, 
                0.08918838202953339, 
                0.11074788868427277, 
                -0.1339176744222641, 
                0.0396893136203289, 
                -0.10685893148183823, 
                -0.06990744173526764, 
                0.11595281213521957, 
                0.18394148349761963, 
                0.046315472573041916, 
                -0.024283796548843384, 
                -0.0041360994800925255, 
                0.11258061230182648, 
                -0.014055258594453335, 
                -0.13364045321941376, 
                0.17351703345775604, 
                0.0680917426943779, 
                0.1717381626367569, 
                0.00905032642185688, 
                0.11023075878620148, 
                0.1656990945339203, 
                -0.0652514174580574, 
                -0.04091150686144829, 
                -0.02439959906041622, 
                0.015494177117943764, 
                0.03681932017207146, 
                0.08488279581069946, 
                -0.1493576318025589, 
                -0.04692573845386505, 
                -0.032083723694086075, 
                -0.014194974675774574, 
                -0.048723768442869186, 
                0.13137297332286835, 
                -0.09500752389431, 
                -0.17782405018806458, 
                -0.08794587105512619, 
                -0.013289811089634895, 
                0.049492932856082916, 
                0.08343099802732468, 
                -0.11445824056863785, 
                0.012385458685457706, 
                0.004964074119925499, 
                0.07343707978725433, 
                -0.12288916110992432, 
                0.17705242335796356, 
                -0.008746685460209846, 
                -0.06314802914857864, 
                0.10989060252904892, 
                -0.0008038384257815778, 
                -0.16240936517715454, 
                0.1344982385635376, 
                0.03212639316916466, 
                -0.1039859801530838, 
                0.07129061967134476, 
                -0.07623281329870224, 
                0.03787079453468323, 
                -0.039392080157995224, 
                0.02490793541073799, 
                0.02246108092367649, 
                -0.0331510566174984, 
                -0.08027152717113495, 
                -0.03392430767416954, 
                0.02026963420212269, 
                0.0263285581022501, 
                0.023351997137069702, 
                0.07238917797803879, 
                -0.09415297955274582, 
                0.026351282373070717, 
                0.0020375389140099287, 
                0.045393045991659164, 
                -0.08089219778776169, 
                0.005478276871144772, 
                -0.09962968528270721, 
                -0.1606014221906662, 
                0.11248215287923813
            ], 
            [
                0.020132243633270264, 
                0.08723331987857819, 
                -0.01591632328927517, 
                0.10057278722524643, 
                -0.0393032543361187, 
                0.02075926586985588, 
                -0.0008416172349825501, 
                0.027538275346159935, 
                -0.012369059026241302, 
                0.0164174884557724, 
                -0.010496445931494236, 
                -0.08256284147500992, 
                -0.05651917681097984, 
                0.01578025333583355, 
                -0.0028088053222745657, 
                0.036901962012052536, 
                -0.17961211502552032, 
                -0.0069206818006932735, 
                -0.04754473641514778, 
                -0.038585834205150604, 
                -0.0031263846904039383, 
                0.12849919497966766, 
                0.013885234482586384, 
                -0.14725886285305023, 
                0.12691031396389008, 
                0.1972150206565857, 
                0.1054915115237236, 
                -0.048951685428619385, 
                0.1493820697069168, 
                0.008180891163647175, 
                -0.06312897056341171, 
                -0.006992723792791367, 
                -0.13912172615528107, 
                0.1624375581741333, 
                -0.03609192371368408, 
                0.033222608268260956, 
                0.10177413374185562, 
                -0.18823812901973724, 
                0.00899241678416729, 
                -0.04720195755362511, 
                0.018906697630882263, 
                -0.008396727964282036, 
                -0.08977897465229034, 
                -0.1167234554886818, 
                0.07463883608579636, 
                0.15171144902706146, 
                -0.09490766376256943, 
                0.05179142579436302, 
                -0.13657008111476898, 
                -0.11382949352264404, 
                -0.03140174597501755, 
                0.027857858687639236, 
                -0.013206754811108112, 
                -0.14425188302993774, 
                0.017673790454864502, 
                -0.034474801272153854, 
                -0.12215524166822433, 
                -0.043783511966466904, 
                0.024869147688150406, 
                -0.1521277129650116, 
                0.04073316231369972, 
                0.09903406351804733, 
                -0.0020207378547638655, 
                0.04566918686032295, 
                0.11727543920278549, 
                0.11028089374303818, 
                0.10071324557065964, 
                -0.10027483850717545, 
                -0.03614179044961929, 
                -0.03820713236927986, 
                0.181355819106102, 
                0.06636204570531845, 
                0.0733264833688736, 
                -0.049784254282712936, 
                -0.04580000787973404, 
                0.04164545610547066, 
                -0.03161783888936043, 
                -0.056885045021772385, 
                0.01711340993642807, 
                -0.07822871208190918, 
                0.05195000767707825, 
                0.0936531201004982, 
                -0.11191944032907486, 
                -0.034324053674936295, 
                0.05752592906355858, 
                -0.06810310482978821, 
                0.058600474148988724, 
                0.0258136298507452, 
                0.0046989042311906815, 
                -0.03958256170153618, 
                -0.19951511919498444, 
                0.05022710561752319, 
                -0.0036041506100445986, 
                -0.12661084532737732, 
                0.027746740728616714, 
                -0.17432408034801483, 
                0.07875849306583405, 
                0.06908294558525085, 
                -0.033865343779325485, 
                -0.055507272481918335
            ], 
            [
                -0.00494961254298687, 
                0.11151712387800217, 
                0.10280791670084, 
                -0.07578744739294052, 
                0.18990297615528107, 
                -0.07600226253271103, 
                0.017125185579061508, 
                -0.08971147984266281, 
                -0.1345873922109604, 
                -0.05268676206469536, 
                0.07024302333593369, 
                -0.0365031398832798, 
                -0.05573451519012451, 
                0.03709573298692703, 
                0.004574402701109648, 
                0.05122770741581917, 
                0.05367172509431839, 
                0.11960631608963013, 
                0.010466882027685642, 
                0.05181145295500755, 
                -0.0855860635638237, 
                -0.06527864187955856, 
                0.03833309933543205, 
                0.007597080897539854, 
                0.04364946484565735, 
                -0.10434617847204208, 
                -0.03341810405254364, 
                0.05289122089743614, 
                0.0086975684389472, 
                0.047614168375730515, 
                -0.052141208201646805, 
                -0.16127052903175354, 
                0.004430720116943121, 
                0.07300057262182236, 
                -0.08228940516710281, 
                -0.10034989565610886, 
                -0.005084555130451918, 
                -0.0023584216833114624, 
                -0.02091134339570999, 
                0.10860513895750046, 
                -0.0023475491907447577, 
                -0.0825498029589653, 
                0.022498466074466705, 
                -0.06236150860786438, 
                0.00901778694242239, 
                0.06237122043967247, 
                0.15600936114788055, 
                -0.07010779529809952, 
                -0.1352052092552185, 
                0.10023943334817886, 
                0.11168219894170761, 
                -0.05578814074397087, 
                -0.04752404987812042, 
                0.04924287274479866, 
                0.050207581371068954, 
                0.0067538307048380375, 
                -0.013570648618042469, 
                -0.1019396111369133, 
                -0.017339780926704407, 
                -0.04031464457511902, 
                0.1454199105501175, 
                -0.05439801141619682, 
                0.08427701890468597, 
                -0.11822880804538727, 
                -0.021053172647953033, 
                0.03073425032198429, 
                0.026454919949173927, 
                0.020456383004784584, 
                0.05565904453396797, 
                0.0680166482925415, 
                0.0011727201053872705, 
                0.05140424519777298, 
                0.015140794217586517, 
                0.05204152688384056, 
                -0.0532410629093647, 
                0.17638711631298065, 
                -0.04289494454860687, 
                0.13954634964466095, 
                -0.040707722306251526, 
                -0.08863072842359543, 
                0.04179888591170311, 
                -0.13833831250667572, 
                -0.19055381417274475, 
                -0.04004731401801109, 
                -0.13261935114860535, 
                0.049800097942352295, 
                -0.0638054758310318, 
                0.020740142092108727, 
                0.0031962250359356403, 
                0.036602627485990524, 
                0.0012450898066163063, 
                0.13315095007419586, 
                -0.028485754504799843, 
                -0.03539630025625229, 
                -0.00040779970004223287, 
                -0.08063322305679321, 
                -0.11758425086736679, 
                -0.01455567218363285, 
                0.002393854083493352, 
                0.08097616583108902
            ], 
            [
                0.045936670154333115, 
                -0.020694371312856674, 
                0.07623416930437088, 
                0.01179448887705803, 
                0.09610617905855179, 
                0.016718124970793724, 
                -0.13714729249477386, 
                -0.06260794401168823, 
                -0.025633245706558228, 
                -0.07222747057676315, 
                -0.013429494574666023, 
                0.020376725122332573, 
                -0.0037099202163517475, 
                -0.0370359942317009, 
                -0.031296372413635254, 
                -0.05577228590846062, 
                0.0980532094836235, 
                0.19290781021118164, 
                -0.05553540587425232, 
                -0.015939099714159966, 
                -0.016460519284009933, 
                -0.1222820058465004, 
                0.05635758116841316, 
                0.07265495508909225, 
                0.1269819587469101, 
                -0.10244462639093399, 
                0.021778825670480728, 
                0.1001991555094719, 
                -0.15217475593090057, 
                0.02052593044936657, 
                0.1360083669424057, 
                0.10895343124866486, 
                0.06124481186270714, 
                0.04975425824522972, 
                -0.15246132016181946, 
                0.060976117849349976, 
                0.06001343950629234, 
                -0.09161283075809479, 
                0.09592409431934357, 
                -0.16662339866161346, 
                -0.013654028065502644, 
                0.10201606899499893, 
                -0.0051888697780668736, 
                0.043117694556713104, 
                -0.06662487238645554, 
                -0.1089186891913414, 
                0.06111249327659607, 
                -0.08299043774604797, 
                0.11383289098739624, 
                0.07015036791563034, 
                -0.016236713156104088, 
                -0.09879478067159653, 
                0.036398496478796005, 
                0.05306951329112053, 
                0.08323527872562408, 
                0.1149217039346695, 
                -0.10467656701803207, 
                -0.025226041674613953, 
                0.04547690972685814, 
                -0.007201255764812231, 
                -0.05834455415606499, 
                0.1474086046218872, 
                -0.025965606793761253, 
                -0.007343610282987356, 
                -0.010884019546210766, 
                0.053069181740283966, 
                -0.05841023474931717, 
                -0.1223810687661171, 
                -0.06408513337373734, 
                0.1054004430770874, 
                0.06159204989671707, 
                -0.04500351473689079, 
                -0.11765053123235703, 
                0.07593320310115814, 
                0.12537050247192383, 
                0.12732325494289398, 
                0.065468430519104, 
                0.05371205881237984, 
                0.004120733588933945, 
                0.111244335770607, 
                0.04135248437523842, 
                0.08294627815485, 
                0.04538094252347946, 
                -0.1558285653591156, 
                0.09497552365064621, 
                0.06882470101118088, 
                0.12041961401700974, 
                0.12340684980154037, 
                0.12670117616653442, 
                -0.006849120836704969, 
                0.08983354270458221, 
                0.13762514293193817, 
                -0.10027634352445602, 
                -0.05554783344268799, 
                0.11651644855737686, 
                -0.0053190188482403755, 
                0.09784575551748276, 
                0.04656517878174782, 
                -0.12403587251901627, 
                0.041713908314704895
            ], 
            [
                0.05709901452064514, 
                -0.03306064382195473, 
                0.1416136920452118, 
                -0.19709543883800507, 
                0.04384770616889, 
                0.10529091209173203, 
                -0.12093043327331543, 
                -0.15500973165035248, 
                -0.003544444218277931, 
                -0.09495765715837479, 
                0.003338100854307413, 
                -0.06953530758619308, 
                -0.10821572691202164, 
                -0.15456783771514893, 
                -0.0057287500239908695, 
                0.10035081207752228, 
                0.007707595359534025, 
                -0.10369217395782471, 
                -0.024025630205869675, 
                0.08817767351865768, 
                0.005091910250484943, 
                0.03365650400519371, 
                -0.04910240322351456, 
                -0.029196349903941154, 
                0.08838813751935959, 
                0.06032846122980118, 
                0.02011687122285366, 
                0.18385832011699677, 
                -0.13877934217453003, 
                -0.04220441356301308, 
                0.0006978146848268807, 
                0.037271853536367416, 
                0.007598779629915953, 
                0.008072094060480595, 
                0.05878876522183418, 
                -0.10206151008605957, 
                0.08186907321214676, 
                -0.04192851856350899, 
                -0.024470580741763115, 
                -0.010510829277336597, 
                -0.022450394928455353, 
                -0.07385808229446411, 
                -0.005389945115894079, 
                -0.10141616314649582, 
                0.06517445296049118, 
                0.1305616796016693, 
                -0.11887700855731964, 
                -0.08537077158689499, 
                0.10876438766717911, 
                0.1198815107345581, 
                0.03741345927119255, 
                -0.010329238139092922, 
                0.054769039154052734, 
                -0.06550397723913193, 
                0.0636034682393074, 
                -0.0048333327285945415, 
                0.08402165025472641, 
                0.07594006508588791, 
                0.11588489264249802, 
                0.005324936006218195, 
                -0.1602700799703598, 
                -0.0018581468611955643, 
                -0.12785431742668152, 
                0.001587385660968721, 
                0.08655450493097305, 
                0.1025177612900734, 
                0.03333505615592003, 
                -0.10434108972549438, 
                -0.07411377131938934, 
                -0.0022893226705491543, 
                0.14819815754890442, 
                0.16546396911144257, 
                0.05919076129794121, 
                -0.1967928409576416, 
                0.0822722390294075, 
                0.06682216376066208, 
                -0.009131941944360733, 
                0.08475121110677719, 
                0.05498693138360977, 
                0.00410672789439559, 
                0.08357816934585571, 
                0.16687551140785217, 
                0.01453541498631239, 
                0.1617099940776825, 
                0.09116597473621368, 
                0.15227681398391724, 
                -0.08022724092006683, 
                0.007998487912118435, 
                -0.1335359513759613, 
                0.038549549877643585, 
                0.04248810559511185, 
                -0.08316290378570557, 
                0.03932558745145798, 
                -0.09180931001901627, 
                0.14529277384281158, 
                0.1328231543302536, 
                -0.1504252701997757, 
                0.003319698618724942, 
                -0.0947314128279686, 
                -0.171986922621727
            ], 
            [
                -0.08452939242124557, 
                -0.0947035402059555, 
                0.10428942739963531, 
                -0.025868674740195274, 
                0.13648490607738495, 
                0.06145355850458145, 
                -0.07595740258693695, 
                -0.0968746691942215, 
                0.027755165472626686, 
                -0.029146259650588036, 
                -0.0001936158223543316, 
                -0.05451623722910881, 
                0.03157892823219299, 
                -0.06477407366037369, 
                0.14737875759601593, 
                0.09159482270479202, 
                0.04686979204416275, 
                -0.06801599264144897, 
                -0.07565899193286896, 
                -0.11748854070901871, 
                0.13170126080513, 
                -0.027880752459168434, 
                0.05337454006075859, 
                -0.07701107114553452, 
                0.16515184938907623, 
                0.009580601938068867, 
                -0.09712208807468414, 
                -0.07350187003612518, 
                0.14513078331947327, 
                0.11981840431690216, 
                -0.050982147455215454, 
                -0.016076384112238884, 
                0.0734240710735321, 
                -0.06864259392023087, 
                -0.07548292726278305, 
                0.0236672293394804, 
                -0.11967592686414719, 
                0.15331637859344482, 
                -0.01966002956032753, 
                0.08135704696178436, 
                0.011236032471060753, 
                0.0826326459646225, 
                0.06066066771745682, 
                -0.10251069068908691, 
                -0.05611506849527359, 
                -0.07855723798274994, 
                -0.016918223351240158, 
                0.10861585289239883, 
                -0.17867451906204224, 
                0.09674821048974991, 
                -0.09544634073972702, 
                0.0584796667098999, 
                -0.05956485494971275, 
                0.06057408079504967, 
                -0.02874145470559597, 
                0.0557662732899189, 
                -0.12180783599615097, 
                -0.007848894223570824, 
                0.01474280096590519, 
                -0.06256957352161407, 
                0.011892734095454216, 
                0.025289205834269524, 
                -0.00996660627424717, 
                0.09668674319982529, 
                -0.039976637810468674, 
                -0.014819914475083351, 
                0.010494004935026169, 
                0.046747464686632156, 
                -0.014996187761425972, 
                0.11404850333929062, 
                0.02524396777153015, 
                -0.18380288779735565, 
                0.048692140728235245, 
                -0.11666219681501389, 
                0.08253330737352371, 
                0.0456361323595047, 
                -0.09010158479213715, 
                -0.055273640900850296, 
                0.022442711517214775, 
                0.06700067967176437, 
                -0.19988469779491425, 
                -0.014123287983238697, 
                0.007512045558542013, 
                -0.11139631271362305, 
                0.0838131308555603, 
                -0.06187201663851738, 
                0.014467069879174232, 
                -0.014772005379199982, 
                0.04253053665161133, 
                0.061590541154146194, 
                -0.04697386547923088, 
                0.08119862526655197, 
                -0.09424754977226257, 
                0.10869618505239487, 
                -0.14438846707344055, 
                0.14037151634693146, 
                -0.1159064918756485, 
                0.03901871666312218, 
                0.027811646461486816, 
                -0.14022094011306763
            ], 
            [
                -0.15491394698619843, 
                -0.0011884216219186783, 
                -0.049811262637376785, 
                0.04328736290335655, 
                0.1761118620634079, 
                -0.016674598678946495, 
                -0.19063223898410797, 
                -0.08613792806863785, 
                -0.013705124147236347, 
                0.15535877645015717, 
                0.10194899141788483, 
                0.11584623157978058, 
                0.018519045785069466, 
                0.09072371572256088, 
                0.020765071734786034, 
                0.05137769505381584, 
                0.010161072947084904, 
                -0.004454464185982943, 
                0.12364929914474487, 
                -0.0304714385420084, 
                -0.12720473110675812, 
                0.04258666932582855, 
                -0.14023005962371826, 
                -0.037796925753355026, 
                -0.030072340741753578, 
                -0.1216927319765091, 
                -0.005558446981012821, 
                -0.17454446852207184, 
                0.024845074862241745, 
                0.04698936268687248, 
                -0.07222307473421097, 
                0.06571313738822937, 
                0.09682392328977585, 
                -0.07161209732294083, 
                -0.17450392246246338, 
                -0.1477852165699005, 
                0.05461493879556656, 
                -0.07329516857862473, 
                0.1266973465681076, 
                0.024091986939311028, 
                0.015475708059966564, 
                0.13620857894420624, 
                0.00811233650892973, 
                -0.08521456271409988, 
                0.08213387429714203, 
                -0.0500941276550293, 
                -0.10725068300962448, 
                -0.11465445905923843, 
                -0.029203398153185844, 
                -0.004224918317049742, 
                0.027327051386237144, 
                0.062396835535764694, 
                -0.008303359150886536, 
                0.035943206399679184, 
                0.04695373401045799, 
                -0.13435699045658112, 
                0.09836822748184204, 
                0.03225909546017647, 
                0.08074229955673218, 
                0.023567207157611847, 
                0.007463309448212385, 
                -0.027299804612994194, 
                0.014929644763469696, 
                0.1511954516172409, 
                0.04577386751770973, 
                0.03643782064318657, 
                0.006847264710813761, 
                -0.12290475517511368, 
                0.10400862991809845, 
                -0.16423773765563965, 
                -0.08514928817749023, 
                0.060403794050216675, 
                -0.1352470964193344, 
                0.15896986424922943, 
                -0.06339006870985031, 
                0.07137492299079895, 
                -0.0009443205199204385, 
                -0.18480147421360016, 
                0.054888952523469925, 
                0.06702248007059097, 
                0.025449473410844803, 
                -0.03641953691840172, 
                0.08498187363147736, 
                0.07611454278230667, 
                -0.12239616364240646, 
                0.09248950332403183, 
                -0.002649277448654175, 
                -0.08323638886213303, 
                0.02605888806283474, 
                0.010230585001409054, 
                -0.1389007419347763, 
                -0.05733279511332512, 
                -0.13017486035823822, 
                0.17692653834819794, 
                -0.09611127525568008, 
                -0.055925704538822174, 
                -0.027182256802916527, 
                0.07059567421674728, 
                -0.1161644384264946, 
                -0.12554560601711273
            ], 
            [
                0.010999882593750954, 
                0.15502133965492249, 
                0.15114760398864746, 
                0.007544205989688635, 
                0.03519720211625099, 
                -0.05612549930810928, 
                0.08787909895181656, 
                0.013081848621368408, 
                -0.1260838359594345, 
                0.0837235301733017, 
                -0.017690567299723625, 
                -0.18415194749832153, 
                0.005574735347181559, 
                -0.012640624307096004, 
                0.006602711509913206, 
                -0.14565423130989075, 
                0.16698889434337616, 
                0.07896578311920166, 
                0.09319950640201569, 
                -0.044674914330244064, 
                0.15550298988819122, 
                -0.05770543962717056, 
                -0.07994585484266281, 
                -0.1356705129146576, 
                0.028448287397623062, 
                0.12497581541538239, 
                -0.06328483670949936, 
                -0.03090130165219307, 
                -0.010712554678320885, 
                -0.0664917454123497, 
                0.053957171738147736, 
                0.018442073836922646, 
                -0.11996572464704514, 
                0.06382749229669571, 
                -0.007956057786941528, 
                0.06717856973409653, 
                0.030364248901605606, 
                0.03825419396162033, 
                0.030773749575018883, 
                -0.06543514877557755, 
                -0.13609836995601654, 
                0.12144023180007935, 
                0.07011783123016357, 
                0.0639062449336052, 
                -0.18079160153865814, 
                -0.11155416071414948, 
                -0.13089081645011902, 
                0.04444687440991402, 
                0.03372569382190704, 
                -0.012853115797042847, 
                0.06942904740571976, 
                -0.06429006159305573, 
                0.004666242282837629, 
                -0.026239067316055298, 
                -0.013310487382113934, 
                -0.01742461882531643, 
                0.18964247405529022, 
                -0.05513453111052513, 
                0.006523456424474716, 
                0.023609749972820282, 
                -0.0512438528239727, 
                -0.01999952457845211, 
                0.02271331287920475, 
                0.02316361293196678, 
                0.019509248435497284, 
                -0.06891676038503647, 
                0.05956386402249336, 
                -0.012547502294182777, 
                -0.07367540150880814, 
                -0.002623226959258318, 
                0.055573999881744385, 
                0.07988294959068298, 
                0.05516591668128967, 
                -0.07610411942005157, 
                0.08426815271377563, 
                -0.029150336980819702, 
                0.16809259355068207, 
                0.11594456434249878, 
                -0.17468547821044922, 
                -0.04223388060927391, 
                0.03118135593831539, 
                0.04055742546916008, 
                0.061063479632139206, 
                -0.16324551403522491, 
                0.18553952872753143, 
                0.035214658826589584, 
                -0.04807237908244133, 
                0.0804242342710495, 
                0.028954872861504555, 
                0.1515611708164215, 
                -0.04247696325182915, 
                0.11396946758031845, 
                -0.027243316173553467, 
                -0.014279021881520748, 
                0.13434317708015442, 
                -0.006886356510221958, 
                -0.03753427788615227, 
                0.04521004110574722, 
                -0.07175011187791824, 
                -0.08869956433773041
            ], 
            [
                0.10802248865365982, 
                -0.005624623503535986, 
                -0.013074924238026142, 
                0.15063948929309845, 
                0.06799473613500595, 
                -0.07099420577287674, 
                0.01472532469779253, 
                -0.11404772847890854, 
                0.05472405627369881, 
                -0.019179340451955795, 
                0.0867193341255188, 
                -0.06952421367168427, 
                0.03871121630072594, 
                -0.07122096419334412, 
                -0.06534887850284576, 
                -0.0674377828836441, 
                0.03499053418636322, 
                0.10496018081903458, 
                -0.08191493153572083, 
                -0.15584759414196014, 
                0.002122272504493594, 
                0.16183476150035858, 
                -0.011438576504588127, 
                0.15198653936386108, 
                0.11146026849746704, 
                0.0816754549741745, 
                -0.056099336594343185, 
                0.02143103815615177, 
                -0.01522953249514103, 
                -0.0811174288392067, 
                0.12286551296710968, 
                0.04152682051062584, 
                -0.06375937908887863, 
                0.10823611170053482, 
                0.10797975212335587, 
                -0.09589750319719315, 
                -0.1288331300020218, 
                -0.10725700855255127, 
                0.003529321402311325, 
                -0.18863683938980103, 
                0.09463110566139221, 
                0.048131491988897324, 
                -0.08006303012371063, 
                0.00752050569280982, 
                0.021084319800138474, 
                -0.028786176815629005, 
                0.07252934575080872, 
                0.0030279054772108793, 
                -0.07616675645112991, 
                0.03512997552752495, 
                -0.08321250975131989, 
                0.07854396104812622, 
                -0.08456991612911224, 
                -0.008996011689305305, 
                0.058169979602098465, 
                -0.03624602034687996, 
                0.04168218374252319, 
                -0.015012703835964203, 
                -0.04309403523802757, 
                0.01775464229285717, 
                0.0055138724856078625, 
                -0.07753562927246094, 
                -0.06363308429718018, 
                -0.016725890338420868, 
                0.08742044866085052, 
                -0.08841018378734589, 
                0.11468017101287842, 
                0.11769755929708481, 
                0.03162900358438492, 
                0.09969241172075272, 
                0.020625468343496323, 
                0.010802499949932098, 
                0.035681478679180145, 
                0.06903783231973648, 
                0.003707724856212735, 
                -0.0010306660551577806, 
                0.11248937994241714, 
                0.06578308343887329, 
                0.07259490340948105, 
                0.09794957935810089, 
                0.07593107968568802, 
                0.006043170113116503, 
                -0.0943220779299736, 
                0.0028927018865942955, 
                -0.004020573105663061, 
                -0.038753263652324677, 
                -0.1278374046087265, 
                0.016434339806437492, 
                -0.045541368424892426, 
                -0.08257519453763962, 
                0.05302149057388306, 
                0.0062375618144869804, 
                0.009511279873549938, 
                0.024872012436389923, 
                0.03397737815976143, 
                -0.05269742012023926, 
                -0.009504670277237892, 
                0.058051783591508865, 
                0.034197885543107986, 
                0.11171398311853409
            ], 
            [
                0.08808520436286926, 
                0.06678309291601181, 
                0.07253225892782211, 
                0.18281880021095276, 
                -0.042635321617126465, 
                0.11158549040555954, 
                -0.026270141825079918, 
                0.08060408383607864, 
                -0.10440677404403687, 
                -0.04196227341890335, 
                -0.16907136142253876, 
                0.07166887074708939, 
                -0.04496905207633972, 
                -0.10492954403162003, 
                0.025487473234534264, 
                0.10973190516233444, 
                0.05597782880067825, 
                0.026286441832780838, 
                0.05818920210003853, 
                0.1312960833311081, 
                0.1887889802455902, 
                -0.01165231317281723, 
                -0.0703478753566742, 
                0.09387388825416565, 
                -0.12716130912303925, 
                -0.08100900053977966, 
                0.07385282963514328, 
                -0.13374361395835876, 
                0.006988623179495335, 
                0.0828806683421135, 
                0.04595911502838135, 
                0.019893305376172066, 
                -0.08974318951368332, 
                -0.06628789007663727, 
                1.9194949345546775e-05, 
                0.12561987340450287, 
                -0.10414143651723862, 
                -0.044620197266340256, 
                0.03188885375857353, 
                0.15108123421669006, 
                0.06739220023155212, 
                -0.15272454917430878, 
                -0.01990954950451851, 
                -0.057183511555194855, 
                0.13781775534152985, 
                0.1053306832909584, 
                0.08494063466787338, 
                -0.09199003130197525, 
                -0.028530960902571678, 
                -0.08838813751935959, 
                -0.058457132428884506, 
                -0.16259615123271942, 
                0.04432683065533638, 
                -0.032609861344099045, 
                -0.015951406210660934, 
                -0.02830353192985058, 
                0.01401684619486332, 
                -0.16850534081459045, 
                0.05878416821360588, 
                0.10733262449502945, 
                0.03710755333304405, 
                0.04467290639877319, 
                0.053463757038116455, 
                0.07269736379384995, 
                0.05676144361495972, 
                -0.10272400826215744, 
                0.10011965036392212, 
                0.09256812185049057, 
                0.030465105548501015, 
                0.15019141137599945, 
                0.011675146408379078, 
                0.15996389091014862, 
                0.1814604252576828, 
                0.11574431508779526, 
                0.09092587977647781, 
                -0.11120851337909698, 
                0.09867292642593384, 
                0.011702291667461395, 
                -0.024226343259215355, 
                0.07550379633903503, 
                -0.1741025298833847, 
                0.014519861899316311, 
                -0.09669671207666397, 
                0.07828489691019058, 
                0.11376645416021347, 
                0.19071541726589203, 
                -0.13908058404922485, 
                -0.033424120396375656, 
                -0.11685662716627121, 
                -0.066848985850811, 
                0.06468316912651062, 
                -0.07882364839315414, 
                0.003467120695859194, 
                -0.016500329598784447, 
                -0.11098750680685043, 
                -0.10308121889829636, 
                -0.15436606109142303, 
                -0.1322883516550064, 
                0.18750828504562378, 
                -0.17952923476696014
            ], 
            [
                -0.10620351880788803, 
                0.09779494255781174, 
                0.06508719176054001, 
                -0.09615179151296616, 
                0.09938236325979233, 
                0.020264267921447754, 
                -0.015340073965489864, 
                -0.051212430000305176, 
                0.00793540757149458, 
                0.054353922605514526, 
                -0.015081115067005157, 
                0.041087426245212555, 
                0.11484318226575851, 
                0.0726359412074089, 
                -0.020235266536474228, 
                -0.022247115150094032, 
                -0.09731036424636841, 
                0.11473261564970016, 
                0.03435105085372925, 
                -0.05938304215669632, 
                -0.005733516998589039, 
                0.09813814610242844, 
                0.09795057773590088, 
                0.10920895636081696, 
                -0.17578017711639404, 
                0.08781985193490982, 
                -0.06694375723600388, 
                -0.1171916276216507, 
                0.05159777030348778, 
                0.06903446465730667, 
                -0.14757750928401947, 
                0.08382253348827362, 
                0.09547057002782822, 
                -0.001858035451732576, 
                0.1286477893590927, 
                0.03281078115105629, 
                -0.010783165693283081, 
                0.17498600482940674, 
                -0.029244909062981606, 
                -0.05730993300676346, 
                0.10166215896606445, 
                0.07194920629262924, 
                0.15451987087726593, 
                -0.04049907252192497, 
                -0.06932473927736282, 
                0.021966442465782166, 
                0.05481962114572525, 
                -0.097354456782341, 
                0.09637138247489929, 
                0.08827358484268188, 
                -0.03487425670027733, 
                0.11133291572332382, 
                0.05347256734967232, 
                0.0858563706278801, 
                -0.11317898333072662, 
                -0.05638539791107178, 
                -0.11869704723358154, 
                0.07908805459737778, 
                0.1269097477197647, 
                0.07396633923053741, 
                0.06012523174285889, 
                0.014157028868794441, 
                -0.10400992631912231, 
                0.06510144472122192, 
                -0.07625534385442734, 
                -0.028597136959433556, 
                -0.031178271397948265, 
                -0.02519615925848484, 
                0.03935490921139717, 
                0.007538600359112024, 
                -0.15684644877910614, 
                0.17529138922691345, 
                0.09092967212200165, 
                0.08514724671840668, 
                -0.010516892187297344, 
                0.08880571275949478, 
                0.039471711963415146, 
                -0.04048749804496765, 
                -0.074102982878685, 
                0.1482732743024826, 
                -0.12950903177261353, 
                0.09918950498104095, 
                0.018628858029842377, 
                -0.18129169940948486, 
                0.04989103600382805, 
                -0.030159151181578636, 
                -0.11125679314136505, 
                -0.06957381218671799, 
                0.12940211594104767, 
                -0.04850390926003456, 
                0.048467230051755905, 
                -0.07518451660871506, 
                0.04293357580900192, 
                -0.054799772799015045, 
                0.06361137330532074, 
                0.014342074282467365, 
                -0.12130217999219894, 
                -0.012425560504198074, 
                -0.10330042988061905, 
                0.060410626232624054
            ], 
            [
                -0.035788167268037796, 
                0.11092903465032578, 
                0.021796582266688347, 
                0.08450212329626083, 
                -0.17838869988918304, 
                -0.10978078842163086, 
                -0.08763844519853592, 
                -0.016360288485884666, 
                0.19054588675498962, 
                -0.055692799389362335, 
                0.1950613111257553, 
                0.029172971844673157, 
                8.569435885874555e-05, 
                0.0929403007030487, 
                -0.010245416313409805, 
                0.020131699740886688, 
                0.04725399613380432, 
                0.08835713565349579, 
                0.12137588113546371, 
                -0.1940159648656845, 
                -0.19738377630710602, 
                -0.022917767986655235, 
                0.05225234106183052, 
                0.061109114438295364, 
                -0.04395570233464241, 
                0.070777527987957, 
                0.039775341749191284, 
                -0.024638960137963295, 
                -0.00518145551905036, 
                -0.09286731481552124, 
                -0.12217190116643906, 
                0.010700377635657787, 
                -0.08839454501867294, 
                -0.05361340567469597, 
                0.1498531848192215, 
                0.10150561481714249, 
                0.14937882125377655, 
                -0.14535477757453918, 
                -0.034368306398391724, 
                -0.01850503496825695, 
                0.014554466120898724, 
                -0.0305597186088562, 
                0.17460466921329498, 
                -0.15288172662258148, 
                -0.06518857926130295, 
                0.02852936089038849, 
                -0.007715694140642881, 
                0.18937338888645172, 
                0.11463910341262817, 
                -0.17782029509544373, 
                -0.00460050767287612, 
                -0.003685715375468135, 
                0.0659308210015297, 
                0.12040743976831436, 
                -0.11418813467025757, 
                -0.1399129033088684, 
                -0.07491971552371979, 
                -0.0370684415102005, 
                0.052229542285203934, 
                -0.08481283485889435, 
                -0.004403449594974518, 
                0.006516528315842152, 
                -0.002156028291210532, 
                -0.03291136771440506, 
                0.19789618253707886, 
                -0.08040422201156616, 
                0.04105282202363014, 
                0.006627508904784918, 
                -0.02562885917723179, 
                0.12156268209218979, 
                -0.06710212677717209, 
                0.027375847101211548, 
                -0.05002767592668533, 
                0.08760279417037964, 
                -0.0006109332898631692, 
                0.01248894166201353, 
                -0.03817887604236603, 
                0.13408195972442627, 
                0.15781867504119873, 
                -0.04931819066405296, 
                -0.08420369029045105, 
                0.002424131613224745, 
                0.11658566445112228, 
                -0.1856200098991394, 
                0.02398770861327648, 
                -0.1291855424642563, 
                -0.023635519668459892, 
                -0.034098174422979355, 
                0.01933365873992443, 
                0.07430967688560486, 
                -0.06966868788003922, 
                -0.03846023231744766, 
                0.13604514300823212, 
                0.05005115270614624, 
                0.025714455172419548, 
                -0.003243653802201152, 
                0.010688050650060177, 
                0.02298912964761257, 
                0.0984698086977005, 
                0.004897903185337782
            ], 
            [
                -0.009373950771987438, 
                -0.04115123301744461, 
                0.03581361845135689, 
                0.012952770106494427, 
                -0.07042217999696732, 
                0.06863611936569214, 
                0.025714343413710594, 
                0.04882928356528282, 
                -0.0027977863792330027, 
                0.02675853669643402, 
                -0.025013232603669167, 
                -0.027455810457468033, 
                -0.06294751167297363, 
                0.03350226208567619, 
                -0.08213814347982407, 
                0.05054933950304985, 
                0.12598218023777008, 
                -0.11739888042211533, 
                -0.12028243392705917, 
                0.02210691198706627, 
                -0.06321552395820618, 
                0.016670119017362595, 
                -0.06580814719200134, 
                0.07375840842723846, 
                0.15068009495735168, 
                -0.052548617124557495, 
                0.17723536491394043, 
                -0.1633760631084442, 
                0.060381513088941574, 
                0.08646457642316818, 
                0.12771384418010712, 
                0.004793922416865826, 
                -0.021826906129717827, 
                -0.03627912327647209, 
                0.06467074900865555, 
                -0.07487617433071136, 
                -0.1551457643508911, 
                -0.005321932956576347, 
                0.12285720556974411, 
                -0.034866612404584885, 
                -0.09876175224781036, 
                0.047004278749227524, 
                -0.035532306879758835, 
                -0.00487114442512393, 
                0.07322186976671219, 
                -0.18428513407707214, 
                0.04467826709151268, 
                -0.01475747860968113, 
                0.021509407088160515, 
                0.0016866736114025116, 
                -0.10285384953022003, 
                -0.08214254677295685, 
                0.06281998753547668, 
                0.035157930105924606, 
                0.008347759954631329, 
                0.06105241924524307, 
                0.030412256717681885, 
                0.137699156999588, 
                0.009537369944155216, 
                -0.1554545909166336, 
                -0.1716122031211853, 
                -0.01885174959897995, 
                -0.0840490534901619, 
                -0.041403722018003464, 
                -0.07607948780059814, 
                0.10510028898715973, 
                -0.04759617894887924, 
                0.08043774962425232, 
                -0.04204524680972099, 
                -0.0511234775185585, 
                -0.06060832366347313, 
                0.03825796768069267, 
                -0.05978913977742195, 
                -0.047263097018003464, 
                0.02776733972132206, 
                0.11568812280893326, 
                0.010577782057225704, 
                -0.09648724645376205, 
                -0.011157509870827198, 
                -0.18757160007953644, 
                0.12939238548278809, 
                0.01014911662787199, 
                -0.09472532570362091, 
                -0.056205492466688156, 
                -0.08877766132354736, 
                -0.039797842502593994, 
                0.17956821620464325, 
                0.0185403972864151, 
                0.07222563773393631, 
                -0.1191379651427269, 
                0.06558503955602646, 
                -0.0925971195101738, 
                0.11595423519611359, 
                -0.1890992969274521, 
                -0.04160754010081291, 
                -0.1599905639886856, 
                -0.006088094785809517, 
                0.06496114283800125, 
                -0.02453645132482052, 
                0.0009482332388870418
            ], 
            [
                0.09326114505529404, 
                -0.10028308629989624, 
                -0.11056900024414062, 
                -0.024289147928357124, 
                -0.19999583065509796, 
                -0.14906933903694153, 
                0.11943148821592331, 
                0.04409351572394371, 
                0.12399635463953018, 
                -0.15659596025943756, 
                -0.0730852335691452, 
                -0.010666846297681332, 
                -0.05291655287146568, 
                -0.12090685218572617, 
                0.057011574506759644, 
                -0.14252881705760956, 
                -0.12054707854986191, 
                0.07189454138278961, 
                -0.07002782076597214, 
                0.09655307978391647, 
                -0.13565973937511444, 
                0.1375775784254074, 
                0.09515297412872314, 
                -0.03818827122449875, 
                0.17832206189632416, 
                0.16275440156459808, 
                0.1304074227809906, 
                0.043978262692689896, 
                -0.09487571567296982, 
                -0.11744812875986099, 
                -0.07772719115018845, 
                0.023860013112425804, 
                -0.03633566573262215, 
                -0.04565548524260521, 
                -0.0920526534318924, 
                -0.007869020104408264, 
                0.08886941522359848, 
                -0.030057677999138832, 
                0.08266061544418335, 
                -0.1418743133544922, 
                0.041818875819444656, 
                -0.09025069326162338, 
                0.012057325802743435, 
                -0.11151742935180664, 
                0.02818349562585354, 
                -0.02066180855035782, 
                0.10633283108472824, 
                0.02342313714325428, 
                0.09264087677001953, 
                0.1678074449300766, 
                -0.057553913444280624, 
                -0.13867326080799103, 
                0.0059814718551933765, 
                -0.10521107167005539, 
                -0.011172897182404995, 
                0.0018031018553301692, 
                0.04099094495177269, 
                0.08798521757125854, 
                0.1685485541820526, 
                -0.0879255011677742, 
                -0.008380170911550522, 
                0.09057735651731491, 
                -0.04400429502129555, 
                0.08314397186040878, 
                0.03427816927433014, 
                0.09341400861740112, 
                -0.097236268222332, 
                0.04649592563509941, 
                0.1505631059408188, 
                -0.0836489126086235, 
                0.010244447737932205, 
                0.03775351494550705, 
                -0.024497084319591522, 
                0.0786440297961235, 
                -0.04888470098376274, 
                -0.04265275225043297, 
                0.0032389138359576464, 
                0.07584300637245178, 
                -0.12010987102985382, 
                0.008727872744202614, 
                -0.0059425439685583115, 
                0.03544358164072037, 
                0.0023646510671824217, 
                0.035316478461027145, 
                0.06993256509304047, 
                0.058904826641082764, 
                0.025407761335372925, 
                -0.1549505889415741, 
                -0.04135708510875702, 
                0.0688505619764328, 
                -0.027421483770012856, 
                0.06176469475030899, 
                0.0852188915014267, 
                0.10614575445652008, 
                -0.04222304746508598, 
                -0.002854335820302367, 
                -0.12180592864751816, 
                -0.07012052834033966, 
                0.18806178867816925, 
                0.07514423131942749
            ], 
            [
                0.09214001148939133, 
                -0.11201313883066177, 
                0.10587873309850693, 
                -0.13446612656116486, 
                -0.011112786829471588, 
                0.16437576711177826, 
                0.07334107905626297, 
                0.10961011797189713, 
                -0.1273244023323059, 
                -0.11002103239297867, 
                -0.08041791617870331, 
                -0.04833579435944557, 
                0.020943211391568184, 
                -0.008203098550438881, 
                0.06610583513975143, 
                -0.008020501583814621, 
                0.000457308953627944, 
                -0.05329439789056778, 
                0.1484958380460739, 
                -0.02097141742706299, 
                -0.0816965103149414, 
                0.14885851740837097, 
                0.06791656464338303, 
                -0.12911061942577362, 
                -0.08244302123785019, 
                -0.02993830107152462, 
                -0.009035766124725342, 
                -0.13988225162029266, 
                -0.1038774624466896, 
                0.0011786313261836767, 
                -0.12352532148361206, 
                -0.005038747563958168, 
                -0.06171628460288048, 
                -0.02272285707294941, 
                0.023177729919552803, 
                -0.1377289742231369, 
                0.02260156162083149, 
                -0.16957181692123413, 
                0.03539066016674042, 
                0.05920795351266861, 
                -0.06982142478227615, 
                0.06133471056818962, 
                0.049795959144830704, 
                0.0007152332691475749, 
                0.13544969260692596, 
                -0.06080222129821777, 
                -0.061028797179460526, 
                -0.018799608573317528, 
                -0.04022742435336113, 
                -0.028726041316986084, 
                -0.10923021286725998, 
                0.015439395792782307, 
                -0.13361844420433044, 
                -0.009190255776047707, 
                -0.030401304364204407, 
                0.03507015109062195, 
                0.06909406185150146, 
                -0.05049128457903862, 
                0.12979909777641296, 
                0.012136722914874554, 
                0.009481613524258137, 
                -0.01856323704123497, 
                0.057561058551073074, 
                0.07022282481193542, 
                0.0015138606540858746, 
                -0.12703756988048553, 
                -0.08695030957460403, 
                -0.0044547440484166145, 
                0.011609029956161976, 
                -0.02374071069061756, 
                -0.11159135401248932, 
                -0.020807022228837013, 
                0.11034005880355835, 
                -0.0936054214835167, 
                0.1381746083498001, 
                0.04037940129637718, 
                -0.09113674610853195, 
                0.1526046246290207, 
                0.06173189356923103, 
                0.01630116067826748, 
                0.00943274237215519, 
                -0.013968844898045063, 
                -0.0473996140062809, 
                -0.05038757994771004, 
                -0.051083244383335114, 
                0.09954039007425308, 
                0.11369521915912628, 
                0.0876523107290268, 
                -0.11487627029418945, 
                0.1165999099612236, 
                0.05412566289305687, 
                0.06796439737081528, 
                -0.07139766216278076, 
                -0.05720795318484306, 
                -0.03449934720993042, 
                0.038153138011693954, 
                -0.08035894483327866, 
                0.1665867418050766, 
                0.05765775591135025, 
                0.07647942751646042
            ]
        ]
    }, 
    {
        "bias": [
            0.10000000149011612, 
            0.10000000149011612, 
            0.10000000149011612, 
            0.10000000149011612, 
            0.10000000149011612, 
            0.10000000149011612, 
            0.10000000149011612, 
            0.10000000149011612, 
            0.10000000149011612, 
            0.10000000149011612, 
            0.10000000149011612, 
            0.10000000149011612, 
            0.10000000149011612, 
            0.10000000149011612, 
            0.10000000149011612, 
            0.10000000149011612, 
            0.10000000149011612, 
            0.10000000149011612, 
            0.10000000149011612, 
            0.10000000149011612, 
            0.10000000149011612, 
            0.10000000149011612, 
            0.10000000149011612, 
            0.10000000149011612, 
            0.10000000149011612, 
            0.10000000149011612, 
            0.10000000149011612, 
            0.10000000149011612, 
            0.10000000149011612, 
            0.10000000149011612, 
            0.10000000149011612, 
            0.10000000149011612, 
            0.10000000149011612, 
            0.10000000149011612, 
            0.10000000149011612, 
            0.10000000149011612, 
            0.10000000149011612, 
            0.10000000149011612, 
            0.10000000149011612, 
            0.10000000149011612, 
            0.10000000149011612, 
            0.10000000149011612, 
            0.10000000149011612, 
            0.10000000149011612, 
            0.10000000149011612, 
            0.10000000149011612, 
            0.10000000149011612, 
            0.10000000149011612, 
            0.10000000149011612, 
            0.10000000149011612
        ], 
        "weights": [
            [
                -0.05480187013745308, 
                -0.042192671447992325, 
                0.08011399209499359, 
                -0.18864428997039795, 
                -0.10951507091522217, 
                0.0500531904399395, 
                0.10591799020767212, 
                -0.15628701448440552, 
                0.13319896161556244, 
                0.10587506741285324, 
                0.07498391717672348, 
                -0.10507762432098389, 
                0.03888843581080437, 
                -0.1740308254957199, 
                0.07387906312942505, 
                0.011856130324304104, 
                0.07961079478263855, 
                0.19048450887203217, 
                0.011085395701229572, 
                -0.08412231504917145, 
                0.1240701898932457, 
                0.05293546989560127, 
                -0.09981982409954071, 
                0.006881088949739933, 
                0.07640381902456284, 
                -0.15074490010738373, 
                -0.09628444910049438, 
                0.16025008261203766, 
                0.0488794669508934, 
                0.00934493076056242, 
                0.04236980900168419, 
                0.06293486803770065, 
                0.07771509140729904, 
                -0.08553992956876755, 
                -0.008789747022092342, 
                -0.10267472267150879, 
                0.07180961966514587, 
                0.04995137080550194, 
                -0.011736218817532063, 
                0.0007424766081385314, 
                -0.07957985997200012, 
                -0.06008109450340271, 
                0.08575611561536789, 
                0.1319253295660019, 
                0.13052956759929657, 
                0.11599638313055038, 
                0.03668026626110077, 
                0.03981311246752739, 
                -0.10466984659433365, 
                -0.017219888046383858
            ], 
            [
                0.17015135288238525, 
                0.08629781752824783, 
                0.05993209034204483, 
                -0.11308243125677109, 
                -0.0044434512965381145, 
                -0.04324924573302269, 
                -0.028349444270133972, 
                0.1003870889544487, 
                0.12058184295892715, 
                0.17999528348445892, 
                0.020609326660633087, 
                0.0367363803088665, 
                -0.1343543380498886, 
                -9.526200301479548e-05, 
                -0.062286145985126495, 
                0.13209885358810425, 
                0.042701978236436844, 
                -0.007193146739155054, 
                0.0439223013818264, 
                -0.04504404962062836, 
                -0.03623571619391441, 
                -0.06509770452976227, 
                0.08513452857732773, 
                0.121883325278759, 
                0.03483760729432106, 
                0.07690304517745972, 
                -0.043813128024339676, 
                -0.08402640372514725, 
                0.1511564701795578, 
                -0.01439357828348875, 
                0.019381385296583176, 
                0.0074135721661150455, 
                -0.19365079700946808, 
                -0.10348308086395264, 
                -0.022708073258399963, 
                0.09940168261528015, 
                -0.01684636063873768, 
                0.0982963964343071, 
                0.0032648243941366673, 
                -0.09722607582807541, 
                0.06801710277795792, 
                0.03503955155611038, 
                -0.06641804426908493, 
                0.04417991265654564, 
                -0.19284303486347198, 
                0.012072472833096981, 
                0.1542850285768509, 
                -0.026649458333849907, 
                0.13213124871253967, 
                -0.02265637181699276
            ], 
            [
                -0.1945822685956955, 
                0.10732860863208771, 
                -0.19805167615413666, 
                -0.07346156239509583, 
                0.09155673533678055, 
                -0.0067796953953802586, 
                0.0318572036921978, 
                0.15815262496471405, 
                0.05106322839856148, 
                -0.11212599277496338, 
                -0.019689567387104034, 
                0.028059905394911766, 
                -0.10378339141607285, 
                0.0038328387308865786, 
                0.09709944576025009, 
                0.0015523101901635528, 
                0.022294800728559494, 
                0.09534931182861328, 
                -0.13450050354003906, 
                0.06185567378997803, 
                -0.17028093338012695, 
                -0.04445924982428551, 
                0.0525737963616848, 
                0.14075176417827606, 
                0.05945700407028198, 
                -0.13720005750656128, 
                -0.12538738548755646, 
                -0.03636877238750458, 
                0.024838058277964592, 
                -0.06286654621362686, 
                0.12707118690013885, 
                0.1976708322763443, 
                0.08839862048625946, 
                -0.04078821465373039, 
                -0.055418550968170166, 
                0.12772352993488312, 
                0.15714441239833832, 
                0.04758749529719353, 
                0.010885979048907757, 
                0.1716064065694809, 
                -0.14761407673358917, 
                0.15791891515254974, 
                0.061543889343738556, 
                0.03701711818575859, 
                0.015766991302371025, 
                -0.11810793727636337, 
                0.017203984782099724, 
                -0.08061448484659195, 
                -0.05384913086891174, 
                0.1174529567360878
            ], 
            [
                0.014184621162712574, 
                -0.010668731294572353, 
                -0.13879500329494476, 
                -0.08951656520366669, 
                -0.05916684493422508, 
                -0.060125984251499176, 
                -0.1317548304796219, 
                -0.025185484439134598, 
                -0.15626703202724457, 
                0.015903007239103317, 
                -0.12663382291793823, 
                0.013111049309372902, 
                -0.027202514931559563, 
                -0.03236931189894676, 
                -0.019013186916708946, 
                -0.198704794049263, 
                -0.16478516161441803, 
                0.09209351986646652, 
                0.09803035855293274, 
                0.020751960575580597, 
                -0.1822623610496521, 
                -0.062147121876478195, 
                0.03222384676337242, 
                0.03417624533176422, 
                0.024792751297354698, 
                -0.0706067904829979, 
                -0.10694984346628189, 
                -0.002791785402223468, 
                0.0005094368825666606, 
                -0.02257135510444641, 
                -0.13797558844089508, 
                -0.044489093124866486, 
                0.02065986581146717, 
                0.01695798896253109, 
                -0.01751076616346836, 
                0.018662646412849426, 
                -0.10690873116254807, 
                0.013416389003396034, 
                0.15094171464443207, 
                0.10605686902999878, 
                -0.0465417355298996, 
                -0.06575995683670044, 
                -0.10131330788135529, 
                0.020250078290700912, 
                -0.09664027392864227, 
                -0.08699316531419754, 
                -0.01647084578871727, 
                0.03532622009515762, 
                0.07724351435899734, 
                0.16891250014305115
            ], 
            [
                -0.1251409947872162, 
                -0.019561974331736565, 
                0.012989751994609833, 
                0.011812608689069748, 
                -0.008372592739760876, 
                -0.008159724995493889, 
                -0.10109169781208038, 
                -0.0870608389377594, 
                -0.027043720707297325, 
                0.0044225482270121574, 
                0.09852565824985504, 
                -0.06504339724779129, 
                0.15075351297855377, 
                -0.03817354142665863, 
                0.08638159185647964, 
                0.12902170419692993, 
                -0.09239139407873154, 
                0.05171681195497513, 
                -0.14073418080806732, 
                0.07941444963216782, 
                0.023603223264217377, 
                0.0662975162267685, 
                -0.12719407677650452, 
                0.11104066669940948, 
                0.12748165428638458, 
                -0.05479111149907112, 
                0.15596269071102142, 
                0.05588775873184204, 
                0.027035916224122047, 
                -0.04480045661330223, 
                -0.06337794661521912, 
