[
    {
        "bias": [
            0.10000000149011612, 
            0.10000000149011612, 
            0.10000000149011612, 
            0.10000000149011612, 
            0.10000000149011612, 
            0.10000000149011612, 
            0.10000000149011612, 
            0.10000000149011612, 
            0.10000000149011612, 
            0.10000000149011612, 
            0.10000000149011612, 
            0.10000000149011612, 
            0.10000000149011612, 
            0.10000000149011612, 
            0.10000000149011612, 
            0.10000000149011612, 
            0.10000000149011612, 
            0.10000000149011612, 
            0.10000000149011612, 
            0.10000000149011612, 
            0.10000000149011612, 
            0.10000000149011612, 
            0.10000000149011612, 
            0.10000000149011612, 
            0.10000000149011612, 
            0.10000000149011612, 
            0.10000000149011612, 
            0.10000000149011612, 
            0.10000000149011612, 
            0.10000000149011612, 
            0.10000000149011612, 
            0.10000000149011612, 
            0.10000000149011612, 
            0.10000000149011612, 
            0.10000000149011612, 
            0.10000000149011612, 
            0.10000000149011612, 
            0.10000000149011612, 
            0.10000000149011612, 
            0.10000000149011612, 
            0.10000000149011612, 
            0.10000000149011612, 
            0.10000000149011612, 
            0.10000000149011612, 
            0.10000000149011612, 
            0.10000000149011612, 
            0.10000000149011612, 
            0.10000000149011612, 
            0.10000000149011612, 
            0.10000000149011612, 
            0.10000000149011612, 
            0.10000000149011612, 
            0.10000000149011612, 
            0.10000000149011612, 
            0.10000000149011612, 
            0.10000000149011612, 
            0.10000000149011612, 
            0.10000000149011612, 
            0.10000000149011612, 
            0.10000000149011612, 
            0.10000000149011612, 
            0.10000000149011612, 
            0.10000000149011612, 
            0.10000000149011612, 
            0.10000000149011612, 
            0.10000000149011612, 
            0.10000000149011612, 
            0.10000000149011612, 
            0.10000000149011612, 
            0.10000000149011612, 
            0.10000000149011612, 
            0.10000000149011612, 
            0.10000000149011612, 
            0.10000000149011612, 
            0.10000000149011612, 
            0.10000000149011612, 
            0.10000000149011612, 
            0.10000000149011612, 
            0.10000000149011612, 
            0.10000000149011612, 
            0.10000000149011612, 
            0.10000000149011612, 
            0.10000000149011612, 
            0.10000000149011612, 
            0.10000000149011612, 
            0.10000000149011612, 
            0.10000000149011612, 
            0.10000000149011612, 
            0.10000000149011612, 
            0.10000000149011612, 
            0.10000000149011612, 
            0.10000000149011612, 
            0.10000000149011612, 
            0.10000000149011612, 
            0.10000000149011612, 
            0.10000000149011612, 
            0.10000000149011612, 
            0.10000000149011612, 
            0.10000000149011612, 
            0.10000000149011612
        ], 
        "weights": [
            [
                -0.055023301392793655, 
                0.07387508451938629, 
                0.018070271238684654, 
                -0.05805926397442818, 
                0.05358174070715904, 
                0.012543085031211376, 
                -0.004581740126013756, 
                0.0654233917593956, 
                -0.023364273831248283, 
                0.059481263160705566, 
                -0.033497150987386703, 
                0.08567898720502853, 
                -0.07169868797063828, 
                0.145339235663414, 
                0.0391521118581295, 
                0.015156181529164314, 
                -0.06332805752754211, 
                0.16565808653831482, 
                -0.15890635550022125, 
                -0.07943209260702133, 
                0.03627190366387367, 
                -0.010959896259009838, 
                -0.05090401694178581, 
                -0.012289955280721188, 
                0.05084743723273277, 
                0.07141958922147751, 
                -0.043829046189785004, 
                -0.03672908619046211, 
                0.08491581678390503, 
                0.010330370627343655, 
                0.03870527446269989, 
                0.16186456382274628, 
                0.1582717001438141, 
                0.1231909766793251, 
                0.18898245692253113, 
                0.13146881759166718, 
                -0.038139089941978455, 
                0.027852481231093407, 
                0.0244803037494421, 
                -0.10707445442676544, 
                0.04214198514819145, 
                0.01591215282678604, 
                0.1333853155374527, 
                0.13019712269306183, 
                -0.006595062557607889, 
                -0.08809908479452133, 
                0.006229498889297247, 
                -0.031958483159542084, 
                0.0088305389508605, 
                -0.08598673343658447, 
                0.015026615932583809, 
                0.1117873415350914, 
                -0.07582280784845352, 
                0.08125835657119751, 
                0.12746666371822357, 
                0.028203178197145462, 
                0.00979492999613285, 
                -0.07287603616714478, 
                -0.10522454231977463, 
                -0.02408197522163391, 
                -0.06088957190513611, 
                0.09522251039743423, 
                -0.006980036851018667, 
                -0.008656633086502552, 
                -0.012470527552068233, 
                0.16978152096271515, 
                0.16960711777210236, 
                -0.1621331423521042, 
                0.02772924117743969, 
                0.07027100771665573, 
                0.014033833518624306, 
                0.07812710851430893, 
                0.03558778017759323, 
                -0.10364357382059097, 
                0.19491083920001984, 
                0.1086810752749443, 
                0.023146314546465874, 
                -0.04207136854529381, 
                -0.06472945213317871, 
                -0.06744857132434845, 
                -0.016283033415675163, 
                0.024900145828723907, 
                -0.08437833935022354, 
                -0.0591520331799984, 
                -0.06013950705528259, 
                0.17362312972545624, 
                0.16385959088802338, 
                0.008372760377824306, 
                -0.10200764238834381, 
                -0.020190691575407982, 
                0.024149974808096886, 
                -0.13287879526615143, 
                -0.06852038949728012, 
                0.1785515397787094, 
                0.008359447121620178, 
                0.07443847507238388, 
                0.0028133844025433064, 
                -0.016122009605169296, 
                0.050040047615766525, 
                0.09387712925672531
            ], 
            [
                -0.018507694825530052, 
                -0.1614101082086563, 
                -0.021554455161094666, 
                0.12062232941389084, 
                0.0027433044742792845, 
                0.06179346516728401, 
                0.06608601659536362, 
                -0.009552300907671452, 
                -0.12285564094781876, 
                0.08577331155538559, 
                -0.1725616604089737, 
                0.025650355964899063, 
                0.10505910217761993, 
                0.006469459272921085, 
                -0.06874609738588333, 
                0.04951684549450874, 
                -0.041077978909015656, 
                -0.021461669355630875, 
                0.04631604999303818, 
                -0.021282782778143883, 
                0.023920683190226555, 
                0.07244446128606796, 
                0.11006643623113632, 
                -0.11242834478616714, 
                -0.0881974920630455, 
                -0.01669907011091709, 
                -0.1318160593509674, 
                0.08514954894781113, 
                -0.1803579479455948, 
                -0.06715225428342819, 
                0.14754053950309753, 
                0.061034321784973145, 
                0.007135577034205198, 
                0.06060997396707535, 
                -0.07601622492074966, 
                0.13862930238246918, 
                -0.007109301630407572, 
                0.04019560292363167, 
                -0.03816348686814308, 
                0.018527906388044357, 
                0.04444922134280205, 
                -0.035794999450445175, 
                -0.1786365509033203, 
                -0.11603058874607086, 
                -0.01670139841735363, 
                -0.038712065666913986, 
                0.0773639902472496, 
                0.031925324350595474, 
                -0.05656922608613968, 
                0.12351693212985992, 
                0.060216259211301804, 
                -0.039066899567842484, 
                -0.11869934946298599, 
                0.013734984211623669, 
                -0.0045209103263914585, 
                -0.07705963402986526, 
                -0.11793778091669083, 
                0.03569607809185982, 
                0.06872750073671341, 
                -0.013018401339650154, 
                0.10399322956800461, 
                0.12977157533168793, 
                -0.004758214112371206, 
                -0.028410855680704117, 
                0.15638558566570282, 
                0.13740496337413788, 
                -0.11958523094654083, 
                0.16853906214237213, 
                -0.019377034157514572, 
                0.14990542829036713, 
                -0.03664344921708107, 
                0.06493230909109116, 
                0.028413811698555946, 
                -0.1073530912399292, 
                0.09186475723981857, 
                -0.005197816528379917, 
                -0.02300449274480343, 
                0.16459941864013672, 
                0.14073628187179565, 
                -0.026521850377321243, 
                0.017092864960432053, 
                -0.03701046481728554, 
                0.19017183780670166, 
                -0.11234822124242783, 
                0.15754970908164978, 
                0.050190191715955734, 
                0.034306224435567856, 
                0.1595354676246643, 
                0.10394410043954849, 
                -0.031041422858834267, 
                0.006931752897799015, 
                -0.06037004664540291, 
                0.15087638795375824, 
                -0.016980420798063278, 
                -0.05330011248588562, 
                0.07734370231628418, 
                0.05516885593533516, 
                0.18682892620563507, 
                0.06296475231647491, 
                0.03492610901594162
            ], 
            [
                -0.0016139267245307565, 
                0.06292056292295456, 
                -0.10032790154218674, 
                0.041214875876903534, 
                0.0222385972738266, 
                -0.06162527948617935, 
                -0.0046727522276341915, 
                0.011877629905939102, 
                0.04275526478886604, 
                -0.02723788097500801, 
                -0.18296751379966736, 
                -0.04080192372202873, 
                0.0465247817337513, 
                -0.0494593121111393, 
                -0.1251186728477478, 
                0.08514639735221863, 
                0.105204276740551, 
                0.09514068067073822, 
                0.054642654955387115, 
                0.042867038398981094, 
                0.0963296964764595, 
                0.10558966547250748, 
                -0.14552854001522064, 
                0.0503925196826458, 
                0.06482511013746262, 
                -0.048514239490032196, 
                -0.1093902736902237, 
                0.10023399442434311, 
                -0.08767544478178024, 
                0.016197046265006065, 
                0.010014704428613186, 
                0.017562825232744217, 
                0.11607197672128677, 
                -0.030512085184454918, 
                -0.0866391509771347, 
                0.03335081413388252, 
                -0.12511317431926727, 
                0.10620466619729996, 
                0.11513183265924454, 
                -0.0901242196559906, 
                -0.06908174604177475, 
                0.04569115862250328, 
                -0.011111912317574024, 
                -0.11990959942340851, 
                -0.10169531404972076, 
                -0.003587768180295825, 
                0.038685061037540436, 
                0.05787281319499016, 
                -0.12843134999275208, 
                0.02804701402783394, 
                -0.012389925308525562, 
                -0.01447251345962286, 
                -0.13243401050567627, 
                -0.1639070361852646, 
                -0.00013716354442294687, 
                -0.12378215044736862, 
                0.05535255745053291, 
                -0.12862351536750793, 
                -0.09910513460636139, 
                -0.028526170179247856, 
                0.1360398232936859, 
                0.07811611145734787, 
                -0.055624157190322876, 
                -0.07298346608877182, 
                -0.06748747825622559, 
                -0.03300231322646141, 
                0.011629755608737469, 
                0.02721676044166088, 
                0.04689054936170578, 
                -0.004734445363283157, 
                0.03370960056781769, 
                -0.09085630625486374, 
                0.09507542103528976, 
                -0.04604514315724373, 
                -0.11465133726596832, 
                0.07638558000326157, 
                -0.02109314687550068, 
                0.047789689153432846, 
                -0.01633450575172901, 
                -0.06485085934400558, 
                0.11919450759887695, 
                -0.12656155228614807, 
                -0.04512001946568489, 
                -0.014139487408101559, 
                -0.07378973066806793, 
                0.04372281953692436, 
                -0.044075194746255875, 
                0.03723544999957085, 
                -0.0512755922973156, 
                -0.005609177052974701, 
                0.1349877268075943, 
                0.022307822480797768, 
                -0.06102338060736656, 
                -0.0709306001663208, 
                -0.11099987477064133, 
                0.1622113138437271, 
                0.04446351155638695, 
                0.055209558457136154, 
                0.1632148176431656, 
                0.12376220524311066
            ], 
            [
                0.05003073811531067, 
                -0.014704504981637001, 
                -0.0027415722142904997, 
                0.0010463892249390483, 
                0.15810249745845795, 
                -0.08460422605276108, 
                0.1872616708278656, 
                0.14899244904518127, 
                0.15526539087295532, 
                -0.03171417489647865, 
                0.0026466769631952047, 
                -0.15804293751716614, 
                0.07273499667644501, 
                0.07620381563901901, 
                0.0027405384462326765, 
                -0.052416592836380005, 
                -0.0740877315402031, 
                -0.13472579419612885, 
                -0.06283687800168991, 
                0.17311830818653107, 
                -0.100570909678936, 
                -0.08858226239681244, 
                0.053995341062545776, 
                -0.03856395557522774, 
                -0.09782665967941284, 
                -0.010356600396335125, 
                -0.01524637546390295, 
                -0.19493238627910614, 
                0.09276389330625534, 
                -0.1781604140996933, 
                -0.010462637059390545, 
                -0.0191024299710989, 
                0.18767160177230835, 
                -0.13218297064304352, 
                -0.01719049923121929, 
                -0.17608319222927094, 
                -0.02865949645638466, 
                0.0053825280629098415, 
                0.08004598319530487, 
                0.03515961393713951, 
                -0.12503033876419067, 
                -0.08673789352178574, 
                0.0023009516298770905, 
                -0.007689437363296747, 
                0.023858895525336266, 
                0.02060692571103573, 
                0.04757243022322655, 
                -0.11802047491073608, 
                0.00961895752698183, 
                0.0341564416885376, 
                -0.009129221551120281, 
                -0.11593502759933472, 
                -0.04722309485077858, 
                -0.11065944284200668, 
                -0.03726626932621002, 
                -0.06175718829035759, 
                0.02067730203270912, 
                0.032489389181137085, 
                0.12332456558942795, 
                0.010311472229659557, 
                0.049617864191532135, 
                0.025965362787246704, 
                -0.004787211772054434, 
                0.0026909930165857077, 
                0.061643052846193314, 
                -0.14434750378131866, 
                -0.08408254384994507, 
                -0.011743009090423584, 
                0.005337988492101431, 
                -0.005664723925292492, 
                -0.1571992188692093, 
                0.028903687372803688, 
                -0.04559596627950668, 
                0.10771156847476959, 
                -0.07926452904939651, 
                -0.020921174436807632, 
                -0.02778751216828823, 
                0.07055973261594772, 
                -0.04501624032855034, 
                0.053150396794080734, 
                -0.12280593067407608, 
                0.10216784477233887, 
                -0.07331784814596176, 
                -0.020623553544282913, 
                -0.045618243515491486, 
                0.12107687443494797, 
                0.046691711992025375, 
                0.00732093770056963, 
                0.027508864179253578, 
                -0.07290493696928024, 
                0.05830531194806099, 
                0.10869840532541275, 
                0.026906464248895645, 
                0.17760883271694183, 
                -0.06670563668012619, 
                -0.10375837236642838, 
                -0.04676900804042816, 
                -0.025436222553253174, 
                0.07373949140310287, 
                0.14941895008087158
            ], 
            [
                0.023728366941213608, 
                0.0018980365712195635, 
                0.15401926636695862, 
                0.014144832268357277, 
                -0.0637170597910881, 
                0.13728420436382294, 
                -0.0436156801879406, 
                -0.02064722590148449, 
                -0.06782802939414978, 
                -0.04597576707601547, 
                0.09433779120445251, 
                -0.014511237852275372, 
                0.10785999149084091, 
                -0.1046462431550026, 
                0.052365392446517944, 
                0.041309814900159836, 
                -0.041151151061058044, 
                -0.045685891062021255, 
                -0.004070544149726629, 
                -0.1315201222896576, 
                0.11584357172250748, 
                -0.134304940700531, 
                0.0011643067700788379, 
                0.040284108370542526, 
                0.06327568739652634, 
                0.07543984800577164, 
                0.08955951035022736, 
                0.06371330469846725, 
                0.021625980734825134, 
                0.024880940094590187, 
                -0.11471561342477798, 
                -0.0036027838941663504, 
                -0.04548534378409386, 
                0.12551894783973694, 
                0.0005590847576968372, 
                -0.07971994578838348, 
                0.10972980409860611, 
                -0.028523793444037437, 
                -0.06684708595275879, 
                0.00018726794223766774, 
                0.051629722118377686, 
                -0.0522463321685791, 
                0.13033095002174377, 
                -0.016622226685285568, 
                0.07314054667949677, 
                -0.11202672868967056, 
                0.0029906700365245342, 
                0.050424665212631226, 
                -0.09432053565979004, 
                -0.0169987790286541, 
                0.01073306892067194, 
                0.06335186213254929, 
                -0.11822309345006943, 
                -0.05944625288248062, 
                -0.16654133796691895, 
                0.18635354936122894, 
                0.03459152951836586, 
                0.09737097471952438, 
                -0.0059694512747228146, 
                -0.10220237821340561, 
                -0.10626097023487091, 
                -0.015480907633900642, 
                0.076571986079216, 
                -0.04230703040957451, 
                0.1171216145157814, 
                -0.039577942341566086, 
                -0.07790281623601913, 
                0.11366228014230728, 
                -0.06137489899992943, 
                0.0754743367433548, 
                -0.07992596179246902, 
                -0.1849200427532196, 
                -0.0677209123969078, 
                -0.12013218551874161, 
                0.15429481863975525, 
                -0.08617370575666428, 
                0.04125889390707016, 
                -0.0925733745098114, 
                0.06299863010644913, 
                0.10320941358804703, 
                0.02090395800769329, 
                0.1732749044895172, 
                -0.005357187706977129, 
                0.059046145528554916, 
                -0.08974816650152206, 
                -0.02729851007461548, 
                -0.05907066538929939, 
                -0.18817733228206635, 
                0.019869104027748108, 
                -0.0637296661734581, 
                -0.02604234591126442, 
                -0.028536343947052956, 
                -0.01774834468960762, 
                -0.06261061877012253, 
                0.14707110822200775, 
                0.022814631462097168, 
                -0.055906981229782104, 
                -0.023350661620497704, 
                -0.06112121418118477, 
                -0.09607995301485062
            ], 
            [
                -0.04225633293390274, 
                -0.10897061973810196, 
                0.08284565806388855, 
                -0.15824201703071594, 
                -0.024006718769669533, 
                0.05650250241160393, 
                0.024131305515766144, 
                0.19583497941493988, 
                0.015652194619178772, 
                0.035614579916000366, 
                0.07906915992498398, 
                0.09184686094522476, 
                0.15532910823822021, 
                -0.0473080649971962, 
                -0.0459577701985836, 
                -0.15407036244869232, 
                -0.03550417348742485, 
                0.16104160249233246, 
                0.12661360204219818, 
                -0.01404536422342062, 
                0.02591206692159176, 
                -0.12433458864688873, 
                -0.16532082855701447, 
                0.015235085971653461, 
                0.004912137985229492, 
                -0.0202950369566679, 
                -0.05706436187028885, 
                0.06681157648563385, 
                0.09312976151704788, 
                -0.14865122735500336, 
                -0.054262418299913406, 
                -0.04476777836680412, 
                -0.09708143025636673, 
                0.035261835902929306, 
                -0.17134271562099457, 
                -0.09517353028059006, 
                0.13365153968334198, 
                -0.092832550406456, 
                0.11691663414239883, 
                0.08635629713535309, 
                -0.03615127131342888, 
                0.11009104549884796, 
                -0.05202307179570198, 
                -0.0011197904823347926, 
                0.08662115037441254, 
                0.13045048713684082, 
                -0.17262248694896698, 
                -0.18089984357357025, 
                0.03898933157324791, 
                0.14341145753860474, 
                -0.00595552334561944, 
                -0.024891681969165802, 
                0.04987897351384163, 
                -0.023383131250739098, 
                -0.13239984214305878, 
                0.11778253316879272, 
                -0.04897686466574669, 
                -0.03432871773838997, 
                0.05292871221899986, 
                -0.06056671962141991, 
                -0.019005557522177696, 
                -0.07005258649587631, 
                -0.05728377029299736, 
                -0.01659909449517727, 
                -0.1813565194606781, 
                -0.05519551783800125, 
                0.004713817965239286, 
                -0.10335599631071091, 
                -0.18085460364818573, 
                -0.051895685493946075, 
                0.03174273669719696, 
                0.07826092094182968, 
                0.04752589762210846, 
                0.01355416513979435, 
                -0.009953184053301811, 
                -0.06926387548446655, 
                -0.004565568640828133, 
                -0.17130881547927856, 
                0.11949987709522247, 
                -0.06855624914169312, 
                0.10197097063064575, 
                -0.16878914833068848, 
                0.046466901898384094, 
                0.14901317656040192, 
                0.07861202955245972, 
                0.030496278777718544, 
                -0.14022299647331238, 
                -0.05783732607960701, 
                0.1468559056520462, 
                0.10683698952198029, 
                -0.0688047930598259, 
                -0.15486566722393036, 
                -0.044514212757349014, 
                -0.09380706399679184, 
                0.12585601210594177, 
                -0.15788307785987854, 
                -0.05468237027525902, 
                0.02263256534934044, 
                -0.09238693118095398, 
                -0.06778954714536667
            ], 
            [
                -0.053697433322668076, 
                0.15179406106472015, 
                -0.022931503131985664, 
                -0.05632265284657478, 
                0.04563847556710243, 
                -0.07217490673065186, 
                -0.09744767099618912, 
                0.0012744222767651081, 
                -0.04385768994688988, 
                -0.05675283074378967, 
                -0.00193882011808455, 
                0.07432860881090164, 
                -0.04029577970504761, 
                0.051769185811281204, 
                -0.03394295647740364, 
                -0.020603159442543983, 
                0.05714789032936096, 
                -0.1485503762960434, 
                0.10986334085464478, 
                0.01832010969519615, 
                0.015035311691462994, 
                0.00269974279217422, 
                -0.003034771652892232, 
                -0.060855258256196976, 
                -0.19482313096523285, 
                0.1594834178686142, 
                -0.06680145859718323, 
                0.10673506557941437, 
                -0.12272067368030548, 
                -0.04287301376461983, 
                -0.03879044950008392, 
                -0.0322287492454052, 
                0.12401844561100006, 
                -0.08175711333751678, 
                -0.03868868574500084, 
                -0.032647933810949326, 
                0.026675228029489517, 
                -0.03066101484000683, 
                -0.042663995176553726, 
                0.048713717609643936, 
                -0.037412527948617935, 
                0.02495712786912918, 
                0.015688451007008553, 
                0.14508308470249176, 
                0.19542241096496582, 
                0.01240956224501133, 
                0.03272096812725067, 
                0.021574893966317177, 
                -0.09313737601041794, 
                -0.0347970649600029, 
                0.14487211406230927, 
                0.04630132019519806, 
                0.058319102972745895, 
                0.09123711287975311, 
                0.0588126964867115, 
                -0.08254661411046982, 
                -0.11723863333463669, 
                0.02019987441599369, 
                0.13883863389492035, 
                -0.001322353258728981, 
                -0.1355760246515274, 
                0.09816212952136993, 
                0.006511347834020853, 
                -0.10948705673217773, 
                0.11248892545700073, 
                0.12604014575481415, 
                -0.02169242687523365, 
                -0.1556578427553177, 
                -0.027924617752432823, 
                -0.056473731994628906, 
                0.11657585203647614, 
                0.11279212683439255, 
                0.0710117444396019, 
                0.1598091423511505, 
                -0.050565291196107864, 
                -0.13309995830059052, 
                0.059186190366744995, 
                -0.15773329138755798, 
                -0.06039782240986824, 
                0.01641957089304924, 
                0.015599491074681282, 
                0.043972548097372055, 
                0.051260001957416534, 
                0.1201557070016861, 
                0.13827364146709442, 
                -0.08929326385259628, 
                0.1250910609960556, 
                0.020682331174612045, 
                -0.15586428344249725, 
                0.1818515509366989, 
                0.016451125964522362, 
                -0.07553833723068237, 
                0.029194330796599388, 
                0.016784094274044037, 
                -0.010946440510451794, 
                -0.03771008178591728, 
                0.08911366760730743, 
                -0.07275258749723434, 
                -0.04683125391602516, 
                -0.11747187376022339
            ], 
            [
                -0.06379981338977814, 
                0.08306965231895447, 
                0.15638963878154755, 
                0.03057153895497322, 
                0.0333872027695179, 
                0.02095862664282322, 
                -0.00481146527454257, 
                -0.10312441736459732, 
                0.08178321272134781, 
                0.07837320119142532, 
                -0.013148424215614796, 
                0.0834575742483139, 
                -0.09542404115200043, 
                0.019614791497588158, 
                -0.03642483055591583, 
                -0.10337524861097336, 
                -0.1257312148809433, 
                0.04338657483458519, 
                -0.07188508659601212, 
                -0.048077281564474106, 
                0.012017282657325268, 
                0.08057727664709091, 
                0.15331728756427765, 
                0.07951479405164719, 
                -0.07266222685575485, 
                0.1534024477005005, 
                -0.14679796993732452, 
                0.16211195290088654, 
                0.012866777367889881, 
                0.07411187142133713, 
                0.12842386960983276, 
                0.062312956899404526, 
                0.014871408231556416, 
                -0.07408013194799423, 
                -0.1102260872721672, 
                -0.03363786265254021, 
                -0.123076431453228, 
                0.06856203079223633, 
                -0.11372824758291245, 
                0.13106459379196167, 
                0.1696166843175888, 
                -0.05367056652903557, 
                -0.09844132512807846, 
                -0.008615524508059025, 
                -0.050752557814121246, 
                -0.028165701776742935, 
                0.1666099578142166, 
                0.06465565413236618, 
                0.038186851888895035, 
                0.07621388137340546, 
                0.07469182461500168, 
                0.055064331740140915, 
                0.08050750195980072, 
                -0.011150293983519077, 
                -0.0384405292570591, 
                0.08021064847707748, 
                0.10354357212781906, 
                0.12616609036922455, 
                0.021433290094137192, 
                0.02830592729151249, 
                -0.04830905422568321, 
                -0.06307803839445114, 
                0.17228887975215912, 
                -0.15098270773887634, 
                -0.01851220242679119, 
                0.1654120236635208, 
                0.020453911274671555, 
                0.06057419255375862, 
                -0.1455940455198288, 
                -0.04049486666917801, 
                0.10613373667001724, 
                0.1269083172082901, 
                -0.0040318528190255165, 
                0.01201995275914669, 
                0.041129983961582184, 
                -0.10951192677021027, 
                -0.09722806513309479, 
                -0.12071140855550766, 
                0.025816261768341064, 
                0.05346802994608879, 
                -0.15475137531757355, 
                0.09380339831113815, 
                0.06475848704576492, 
                -0.025523319840431213, 
                0.033129315823316574, 
                -0.0014370530843734741, 
                0.036494944244623184, 
                -0.037104327231645584, 
                -0.0029332339763641357, 
                0.07388491183519363, 
                0.04072156921029091, 
                -0.09523143619298935, 
                -0.1029830202460289, 
                0.002735954476520419, 
                0.17342038452625275, 
                -0.10324887186288834, 
                0.043325044214725494, 
                0.016118591651320457, 
                0.05852681025862694, 
                0.09909529238939285
            ], 
            [
                0.08883978426456451, 
                -0.10709434002637863, 
                -0.01220812276005745, 
                0.11658332496881485, 
                -0.034634996205568314, 
                -0.06572823971509933, 
                -0.18005059659481049, 
                -0.0027132153045386076, 
                -0.08469989150762558, 
                0.05245751887559891, 
                -0.008649356663227081, 
                -0.0411670058965683, 
                0.025188032537698746, 
                0.033210281282663345, 
                -0.012848146259784698, 
                -0.0581769123673439, 
                0.10196515172719955, 
                0.08983983844518661, 
                -0.08908694237470627, 
                -0.03054543398320675, 
                0.047210272401571274, 
                0.04453371837735176, 
                0.07104940712451935, 
                -0.0014381766086444259, 
                0.090240478515625, 
                -0.019969020038843155, 
                -0.17987559735774994, 
                -0.11436914652585983, 
                0.08869447559118271, 
                0.011198768392205238, 
                -0.035569921135902405, 
                -0.0562552809715271, 
                0.17147161066532135, 
                0.0019219774985685945, 
                0.14761850237846375, 
                0.07735077291727066, 
                -0.04942714422941208, 
                0.02861384116113186, 
                -0.02154170535504818, 
                0.09228213876485825, 
                -0.021655574440956116, 
                0.06704169511795044, 
                0.028001436963677406, 
                0.08310355991125107, 
                0.009915659204125404, 
                -0.057886093854904175, 
                0.011332612484693527, 
                -0.170660138130188, 
                -0.03337787091732025, 
                0.043848488479852676, 
                0.13173381984233856, 
                -0.15274178981781006, 
                0.048094432801008224, 
                0.005303053185343742, 
                0.19326728582382202, 
                0.03204413503408432, 
                -0.11828180402517319, 
                0.0603322871029377, 
                0.006147854495793581, 
                -0.019153833389282227, 
                0.06251002103090286, 
                0.035910818725824356, 
                0.12481649219989777, 
                -0.10895409435033798, 
                -0.08646012842655182, 
                0.10925871133804321, 
                -0.11209322512149811, 
                -0.15302152931690216, 
                0.06510354578495026, 
                -0.1697649210691452, 
                0.03395859897136688, 
                0.09313955903053284, 
                0.12312868982553482, 
                -0.11539753526449203, 
                -0.05130302533507347, 
                0.11308632045984268, 
                0.09433108568191528, 
                -0.06462730467319489, 
                -0.09025806933641434, 
                0.008170845918357372, 
                -0.055423635989427567, 
                0.029675332829356194, 
                0.12355130165815353, 
                -0.08483811467885971, 
                0.12013890594244003, 
                0.005707129370421171, 
                -0.13551625609397888, 
                0.09877831488847733, 
                0.036142341792583466, 
                -0.16899065673351288, 
                -0.07159393280744553, 
                0.049024853855371475, 
                -0.07022219151258469, 
                -0.09847517311573029, 
                -0.10690923035144806, 
                -0.024409066885709763, 
                0.02178044430911541, 
                -0.1906931847333908, 
                -0.12104839086532593, 
                0.028811106458306313
            ], 
            [
                -0.06038177013397217, 
                0.030179712921380997, 
                -0.09476419538259506, 
                0.02789372019469738, 
                -0.04522515833377838, 
                0.04956274479627609, 
                0.05721559002995491, 
                0.03431067615747452, 
                -0.05585448071360588, 
                0.04004884138703346, 
                0.11172115802764893, 
                0.07322820276021957, 
                0.036490004509687424, 
                0.12261694669723511, 
                -0.056139715015888214, 
                0.06738210469484329, 
                -0.04144825041294098, 
                -0.0041547599248588085, 
                0.019376235082745552, 
                -0.14903712272644043, 
                0.09525704383850098, 
                -0.13534227013587952, 
                0.011560840532183647, 
                -0.1388833075761795, 
                -0.01975117065012455, 
                0.08745702356100082, 
                -0.0999159887433052, 
                0.02732420340180397, 
                -0.0028570161666721106, 
                -0.1804102510213852, 
                0.08682695031166077, 
                0.010071850381791592, 
                0.03242500498890877, 
                -0.13915681838989258, 
                0.10211922228336334, 
                0.12488233298063278, 
                -0.04172540083527565, 
                0.09463737905025482, 
                -0.030595630407333374, 
                0.0404939241707325, 
                0.11344350874423981, 
                -0.026187274605035782, 
                -0.0256779994815588, 
                -0.19386528432369232, 
                -0.14805397391319275, 
                -0.11466290056705475, 
                -0.05878723785281181, 
                0.19310890138149261, 
                0.03558938950300217, 
                0.009822971187531948, 
                -0.12110646069049835, 
                0.006067056208848953, 
                0.0021974060218781233, 
                -0.007700586225837469, 
                -0.044572483748197556, 
                -0.02980748750269413, 
                -0.07034441828727722, 
                0.1411149948835373, 
                0.005194654688239098, 
                -0.060882456600666046, 
                0.02007817104458809, 
                -0.06995505094528198, 
                -0.13780908286571503, 
                -0.051890354603528976, 
                0.13216562569141388, 
                -0.06589502096176147, 
                -0.16963091492652893, 
                0.09800837934017181, 
                -0.12111492455005646, 
                -0.15224196016788483, 
                -0.08739378303289413, 
                -0.09037287533283234, 
                0.16557583212852478, 
                0.027580151334404945, 
                0.032836925238370895, 
                -0.16855023801326752, 
                0.19525736570358276, 
                0.010869144462049007, 
                0.027537986636161804, 
                -0.06977056711912155, 
                -0.12183061987161636, 
                0.11134634166955948, 
                -0.08986608684062958, 
                -0.07471831142902374, 
                0.09952368587255478, 
                0.0640510693192482, 
                -0.03479389846324921, 
                -0.15533384680747986, 
                0.10849763453006744, 
                -0.07184017449617386, 
                -0.034114398062229156, 
                0.06576312333345413, 
                -0.059277068823575974, 
                -0.027805937454104424, 
                0.0917787179350853, 
                -0.0214191023260355, 
                -0.056121062487363815, 
                -0.049937065690755844, 
                0.02184433676302433, 
                -0.11466719210147858
            ], 
            [
                0.0178685262799263, 
                -0.061244457960128784, 
                -0.01782792992889881, 
                0.048319049179553986, 
                0.18629835546016693, 
                0.19383837282657623, 
                0.06549858301877975, 
                0.044358134269714355, 
                0.1654745191335678, 
                -0.030552411451935768, 
                0.09243975579738617, 
                0.12726382911205292, 
                -0.1895323097705841, 
                0.059716325253248215, 
                0.013845408335328102, 
                -0.0018921770388260484, 
                0.07500584423542023, 
                -0.11167343705892563, 
                0.07866399735212326, 
                -0.021584469825029373, 
                -0.136348158121109, 
                0.19232536852359772, 
                -0.03822481632232666, 
                0.0434396006166935, 
                -0.0445655956864357, 
                0.19503650069236755, 
                0.1196456104516983, 
                0.020462891086935997, 
                -0.05582602694630623, 
                -0.00938438531011343, 
                0.021571122109889984, 
                -0.11084327846765518, 
                0.013583485968410969, 
                -0.005531363654881716, 
                -0.014556988142430782, 
                -0.08863472193479538, 
                0.07126316428184509, 
                -0.130103200674057, 
                -0.014992676675319672, 
                -0.14503537118434906, 
                0.029097968712449074, 
                -0.06495722383260727, 
                -0.07264458388090134, 
                -0.045013342052698135, 
                0.10905251652002335, 
                -0.16384388506412506, 
                0.004881829954683781, 
                0.07148505747318268, 
                0.18030591309070587, 
                0.13289181888103485, 
                0.02179870195686817, 
                -0.033712856471538544, 
                -0.05697505548596382, 
                0.18575869500637054, 
                0.04055441915988922, 
                0.04367582127451897, 
                -0.1387011557817459, 
                0.08669165521860123, 
                -0.014771533198654652, 
                -0.031694840639829636, 
                0.04916903376579285, 
                0.10445388406515121, 
                0.016143567860126495, 
                -0.10231895744800568, 
                -0.026966124773025513, 
                0.01946299523115158, 
                0.09966586530208588, 
                -0.007383213844150305, 
                -0.0019239241955801845, 
                -0.1121056079864502, 
                -0.06901926547288895, 
                -0.08629577606916428, 
                -0.043445080518722534, 
                0.07008836418390274, 
                -0.13425348699092865, 
                0.004677506163716316, 
                0.03744545578956604, 
                -0.06463850289583206, 
                0.17629887163639069, 
                -0.09963535517454147, 
                -0.16412381827831268, 
                -0.013102683238685131, 
                0.10096857696771622, 
                0.026256529614329338, 
                -0.06467699259519577, 
                0.10032182186841965, 
                -0.09979711472988129, 
                -0.0025332642253488302, 
                -0.019194496795535088, 
                0.008874526247382164, 
                -0.022478774189949036, 
                -0.05570564791560173, 
                -0.034163471311330795, 
                -0.052916694432497025, 
                0.15395806729793549, 
                0.11407890170812607, 
                -0.02390246093273163, 
                0.01824350655078888, 
                0.10911338776350021, 
                0.13079498708248138
            ], 
            [
                0.097329281270504, 
                0.023831134662032127, 
                0.05158716440200806, 
                -0.10787161439657211, 
                0.13645857572555542, 
                -0.16093263030052185, 
                -0.047307830303907394, 
                0.12051079422235489, 
                0.006333721335977316, 
                -0.06879915297031403, 
                0.0030764283146709204, 
                -0.12048973888158798, 
                -0.012910422869026661, 
                -0.012803359888494015, 
                -0.012036856263875961, 
                -0.16743731498718262, 
                0.028004521504044533, 
                -0.060133494436740875, 
                0.10286150127649307, 
                0.09790291637182236, 
                -0.10941026359796524, 
                -0.03203191980719566, 
                -0.10957831144332886, 
                -0.08395986258983612, 
                0.14215272665023804, 
                0.125910222530365, 
                -0.1723576933145523, 
                -0.03515889495611191, 
                0.09119180589914322, 
                -0.12902571260929108, 
                -0.055297959595918655, 
                0.051242608577013016, 
                0.18650953471660614, 
                -0.009407012723386288, 
                0.08171718567609787, 
                -0.08527536690235138, 
                -0.09312639385461807, 
                -0.07123677432537079, 
                0.02195117436349392, 
                0.09995745122432709, 
                0.19810225069522858, 
                -0.11534710228443146, 
                0.05005073547363281, 
                -0.1853497475385666, 
                0.0242488831281662, 
                -0.04713405296206474, 
                -0.14886659383773804, 
                -0.10929863899946213, 
                -0.09714080393314362, 
                0.1271972507238388, 
                -0.07392381876707077, 
                -0.11912459135055542, 
                0.07261309772729874, 
                0.09499937295913696, 
                0.1396494358778, 
                0.0532895103096962, 
                0.02016936056315899, 
                -0.010851223021745682, 
                -0.05484015494585037, 
                -0.03647055849432945, 
                0.01561407744884491, 
                -0.07992420345544815, 
                -0.027021391317248344, 
                0.011462240479886532, 
                -0.11139315366744995, 
                0.011009540408849716, 
                0.006453640293329954, 
                0.08038954436779022, 
                0.08966844528913498, 
                -0.0199666079133749, 
                -0.08322324603796005, 
                0.06279197335243225, 
                -0.0267165694385767, 
                0.010529184713959694, 
                -0.06843560189008713, 
                -0.085476353764534, 
                0.034436583518981934, 
                -0.04488421231508255, 
                0.08910983055830002, 
                0.0657585933804512, 
                0.18507564067840576, 
                0.17550472915172577, 
                -0.016344895586371422, 
                0.09463007748126984, 
                -0.17128001153469086, 
                -0.1658695787191391, 
                0.01630118303000927, 
                0.04075859114527702, 
                -0.08313747495412827, 
                -0.01088676042854786, 
                0.12126761674880981, 
                0.16168835759162903, 
                0.0836712196469307, 
                0.032902199774980545, 
                0.03990151733160019, 
                0.06760858744382858, 
                0.04418026655912399, 
                0.10617239773273468, 
                -0.03704531490802765, 
                0.11505358666181564
            ], 
            [
                -0.012608743272721767, 
                -0.11033044010400772, 
                0.04099133610725403, 
                0.12263023108243942, 
                -0.07237894833087921, 
                -0.17027583718299866, 
                -0.1036389023065567, 
                0.017405666410923004, 
                -0.05129144713282585, 
                0.03656892478466034, 
                0.04597468674182892, 
                0.1049085408449173, 
                -0.029169967398047447, 
                0.10485812276601791, 
                -0.044977571815252304, 
                0.16274157166481018, 
                0.040338125079870224, 
                0.06354312598705292, 
                0.12219136208295822, 
                0.0096612349152565, 
                0.030126897618174553, 
                0.07559537142515182, 
                0.023051239550113678, 
                -0.016392795369029045, 
                0.002813667058944702, 
                -0.038353778421878815, 
                -0.16273820400238037, 
                0.15815220773220062, 
                -0.038535211235284805, 
                0.014073379337787628, 
                -0.08315978944301605, 
                0.0012974952114745975, 
                0.05382014065980911, 
                0.10071035474538803, 
                0.15535478293895721, 
                -0.12269245833158493, 
                0.19591890275478363, 
                0.030378108844161034, 
                0.06570850312709808, 
                0.058692581951618195, 
                0.051658995449543, 
                0.11057784408330917, 
                0.08194229751825333, 
                -0.04998350143432617, 
                -0.12654143571853638, 
                -0.13918940722942352, 
                0.17309467494487762, 
                -0.010381585918366909, 
                -0.1160351037979126, 
                0.14961110055446625, 
                0.0358247347176075, 
                -0.016250716522336006, 
                -0.03988179191946983, 
                0.05285205319523811, 
                0.06687565892934799, 
                0.11988802254199982, 
                -0.07287800312042236, 
                -0.11720997095108032, 
                0.13867159187793732, 
                0.07883840054273605, 
                0.07809888571500778, 
                -0.021586863324046135, 
                -0.029158610850572586, 
                0.1497890204191208, 
                0.030563149601221085, 
                0.09276387095451355, 
                0.11177972704172134, 
                -0.030207155272364616, 
                -0.04738227650523186, 
                -0.01867815852165222, 
                -0.024181820452213287, 
                -0.11572122573852539, 
                0.13636097311973572, 
                0.16188496351242065, 
                0.13280566036701202, 
                0.01923595741391182, 
                0.07290080189704895, 
                0.030452260747551918, 
                -0.19292834401130676, 
                -0.06743124127388, 
                0.0963665172457695, 
                0.04902714490890503, 
                -0.02809891663491726, 
                -0.03176724910736084, 
                0.06284646689891815, 
                0.13843300938606262, 
                0.10830438137054443, 
                -0.06360306590795517, 
                0.031954117119312286, 
                -0.03180406615138054, 
                0.06814004480838776, 
                0.01587841846048832, 
                0.13410167396068573, 
                0.05090882256627083, 
                0.1625850796699524, 
                -0.02799159102141857, 
                0.07361891865730286, 
                -0.06644201278686523, 
                0.047793906182050705, 
                -0.10473453253507614
            ], 
            [
                0.06273465603590012, 
                -0.10782090574502945, 
                0.029889140278100967, 
                0.005748511757701635, 
                0.09518998116254807, 
                0.15751972794532776, 
                -0.017535371705889702, 
                -0.0582241415977478, 
                0.12431025505065918, 
                -0.1273062378168106, 
                -0.16311143338680267, 
                0.05126174911856651, 
                0.04423975571990013, 
                0.003972623031586409, 
                0.14412859082221985, 
                -0.14203764498233795, 
                0.1514860838651657, 
                -0.05161251500248909, 
                0.06792693585157394, 
                0.0271840188652277, 
                -0.019576039165258408, 
                0.02275722846388817, 
                0.14545676112174988, 
                0.009761203080415726, 
                0.1840219646692276, 
                0.05198704078793526, 
                -0.018228398635983467, 
                -0.06095580384135246, 
                -0.06404086202383041, 
                -0.024845127016305923, 
                0.03482234477996826, 
                0.038791123777627945, 
                0.08524160832166672, 
                0.11310382932424545, 
                -0.01538123469799757, 
                -0.10763876885175705, 
                0.015771476551890373, 
                0.06636170297861099, 
                0.14365993440151215, 
                0.1484404057264328, 
                -0.01909458637237549, 
                -0.06859425455331802, 
                0.08660747855901718, 
                0.16076670587062836, 
                -0.11439017206430435, 
                0.004116469994187355, 
                -0.13593529164791107, 
                0.18820060789585114, 
                -0.06977357715368271, 
                0.054272182285785675, 
                0.025053346529603004, 
                -0.035291027277708054, 
                0.0785958394408226, 
                -0.02340761385858059, 
                -0.046035025268793106, 
                -0.04436349496245384, 
                -0.10930370539426804, 
                -0.10698401927947998, 
                -0.056649524718523026, 
                0.0589415542781353, 
                0.04784718155860901, 
                -0.020885147154331207, 
                0.17528127133846283, 
                -0.141699880361557, 
                0.1031462773680687, 
                0.052179742604494095, 
                -0.09732532501220703, 
                0.04827579855918884, 
                0.014827636070549488, 
                -0.11023586988449097, 
                -0.09175252914428711, 
                -0.018776390701532364, 
                -0.023248082026839256, 
                -0.0929660052061081, 
                0.05529377982020378, 
                -0.003515212330967188, 
                -0.10598243772983551, 
                0.11585970222949982, 
                0.11763637512922287, 
                -0.013225476257503033, 
                0.008033545687794685, 
                -0.03477228805422783, 
                0.027249181643128395, 
                0.030322788283228874, 
                0.06393586844205856, 
                0.001525215688161552, 
                -0.003962686285376549, 
                -0.11525978893041611, 
                0.034674935042858124, 
                -0.03682404384016991, 
                0.05817791819572449, 
                -0.0062924399971961975, 
                -0.04050007089972496, 
                -0.022083705291152, 
                -0.020552003756165504, 
                0.11492612212896347, 
                0.14757852256298065, 
                -0.11701921373605728, 
                0.10078605264425278, 
                0.12345073372125626
            ], 
            [
                0.01482513826340437, 
                0.0815078541636467, 
                -0.15251082181930542, 
                0.002325930865481496, 
                -0.08350221812725067, 
                0.049826037138700485, 
                0.011232605203986168, 
                0.0591089129447937, 
                0.023350536823272705, 
                0.06611593067646027, 
                0.10229881852865219, 
                0.08557840436697006, 
                -0.024447282776236534, 
                0.10304298251867294, 
                0.12999700009822845, 
                0.026855459436774254, 
                0.06507737189531326, 
                0.022264359518885612, 
                -0.03139258548617363, 
                0.017035579308867455, 
                0.11589638143777847, 
                0.07114657014608383, 
                0.06614551693201065, 
                -0.11534571647644043, 
                0.1253414750099182, 
                0.06737712025642395, 
                -0.11270731687545776, 
                0.018707184121012688, 
                -0.16818101704120636, 
                -0.01046681310981512, 
                -0.14284254610538483, 
                0.04579784721136093, 
                -0.14412806928157806, 
                0.16277793049812317, 
                -0.04908551648259163, 
                0.014226103201508522, 
                -0.13998351991176605, 
                0.02682444453239441, 
                -0.19648289680480957, 
                -0.16650433838367462, 
                -0.04227268323302269, 
                -0.05021674558520317, 
                -0.04303067922592163, 
                0.0023200088180601597, 
                0.07761304080486298, 
                -0.1973261684179306, 
                -0.026702551171183586, 
                -0.09182048588991165, 
                -0.025097955018281937, 
                -0.10900460928678513, 
                0.12475647032260895, 
                0.05700739845633507, 
                -0.01866338402032852, 
                0.07010143250226974, 
                0.07623845338821411, 
                -0.0160879697650671, 
                0.11116822063922882, 
                0.16047732532024384, 
                0.009442669339478016, 
                -0.02742183208465576, 
                -0.1600346565246582, 
                0.04808741807937622, 
                0.04028260335326195, 
                0.12216631323099136, 
                0.02393176592886448, 
                0.14887569844722748, 
                -0.04872355982661247, 
                -0.17797498404979706, 
                0.06720767915248871, 
                0.06942193955183029, 
                -0.08324269950389862, 
                0.06663600355386734, 
                -0.14882341027259827, 
                0.09660066664218903, 
                0.03408685699105263, 
                0.08902033418416977, 
                -0.026859914883971214, 
                0.02998480759561062, 
                -0.15839123725891113, 
                -0.10163746029138565, 
                -0.13405761122703552, 
                0.0018739815568551421, 
                0.100258968770504, 
                -0.06587585061788559, 
                -0.0910542756319046, 
                0.04288884997367859, 
                -0.0655190721154213, 
                0.12228045612573624, 
                -0.007692028768360615, 
                -0.056430425494909286, 
                0.009764392860233784, 
                0.051479388028383255, 
                -0.04052576795220375, 
                -0.19458650052547455, 
                0.008025671355426311, 
                -0.11020705848932266, 
                0.14543607831001282, 
                -0.011057856492698193, 
                0.05349283292889595, 
                0.008505571633577347
            ], 
            [
                -0.0027692406438291073, 
                -0.04473010078072548, 
                0.06420056521892548, 
                -0.046328309923410416, 
                -0.044674526900053024, 
                0.09426285326480865, 
                -0.06148231774568558, 
                0.09217729419469833, 
                -0.14799076318740845, 
                0.06960859894752502, 
                0.09451757371425629, 
                0.03407357260584831, 
                -0.015176202170550823, 
                0.020117057487368584, 
                0.010311922058463097, 
                -0.0779208168387413, 
                -0.0009410479106009007, 
                -0.050173353403806686, 
                -0.011693841777741909, 
                0.005725296679884195, 
                -0.00494547002017498, 
                -0.18557007610797882, 
                0.07058294117450714, 
                0.056298185139894485, 
                -0.11194360256195068, 
                -0.12138817459344864, 
                0.14833828806877136, 
                -0.09925765544176102, 
                0.04003220424056053, 
                0.04365680366754532, 
                -0.08197514712810516, 
                0.016394685953855515, 
                -0.07024604082107544, 
                -0.09443318843841553, 
                -0.052288200706243515, 
                0.05801171809434891, 
                0.08648338168859482, 
                -0.022561294957995415, 
                0.06276838481426239, 
                0.04255826398730278, 
                0.034949593245983124, 
                0.07509148120880127, 
                -0.004401045385748148, 
                -0.07630179822444916, 
                0.029402095824480057, 
                0.017733190208673477, 
                -0.02963436208665371, 
                0.10484720766544342, 
                -0.05113927274942398, 
                -0.07340385764837265, 
                0.034535765647888184, 
                0.12589570879936218, 
                -0.03758373484015465, 
                0.07355695962905884, 
                -0.15621186792850494, 
                0.05275973305106163, 
                0.03662877902388573, 
                -0.11286534368991852, 
                -0.0008349441923201084, 
                0.012123020365834236, 
                0.04546937718987465, 
                -0.03304065018892288, 
                0.012849715538322926, 
                0.1807413548231125, 
                0.015866601839661598, 
                0.022943483665585518, 
                -0.13542450964450836, 
                0.03743444010615349, 
                -0.050594229251146317, 
                -0.054881710559129715, 
                0.14748987555503845, 
                -0.041563332080841064, 
                -0.05216716602444649, 
                0.03993392363190651, 
                0.1326432079076767, 
                0.03435223922133446, 
                -0.12033452838659286, 
                -0.1250264197587967, 
                -0.16237537562847137, 
                0.07295229285955429, 
                -0.008761289529502392, 
                -0.05334056168794632, 
                -0.004136780742555857, 
                -0.052087631076574326, 
                0.1278877705335617, 
                -0.11901452392339706, 
                0.13198041915893555, 
                0.11208192259073257, 
                -0.08296005427837372, 
                0.07521780580282211, 
                -0.00751983979716897, 
                0.02018263004720211, 
                0.10633189976215363, 
                0.014263036660850048, 
                0.014435446821153164, 
                -0.03717654570937157, 
                0.011588349007070065, 
                0.07989390939474106, 
                0.08799610286951065, 
                -0.003901663003489375
            ], 
            [
                0.11752792447805405, 
                0.19278119504451752, 
                -0.1509518176317215, 
                0.014868954196572304, 
                -0.0982452854514122, 
                0.06177013739943504, 
                0.16731815040111542, 
                -0.0918477475643158, 
                -0.07313398271799088, 
                0.09369342029094696, 
                0.02754722349345684, 
                -0.1830596625804901, 
                -0.16482622921466827, 
                -0.03717302531003952, 
                -0.013011830858886242, 
                0.06511031836271286, 
                -0.15493343770503998, 
                0.08918174356222153, 
                0.01876108907163143, 
                0.0377650260925293, 
                0.048440199345350266, 
                -0.08265512436628342, 
                -0.021983060985803604, 
                -0.11633018404245377, 
                -0.11356033384799957, 
                -0.010410395450890064, 
                -0.08301670849323273, 
                0.001110003562644124, 
                -0.1558721512556076, 
                0.04483349993824959, 
                -0.017565129324793816, 
                0.14774201810359955, 
                -0.0901484414935112, 
                0.02371160313487053, 
                0.11749755591154099, 
                -0.08024146407842636, 
                0.022364651784300804, 
                -0.0291301142424345, 
                -0.030331624671816826, 
                -0.007391859777271748, 
                -0.0560455322265625, 
                -0.050676364451646805, 
                0.07585693150758743, 
                -0.004985479637980461, 
                -0.0015779332024976611, 
                0.008464639075100422, 
                0.12260886281728745, 
                0.09454265981912613, 
                -0.0012500638840720057, 
                -0.08733708411455154, 
                0.06956081092357635, 
                0.022511545568704605, 
                -0.12613165378570557, 
                0.007653951644897461, 
                0.01814468577504158, 
                0.0180532056838274, 
                0.01371246762573719, 
                0.19374440610408783, 
                0.047868359833955765, 
                -0.02750456891953945, 
                -0.04025476798415184, 
                0.09751052409410477, 
                0.08650236576795578, 
                -0.06775286048650742, 
                0.19527019560337067, 
                -0.08067579567432404, 
                -0.08881337195634842, 
                0.053009938448667526, 
                -0.06110009551048279, 
                -0.029670467600226402, 
                -0.04817238450050354, 
                -0.18259523808956146, 
                0.012349975295364857, 
                -0.039863359183073044, 
                0.01884385012090206, 
                0.06050162389874458, 
                0.009902766905725002, 
                0.025213727727532387, 
                -0.12323484569787979, 
                -0.044188108295202255, 
                -0.027963439002633095, 
                -0.0004092895542271435, 
                -0.07258670777082443, 
                0.09755798429250717, 
                -0.005930482875555754, 
                0.032378338277339935, 
                -0.13649170100688934, 
                0.14843563735485077, 
                0.02463257871568203, 
                -0.031979989260435104, 
                -0.15423010289669037, 
                0.038536783307790756, 
                0.038050275295972824, 
                0.029353473335504532, 
                -0.022380230948328972, 
                -0.04846745356917381, 
                0.16881884634494781, 
                -0.018962597474455833, 
                0.11305034160614014, 
                0.019801154732704163
            ], 
            [
                0.02567015029489994, 
                -0.04458389803767204, 
                0.02984471432864666, 
                -0.1325615644454956, 
                0.15304861962795258, 
                0.14029602706432343, 
                0.0881514921784401, 
                0.03566889092326164, 
                0.019059566780924797, 
                0.07684764266014099, 
                -0.0929253101348877, 
                0.1794869750738144, 
                0.047870129346847534, 
                0.14855079352855682, 
                0.17474162578582764, 
                0.0022155942860990763, 
                0.08537743240594864, 
                0.014632572419941425, 
                0.05547714978456497, 
                0.1688663214445114, 
                -0.04293109104037285, 
                -0.17498913407325745, 
                -0.023952873423695564, 
                0.12663757801055908, 
                -0.018061645328998566, 
                0.019021397456526756, 
                -0.1792517900466919, 
                -0.05979572609066963, 
                -0.15762630105018616, 
                0.04052221402525902, 
                -0.10409698635339737, 
                -0.09606558829545975, 
                -0.07120035588741302, 
                -0.15455713868141174, 
                -0.09488237649202347, 
                0.07355134189128876, 
                0.06134068965911865, 
                -0.012239108793437481, 
                -0.010330175049602985, 
                0.00705130398273468, 
                -0.06709124892950058, 
                -0.027633732184767723, 
                0.03556918725371361, 
                0.17534475028514862, 
                0.10142677277326584, 
                -0.07674195617437363, 
                0.06046728417277336, 
                0.04028236120939255, 
                -0.14139433205127716, 
                -0.024121206253767014, 
                0.11545610427856445, 
                0.0015099028823897243, 
                0.12572309374809265, 
                -0.03105771355330944, 
                -0.02483188919723034, 
                0.13784556090831757, 
                -0.14565451443195343, 
                -0.18351280689239502, 
                -0.04470007121562958, 
                -0.09310927242040634, 
                -0.07658199220895767, 
                -0.04052074998617172, 
                0.12301770597696304, 
                -0.031212398782372475, 
                0.07909974455833435, 
                -0.12869171798229218, 
                -0.09372963756322861, 
                -0.08944758027791977, 
                -0.05374300479888916, 
                -0.012971855700016022, 
                0.058754242956638336, 
                0.007552344352006912, 
                0.008997146971523762, 
                0.0636521726846695, 
                0.0015576708829030395, 
                -0.15147273242473602, 
                0.02739644981920719, 
                -0.018221639096736908, 
                -0.10187244415283203, 
                -0.16091175377368927, 
                0.05668729171156883, 
                0.03927139565348625, 
                -0.12471335381269455, 
                -0.13829700648784637, 
                0.027631079778075218, 
                -0.07397492974996567, 
                0.12541230022907257, 
                -0.07063617557287216, 
                0.04898696392774582, 
                -0.1005711704492569, 
                0.0629156082868576, 
                0.008521108888089657, 
                -0.0327213816344738, 
                0.15709815919399261, 
                0.055050790309906006, 
                -0.09132225066423416, 
                -0.11597176641225815, 
                0.1572365015745163, 
                -0.14206019043922424, 
                0.07421717047691345
            ], 
            [
                -0.14053496718406677, 
                0.006928714457899332, 
                -0.04927937686443329, 
                0.12957777082920074, 
                0.007036390248686075, 
                0.08782999217510223, 
                -0.022724509239196777, 
                0.00846989918500185, 
                -0.10664404928684235, 
                0.13548792898654938, 
                -0.07455506175756454, 
                -0.10113060474395752, 
                -0.15261460840702057, 
                0.07180594652891159, 
                0.05970323085784912, 
                0.05886530503630638, 
                0.036486729979515076, 
                0.04419625923037529, 
                0.08336843550205231, 
                0.056594640016555786, 
                0.11731386184692383, 
                -0.019387884065508842, 
                0.007877926342189312, 
                -0.02821951173245907, 
                0.07890927046537399, 
                0.047949355095624924, 
                0.03731752932071686, 
                0.016749804839491844, 
                0.04564587399363518, 
                -0.02806510590016842, 
                0.061073292046785355, 
                0.0013963282108306885, 
                0.0947999656200409, 
                0.07223282009363174, 
                0.02143458090722561, 
                0.11639135330915451, 
                0.1866811215877533, 
                -0.10623055696487427, 
                0.06649333983659744, 
                0.010734590701758862, 
                0.026758162304759026, 
                0.05546919256448746, 
                0.003242718754336238, 
                0.07160239666700363, 
                0.13216951489448547, 
                0.012105146422982216, 
                0.06237068399786949, 
                -0.1443355232477188, 
                0.0803922489285469, 
                -0.020875511690974236, 
                -0.15250860154628754, 
                0.05587617680430412, 
                0.15993806719779968, 
                0.08025877922773361, 
                -0.029445884749293327, 
                -0.051684584468603134, 
                0.005148349329829216, 
                -0.09113004058599472, 
                0.14731253683567047, 
                0.07845569401979446, 
                0.01316178496927023, 
                -0.017313653603196144, 
                0.024484816938638687, 
                0.03296758979558945, 
                0.0490020290017128, 
                -0.016792282462120056, 
                -0.10638604313135147, 
                0.10661160200834274, 
                0.02403215877711773, 
                -0.10238035023212433, 
                0.08323980122804642, 
                -0.025772279128432274, 
                -0.020067747682332993, 
                0.018032802268862724, 
                0.04370655491948128, 
                -0.018761174753308296, 
                0.09049907326698303, 
                -0.10546207427978516, 
                0.042840033769607544, 
                -0.1748470813035965, 
                -0.10749951750040054, 
                0.0538213849067688, 
                0.03857724741101265, 
                -0.08503245562314987, 
                0.02559184469282627, 
                0.18888208270072937, 
                -0.03369305282831192, 
                0.11422103643417358, 
                -0.12288230657577515, 
                -0.0014022340765222907, 
                -0.1359783411026001, 
                0.029366308823227882, 
                -0.03463877737522125, 
                0.07907377928495407, 
                -0.015609134919941425, 
                0.04635801538825035, 
                -0.01451690774410963, 
                0.10776268690824509, 
                0.06357017159461975, 
                0.11955276876688004
            ], 
            [
                -0.15683701634407043, 
                -0.049437396228313446, 
                0.09963890165090561, 
                0.10178648680448532, 
                0.13954460620880127, 
                0.150046244263649, 
                -0.12967155873775482, 
                0.04225984588265419, 
                0.030337927863001823, 
                0.15744444727897644, 
                0.08444981276988983, 
                -0.05794771388173103, 
                -0.031118590384721756, 
                0.012441503815352917, 
                0.001191277988255024, 
                -0.1003149077296257, 
                0.015217130072414875, 
                0.09101104736328125, 
                -0.18565158545970917, 
                -0.002177802613005042, 
                -0.06476207077503204, 
                0.11250995844602585, 
                -0.14207088947296143, 
                0.009991210885345936, 
                0.005482197273522615, 
                -0.04191884025931358, 
                -0.11213838309049606, 
                -0.13360625505447388, 
                -0.11926662176847458, 
                0.06704019755125046, 
                -0.06429494917392731, 
                0.11625423282384872, 
                0.08224553614854813, 
                0.1221601590514183, 
                -0.12194552272558212, 
                0.14830635488033295, 
                -0.09443477541208267, 
                0.1779167801141739, 
                0.10403318703174591, 
                -0.003959844820201397, 
                -0.11955992132425308, 
                0.04006551206111908, 
                0.08731252700090408, 
                -0.10814639180898666, 
                0.06484506279230118, 
                -0.07271428406238556, 
                0.08709856867790222, 
                0.04613326117396355, 
                -0.11076982319355011, 
                -0.1152033805847168, 
                -0.07963456958532333, 
                0.126632958650589, 
                0.06023416668176651, 
                0.14111362397670746, 
                0.031923018395900726, 
                -0.08614841848611832, 
                0.16406457126140594, 
                0.016589125618338585, 
                0.03601252660155296, 
                0.18126004934310913, 
                0.01186839584261179, 
                0.005152602214366198, 
                -0.00395025173202157, 
                0.09833799302577972, 
                0.004474084358662367, 
                0.1196928396821022, 
                0.08530484884977341, 
                0.07420944422483444, 
                -0.10396180301904678, 
                -0.024779578670859337, 
                0.022509554401040077, 
                -0.07228933274745941, 
                -0.12693317234516144, 
                -0.03566502034664154, 
                0.12978793680667877, 
                -0.17582698166370392, 
                0.004399010445922613, 
                0.028517577797174454, 
                0.1345747709274292, 
                0.0791969820857048, 
                -0.08282949775457382, 
                0.11162763088941574, 
                0.02955636754631996, 
                -0.0010243868455290794, 
                0.009268859401345253, 
                0.12293844670057297, 
                0.050611138343811035, 
                0.06136897951364517, 
                -0.07508905977010727, 
                0.016804179176688194, 
                -0.04437066987156868, 
                0.002224826021119952, 
                -0.07642295211553574, 
                -0.004914086777716875, 
                -0.05295217037200928, 
                -0.10880934447050095, 
                0.09379640221595764, 
                0.0880454033613205, 
                0.019820980727672577, 
                0.1508728563785553
            ], 
            [
                -0.025783507153391838, 
                0.01778423972427845, 
                0.01725086010992527, 
                -0.013998578302562237, 
                -0.10398127138614655, 
                -0.1230241060256958, 
                0.024752886965870857, 
                0.12126000225543976, 
                -0.04269326478242874, 
                -0.05119713768362999, 
                0.019789310172200203, 
                -0.08499306440353394, 
                -0.12834006547927856, 
                -0.052463509142398834, 
                -0.03810965269804001, 
                0.0699530765414238, 
                -0.08918457478284836, 
                -0.05542313680052757, 
                0.05898493528366089, 
                0.03642481192946434, 
                -0.06672262400388718, 
                -0.03783750161528587, 
                0.11654900759458542, 
                0.0953805074095726, 
                0.14310342073440552, 
                -0.16897539794445038, 
                0.006929898168891668, 
                -0.03692033514380455, 
                0.005105643533170223, 
                -0.09270971268415451, 
                -0.11575108021497726, 
                -0.055309224873781204, 
                0.06314148753881454, 
                -0.020525198429822922, 
                0.06176837906241417, 
                0.03582962602376938, 
                -0.045111462473869324, 
                0.08405788242816925, 
                0.09911787509918213, 
                0.18486855924129486, 
                0.04826904460787773, 
                -0.07735847681760788, 
                0.16713020205497742, 
                0.11302906274795532, 
                0.0893503800034523, 
                0.0027771336026489735, 
                -0.025839371606707573, 
                0.018161365762352943, 
                0.13652099668979645, 
                0.12184827774763107, 
                -0.0013650740729644895, 
                0.04282871633768082, 
                0.12734712660312653, 
                0.039887282997369766, 
                0.04273442551493645, 
                0.11689529567956924, 
                -0.04037627950310707, 
                0.12328394502401352, 
                -0.11516693979501724, 
                -0.0701015368103981, 
                -0.10740893334150314, 
                -0.12483521550893784, 
                -0.09384319931268692, 
                0.03039131872355938, 
                0.02358371578156948, 
                0.029684970155358315, 
                -0.005900728981941938, 
                0.06558358669281006, 
                0.07495857775211334, 
                -0.09623231738805771, 
                -0.006940316408872604, 
                -0.004405561368912458, 
                -0.1221819743514061, 
                0.025590697303414345, 
                0.14480344951152802, 
                0.1221814975142479, 
                0.01712069660425186, 
                0.06521301716566086, 
                -0.008705546148121357, 
                0.1479284018278122, 
                0.12285492569208145, 
                -0.10650228708982468, 
                0.09371402114629745, 
                -0.06984027475118637, 
                -0.07378062605857849, 
                -0.05270690470933914, 
                0.07694774121046066, 
                -0.04541119188070297, 
                -0.19947753846645355, 
                0.06999164074659348, 
                -0.03196584805846214, 
                -0.06173470616340637, 
                0.11753883212804794, 
                0.027313431724905968, 
                -0.1310485601425171, 
                0.022687723860144615, 
                -0.13198702037334442, 
                -0.13966648280620575, 
                0.027608701959252357, 
                -0.09496772289276123
            ], 
            [
                -0.023946935310959816, 
                0.05339788272976875, 
                -0.027288733050227165, 
                0.08413555473089218, 
                0.014840385876595974, 
                -0.02473137155175209, 
                -0.11261792480945587, 
                0.06800663471221924, 
                0.1536523848772049, 
                0.027774197980761528, 
                0.10779228061437607, 
                0.03590398281812668, 
                -0.07661917060613632, 
                -0.1004844456911087, 
                0.07289958745241165, 
                -0.1238379254937172, 
                -0.07194531708955765, 
                0.00044228191836737096, 
                0.12992385029792786, 
                -0.041997771710157394, 
                0.02252241037786007, 
                0.07758127897977829, 
                -0.09406326711177826, 
                0.005005317740142345, 
                -0.1762225478887558, 
                -0.13606202602386475, 
                -0.14963506162166595, 
                0.08550440520048141, 
                -0.00928544346243143, 
                -0.08871275186538696, 
                0.11019279807806015, 
                -0.101246178150177, 
                -0.03150142356753349, 
                -0.03022988699376583, 
                -0.026446068659424782, 
                -0.014553573913872242, 
                -0.06705918163061142, 
                0.09639918804168701, 
                -0.06926610320806503, 
                -0.016179218888282776, 
                -0.18010561168193817, 
                -0.1295425295829773, 
                0.11219318211078644, 
                -0.1146417185664177, 
                0.005143249873071909, 
                -0.016140049323439598, 
                0.023570295423269272, 
                -0.007947566919028759, 
                -0.049906425178050995, 
                -0.057848136872053146, 
                -0.02883559837937355, 
                0.0005139429704286158, 
                -0.06887903809547424, 
                -0.09115435928106308, 
                0.1353202760219574, 
                0.007901307195425034, 
                0.0032366719096899033, 
                0.03838523477315903, 
                -0.09575387835502625, 
                -0.03616630658507347, 
                0.007124004419893026, 
                -0.17474406957626343, 
                0.033685486763715744, 
                -0.14482764899730682, 
                0.05294283106923103, 
                -0.07863589376211166, 
                -0.08986995369195938, 
                0.05221899226307869, 
                -0.08479594439268112, 
                0.18435586988925934, 
                0.13955363631248474, 
                -0.0600142665207386, 
                0.1340663880109787, 
                -0.15988609194755554, 
                -0.04084794223308563, 
                0.023329272866249084, 
                0.03334108740091324, 
                -0.020144909620285034, 
                -0.08828418701887131, 
                0.16181091964244843, 
                0.037048157304525375, 
                0.08588127046823502, 
                -0.052286963909864426, 
                0.08110219985246658, 
                0.11346673220396042, 
                0.08970151096582413, 
                -0.055743712931871414, 
                -0.024909241124987602, 
                0.046924665570259094, 
                0.006620907690376043, 
                -0.05165364220738411, 
                0.08372841030359268, 
                0.19027791917324066, 
                -0.08665537089109421, 
                0.08992736786603928, 
                0.08556726574897766, 
                0.11324967443943024, 
                0.03517257422208786, 
                0.105923593044281, 
                -0.0353744775056839
            ]
        ]
    }, 
    {
        "bias": [
            0.10000000149011612, 
            0.10000000149011612, 
            0.10000000149011612, 
            0.10000000149011612, 
            0.10000000149011612, 
            0.10000000149011612, 
            0.10000000149011612, 
            0.10000000149011612, 
            0.10000000149011612, 
            0.10000000149011612, 
            0.10000000149011612, 
            0.10000000149011612, 
            0.10000000149011612, 
            0.10000000149011612, 
            0.10000000149011612, 
            0.10000000149011612, 
            0.10000000149011612, 
            0.10000000149011612, 
            0.10000000149011612, 
            0.10000000149011612, 
            0.10000000149011612, 
            0.10000000149011612, 
            0.10000000149011612, 
            0.10000000149011612, 
            0.10000000149011612, 
            0.10000000149011612, 
            0.10000000149011612, 
            0.10000000149011612, 
            0.10000000149011612, 
            0.10000000149011612, 
            0.10000000149011612, 
            0.10000000149011612, 
            0.10000000149011612, 
            0.10000000149011612, 
            0.10000000149011612, 
            0.10000000149011612, 
            0.10000000149011612, 
            0.10000000149011612, 
            0.10000000149011612, 
            0.10000000149011612, 
            0.10000000149011612, 
            0.10000000149011612, 
            0.10000000149011612, 
            0.10000000149011612, 
            0.10000000149011612, 
            0.10000000149011612, 
            0.10000000149011612, 
            0.10000000149011612, 
            0.10000000149011612, 
            0.10000000149011612
        ], 
        "weights": [
            [
                0.07477431744337082, 
                0.05927771329879761, 
                -0.15964601933956146, 
                0.007107930723577738, 
                0.07205593585968018, 
                -0.03673319146037102, 
                0.09367475658655167, 
                -0.04656242951750755, 
                0.12068096548318863, 
                0.015437145717442036, 
                0.04002057760953903, 
                -0.1865779012441635, 
                -0.0036893829237669706, 
                0.002039831830188632, 
                -0.005815897602587938, 
                0.0939168781042099, 
                -0.15581922233104706, 
                0.10315876454114914, 
                0.01261818129569292, 
                -0.021838432177901268, 
                0.0838962271809578, 
                0.08335243165493011, 
                0.10355102270841599, 
                -0.06057018041610718, 
                0.12653803825378418, 
                -0.10283231735229492, 
                0.010066256858408451, 
                -0.06577497720718384, 
                -0.060714274644851685, 
                -0.1163615956902504, 
                0.016538290306925774, 
                -0.05591966584324837, 
                -0.09479310363531113, 
                0.12134112417697906, 
                0.06925316900014877, 
                -0.06260944157838821, 
                0.05445964261889458, 
                -0.10107990354299545, 
                -0.04948281869292259, 
                0.04817315191030502, 
                -0.08457434922456741, 
                -0.09432312101125717, 
                0.004353602882474661, 
                0.019930114969611168, 
                0.049212682992219925, 
                0.12245803326368332, 
                -0.0077673825435340405, 
                -0.053123172372579575, 
                -0.008322357200086117, 
                0.03166724368929863
            ], 
            [
                -0.07491587847471237, 
                -0.07907139509916306, 
                0.03611935302615166, 
                -0.06764950603246689, 
                0.02302701026201248, 
                0.02894202433526516, 
                0.02407468669116497, 
                0.06689759343862534, 
                0.12448897212743759, 
                0.015864456072449684, 
                0.10626953840255737, 
                0.060410987585783005, 
                -0.01182490959763527, 
                0.05877280235290527, 
                -0.002263435861095786, 
                -0.18960627913475037, 
                -0.08604874461889267, 
                0.04311645030975342, 
                -0.023990798741579056, 
                -0.15456514060497284, 
                0.04737625643610954, 
                0.10437412559986115, 
                -0.028033876791596413, 
                0.03446607291698456, 
                0.1319461613893509, 
                0.11927689611911774, 
                -0.05123358592391014, 
                0.03275616094470024, 
                0.15044911205768585, 
                0.14974510669708252, 
                -0.058059342205524445, 
                -0.07056975364685059, 
                -0.1468323916196823, 
                0.005300207529217005, 
                0.00841433834284544, 
                0.10990554094314575, 
                0.00745451170951128, 
                -0.05003342777490616, 
                -0.04080189764499664, 
                0.0017695100978016853, 
                0.07103355973958969, 
                0.01077751349657774, 
                0.0026589473709464073, 
                0.05192791298031807, 
                -0.05896541103720665, 
                0.12949731945991516, 
                -0.09352235496044159, 
                -0.04273804649710655, 
                -0.05483988672494888, 
                0.03337598964571953
            ], 
            [
                -0.006555144675076008, 
                -0.02871265448629856, 
                0.07469304651021957, 
                0.03529541194438934, 
                0.035263415426015854, 
                0.12628379464149475, 
                0.15203653275966644, 
                0.006244685035198927, 
                -0.0033651806879788637, 
                -0.030003640800714493, 
                -0.034775931388139725, 
                0.03872120380401611, 
                0.15591619908809662, 
                0.19788771867752075, 
                -0.06614018231630325, 
                0.06036372110247612, 
                -0.07010842114686966, 
                0.0341809056699276, 
                0.15603981912136078, 
                -0.04887445643544197, 
                0.03240027278661728, 
                -0.10062135756015778, 
                -0.053695566952228546, 
                -0.07157541811466217, 
                0.12395662069320679, 
                -0.0929245576262474, 
                0.007201056461781263, 
                -0.005883462261408567, 
                0.022068312391638756, 
                0.05528250336647034, 
                -0.06498567759990692, 
                -0.031035790219902992, 
                0.09130089730024338, 
                0.02949337102472782, 
                -0.17839348316192627, 
                0.1205916553735733, 
                0.054985612630844116, 
                -0.09262824803590775, 
                -0.0257155392318964, 
                0.03970872238278389, 
                -0.010580169968307018, 
                -0.014477123506367207, 
                -0.1488962024450302, 
                0.01054791733622551, 
                -0.01337531115859747, 
                -0.13276809453964233, 
                -0.03778696805238724, 
                -0.0019990920554846525, 
                0.09769657254219055, 
                -0.1763315051794052
            ], 
            [
                -0.01152136828750372, 
                -0.07032334059476852, 
                0.040946509689092636, 
                0.013363982550799847, 
                -0.11424630880355835, 
                -0.10090980678796768, 
                -0.13001523911952972, 
                -0.16497372090816498, 
                -0.13529840111732483, 
                0.04656323418021202, 
                -0.0024043249431997538, 
                0.067374087870121, 
                0.154650017619133, 
                0.10816991329193115, 
                0.019105182960629463, 
                -0.06368818134069443, 
                -0.09988170117139816, 
                -0.12559768557548523, 
                -0.19871465861797333, 
                -0.09897758811712265, 
                0.0767926499247551, 
                -0.015904512256383896, 
                0.025037407875061035, 
                0.15386591851711273, 
                -0.1354282945394516, 
                0.12033774703741074, 
                0.00639498932287097, 
                0.10101047903299332, 
                -0.021848944947123528, 
                -0.00895714107900858, 
                0.040418367832899094, 
                0.06713541597127914, 
                -0.08582805097103119, 
                0.13982191681861877, 
                -0.10947251319885254, 
                0.1285782754421234, 
                -0.06372375041246414, 
                -0.01097666285932064, 
                -0.0016805416671559215, 
                0.019163569435477257, 
                0.017590787261724472, 
                -0.11429297178983688, 
                -0.15153244137763977, 
                0.0030364084523171186, 
                -0.124894879758358, 
                -0.10991749912500381, 
                -0.1853763461112976, 
                0.0066167390905320644, 
                0.012914339080452919, 
                -0.13711707293987274
            ], 
            [
                -0.06846775859594345, 
                -0.12077575922012329, 
                -0.02492099069058895, 
                -0.15308906137943268, 
                0.03625964745879173, 
                0.018772095441818237, 
                -0.044172029942274094, 
                0.030871892347931862, 
                -0.13202059268951416, 
                0.0783860832452774, 
                -0.13431070744991302, 
                -0.11358745396137238, 
                0.015860846266150475, 
                0.03731566667556763, 
                -0.034239511936903, 
                0.1294546276330948, 
                -0.09557665884494781, 
                -0.025371262803673744, 
                -0.16283848881721497, 
                -0.06443426758050919, 
                0.01591871678829193, 
                -0.016275418922305107, 
                -0.09724049270153046, 
                0.02163785509765148, 
                -0.1917378008365631, 
                0.033839087933301926, 
                0.12054084986448288, 
                0.12396614998579025, 
                0.07513060420751572, 
                -0.138876810669899, 
                -0.10115601867437363, 
